tree
version=v4
num_class=1
num_tree_per_iteration=1
label_index=0
max_feature_idx=54
objective=binary sigmoid:1
feature_names=away_p_avg_velo away_p_bb_rate_vs_L away_p_bb_rate_vs_R away_p_career_bb_rate away_p_career_hr_rate away_p_career_k_rate away_p_fi_bb_rate away_p_fi_hr_rate away_p_fi_k_rate away_p_fi_k_rate_vs_L away_p_fi_k_rate_vs_R away_p_fi_platoon_k_rate away_p_fi_runs_per_start away_p_fi_starts away_p_gb_rate away_p_hr_rate_vs_L away_p_hr_rate_vs_R away_p_k_rate_vs_L away_p_k_rate_vs_R away_p_obpa_vs_L away_p_obpa_vs_R away_p_platoon_k_rate away_p_recent_fi_bb_rate away_p_recent_fi_k_rate away_p_recent_fi_runs away_p_rest_days away_p_season_bb_rate away_p_season_hr_rate away_p_season_k_rate away_p_whip_approx ctx_day_of_week ctx_is_weekend ctx_month env_elevation_ft env_humidity env_is_dome env_park_factor_hr env_park_factor_runs env_precipitation env_rolling_30d_bot1 env_rolling_30d_top1 env_rolling_30d_yrfi env_temp_max env_temp_min env_wind_mph home_lineup_pa_prob_4 home_lineup_pa_prob_5 home_lineup_pa_prob_6 home_lineup_top3_obp home_lineup_weighted_score home_platoon_lineup_obp home_platoon_lineup_woba ump_career_strike_rate ump_consistency ump_games_count
feature_infos=[85.976272583007812:101.17353057861328] [0:0.60000002384185791] [0:1] [0:0.75] [0:0.15000000596046448] [0:0.52631580829620361] [0:0.5] [0:0.40000000596046448] [0:1] [0:1] [0:1] [0:1] [0:9] [0:79] [0:1] [0:0.5] [0:0.3333333432674408] [0:1] [0:0.66666668653488159] [0:1] [0:1] [0:0.68375670909881592] [0:0.5] [0:1] [0:4.3333334922790527] [1:30] [0:0.75] [0:0.25] [0:0.72222220897674561] [0:9] [0:6] [0:1] [3:10] [5:5200] [5:100] [0:1] [84:115] [92:115] [0:114] [0.23523402214050293:0.34536388516426086] [0.21117424964904785:0.31526505947113037] [0.40527167916297913:0.54318451881408691] [32.200000762939453:106.59999847412109] [23.700000762939453:82.800003051757812] [0:32.900001525878906] [0.59820467233657837:0.8198811411857605] [0.28244972229003906:0.58602631092071533] [0.11514447629451752:0.38075867295265198] [0.26165050268173218:0.4341529905796051] [1.0412454605102539:1.9963531494140625] [0.19562692940235138:0.51648354530334473] [0.21264189481735229:0.51893669366836548] [0.21770000457763672:0.4512999951839447] [0:0.074000000953674316] [0:78]
tree_sizes=3381 3441 3430 3421 3425 3438 3463 3449 3426 3439 3431 3419 3467 3455 3460 3423 3446 3445 3427 3445 3432 3423 3468 3426 3448 3442 3389 3423 3450 3426 3453 3451 3414 3457 3442 3442 3438 3452 3452 3438 3444 3441 3431 3449 3437 3457 3456 3424 3441 3461 3435 3461 3461 3447 3451 3437 3441 3459 3441 3447 3451 3456 3457 3441 3453 3459 3450 3449 3452 3441 3451 3455 3442 3426 3437 3426 3455 3450 3432 3446 3436 3427 3455 3427 3405 3423 3445 3424 3428 3444 3450 3449 3451 3448 3413 3460 3451 3445 3441 3424 3430 3444 3458 3457 3455 3452 3419 3424 3463 3440 3440 3459 3424 3460 3455 3441 3455 3462 3455 3448 3455 3460 3443 3468 3441 3444 3452 3470 3455 3464

Tree=0
num_leaves=31
num_cat=0
split_feature=49 51 50 49 30 20 43 52 30 40 24 48 49 2 28 50 39 1 48 27 1 10 50 1 0 27 47 53 10 43
split_gain=8.91715 14.3781 13.2052 9.13366 6.23032 3.8684 4.54582 4.60209 3.60678 3.54313 3.34271 3.34258 3.33618 3.1014 3.09747 4.14218 3.60699 2.96564 2.89723 2.75386 2.9156 3.22342 2.64517 3.44416 2.59287 2.52344 2.47723 2.43622 2.64035 3.28592
threshold=1.4956260323524477 0.33774550259113317 0.35906364023685461 1.4366971850395205 3.5000000000000004 0.27331787347793585 50.750000000000007 0.32305942475795751 1.5000000000000002 0.28207667171955114 1.0000000180025095e-35 0.32424962520599371 1.7227906584739687 0.072332732379436507 0.18880265206098559 0.34203666448593145 0.29819276928901678 0.092868201434612288 0.33788166940212255 0.027579868212342266 0.090271633118391051 0.23281767219305041 0.34078490734100347 0.062090383842587478 93.941757202148452 0.025528719648718837 0.20308081805706027 0.034360101446509368 0.22485955059528354 59.45000076293946
decision_type=2 2 2 2 2 2 2 2 2 2 2 2 2 2 2 2 2 2 2 2 2 2 2 2 2 2 2 2 2 2
left_child=1 3 4 5 9 -1 17 10 -5 22 -8 13 -4 -12 15 16 18 -7 -3 20 -9 26 -2 -24 -19 -10 -22 28 -21 -30
right_child=2 14 12 8 -6 6 7 19 25 -11 11 -13 -14 -15 -16 -17 -18 24 -20 27 21 -23 23 -25 -26 -27 -28 -29 29 -31
leaf_value=-0.9098667825627279 -0.87310301284065195 -0.8672137833793957 -0.91380615383431818 -0.90209776918303441 -0.87004655176470025 -0.87320656446605804 -0.87222284775055081 -0.90515998492855931 -0.89031622206551375 -0.91171065857203626 -0.90537650849900908 -0.91037794257208982 -0.88718589077884613 -0.86268387339470776 -0.91758137537017037 -0.91847147239802474 -0.91570244004577483 -0.91219340068062071 -0.90284856449712114 -0.91348460675008869 -0.91490630098911918 -0.8669164007574155 -0.87094087995214708 -0.90529699082095727 -0.87946756095609235 -0.86057652337388557 -0.87804058936561025 -0.91443990783745366 -0.91113731559910527 -0.87518977179741153
leaf_weight=24.003992550075054 7.4209268353879514 4.5358993802219647 18.08035573549569 3.5837330687791136 23.667037680745125 9.9112191870808619 6.9726818315684822 11.449146134778859 4.6830184664577237 5.3810581080615512 2.1562618203461152 6.8709757123142481 4.5718032140284768 2.5429304223507643 46.046582698822021 7.1891113966703406 2.7145616076886654 4.1863564848899832 2.8421374652534723 5.233125161379574 3.163190955296157 4.1742864418774843 2.6062487326562396 8.6655519641935808 2.7542750928550959 8.6230109520256502 1.7026873398572204 23.508202418684959 2.8134907446801662 5.1150407586246729
leaf_count=409 141 62 381 62 413 156 104 178 78 64 40 98 94 38 744 131 52 58 36 77 51 63 51 162 34 142 26 329 49 83
internal_value=-0.898642 -0.901918 -0.88955 -0.89633 -0.880711 -0.899377 -0.896585 -0.899767 -0.876369 -0.891991 -0.887184 -0.897731 -0.908099 -0.880222 -0.913575 -0.902385 -0.890337 -0.882962 -0.879943 -0.904008 -0.895361 -0.883423 -0.88588 -0.895838 -0.898574 -0.869601 -0.90038 -0.908847 -0.898577 -0.888047
internal_weight=267.169 196.776 70.393 133.448 47.7408 116.558 92.5539 75.702 16.8898 24.0738 18.5428 11.5702 22.6522 4.69919 63.3283 17.2817 10.0926 16.8519 7.37804 57.1592 20.4893 9.04016 18.6927 11.2718 6.94063 13.306 4.86588 36.6699 13.1617 7.92853
internal_count=4406 3100 1306 2075 831 1793 1384 1136 282 418 280 176 475 78 1025 281 150 248 98 856 318 140 354 213 92 220 77 538 209 132
is_linear=0
shrinkage=1


Tree=1
num_leaves=31
num_cat=0
split_feature=49 51 50 49 30 20 43 38 51 54 51 1 9 30 49 52 7 28 50 16 16 27 1 47 48 45 51 27 54 15
split_gain=8.38473 13.678 12.3734 8.5541 5.72317 3.67548 4.26554 4.67638 4.82452 4.22832 3.92419 3.92313 3.5891 3.36199 3.17655 2.99018 3.17874 2.95645 3.94494 2.92974 3.80502 2.82864 2.7836 2.738 2.54596 2.53535 2.37153 2.30776 3.2024 2.02945
threshold=1.4956260323524477 0.33774550259113317 0.35906364023685461 1.4366971850395205 3.5000000000000004 0.27331787347793585 50.750000000000007 1.0000000180025095e-35 0.32896143198013311 34.500000000000007 0.33395403623580938 0.092868201434612288 0.17099640518426898 1.5000000000000002 1.7227906584739687 0.32234631478786474 0.036838088184595115 0.18880265206098559 0.34203666448593145 0.017932841554284099 0.032282877713441856 0.016410273499786857 0.08112728595733644 0.23060538619756701 0.33743490278720861 0.73802286386489879 0.41249476373195654 0.025528719648718837 40.500000000000007 0.031202601268887523
decision_type=2 2 2 2 2 2 2 2 2 2 2 2 2 2 2 2 2 2 2 2 2 2 2 2 2 2 2 2 2 2
left_child=1 3 4 5 12 -1 9 15 19 -7 -10 -11 -2 -5 -4 16 -8 18 24 -9 22 -17 -21 -14 -3 -25 -16 -15 -29 -27
right_child=2 17 14 13 -6 6 7 8 10 11 -12 -13 23 27 26 21 -18 -19 -20 20 -22 -23 -24 25 -26 29 -28 28 -30 -31
leaf_value=-0.010620127209952628 0.026406709422248795 0.019190961543671153 -0.014491400289970834 -0.0030470648970701308 0.027774029319847095 -0.0039825797720666554 0.019950765284363101 -0.010617326659289323 -0.020559073203821228 0.040605206960086668 0.013618029695280399 0.0042346461705875015 0.022488477474889888 0.0084246739113568204 0.024550647863624826 0.013749508278483619 -0.011402870546803017 -0.018196925937122757 -0.019118101357484783 0.008611712474237811 0.0060282282622699567 -0.013860876873531791 0.046127696891223119 -0.014421778071969402 -0.0090871132888983141 -0.0062739840217440326 -0.013066290869151865 0.012839639329539675 0.052432740597243038 0.023649914648660748
leaf_weight=23.893527671694756 5.2990706674754646 6.2471866123378295 17.966920871287588 3.5790208913385895 23.953289147466421 6.1021362431347397 5.7982884272932989 2.5137881655246082 6.8440812509506923 5.9324414916336519 3.99699273891747 4.9232856333255768 3.011917224153879 4.7000791616737834 3.0344092901796094 2.8701483439654103 4.163935536518693 45.683757921680808 7.1297398656606665 3.4314417429268378 9.5801059603691083 31.281760958954692 5.1692725792527199 9.441473597660659 3.881736883893609 3.4519371297210446 1.5600467324256895 4.2075129020959121 4.5535400323569775 2.928207878023386
leaf_count=409 106 97 381 62 413 137 88 47 90 61 49 50 51 78 59 48 62 744 131 51 159 465 77 154 53 54 35 90 52 53
internal_value=0.000343367 -0.00284161 0.00913836 0.00259426 0.0176323 -0.000366664 0.00234798 -0.000743674 0.00791411 0.0154969 -0.00774574 0.0259854 0.00680174 0.021819 -0.00888149 -0.00700431 0.00686424 -0.0142582 -0.00332476 0.0161657 0.0203076 -0.0111727 0.0337721 0.000156689 0.00837633 -0.00508953 0.0114572 0.0282876 0.0368352 0.00860016
internal_weight=267.131 196.484 70.6473 133.541 48.0859 116.501 92.6077 75.6498 31.5357 16.9579 10.8411 10.8557 24.1326 17.0402 22.5614 44.1141 9.96222 62.9424 17.2587 20.6946 18.1808 34.1519 8.60071 18.8335 10.1289 15.8216 4.59446 13.4611 8.76105 6.38015
internal_count=4406 3100 1306 2075 831 1793 1384 1136 473 248 139 111 418 282 475 663 150 1025 281 334 287 513 128 312 150 261 94 220 142 107
is_linear=0
shrinkage=0.03


Tree=2
num_leaves=31
num_cat=0
split_feature=49 51 50 49 30 50 38 29 7 34 28 18 9 49 45 30 23 10 3 34 34 39 45 49 44 45 14 39 14 19
split_gain=7.93992 13.6639 11.3013 7.57886 5.00089 4.46092 4.26374 3.98887 3.6377 3.32514 3.28111 4.75461 3.03495 3.03288 2.75526 3.90341 2.7508 2.64323 2.76097 2.63056 2.8329 4.61557 2.52687 2.8398 2.4014 2.33984 2.33092 2.31083 2.30507 2.279
threshold=1.4819135069847109 0.33774550259113317 0.35906364023685461 1.4111408591270449 3.5000000000000004 0.32932837307453161 0.15000000223517421 1.2350311279296877 0.010582306887954475 53.500000000000007 0.1953639164566994 0.21790464222431186 0.17099640518426898 1.7227906584739687 0.72120922803878795 1.5000000000000002 0.15192308276891711 0.19185000658035281 0.093931023031473174 39.500000000000007 46.500000000000007 0.28765149414539343 0.70320728421211254 1.4199686646461489 8.8499999046325701 0.73802286386489879 0.45302939414978033 0.2934753298759461 0.34626756608486181 0.29917176067829138
decision_type=2 2 2 2 2 2 2 2 2 2 2 2 2 2 2 2 2 2 2 2 2 2 2 2 2 2 2 2 2 2
left_child=1 3 4 7 12 8 -7 9 -5 -1 11 24 -2 -4 15 -14 -11 28 -19 -6 -21 -22 23 -12 -3 -16 -27 -15 -9 -18
right_child=2 10 13 5 19 6 -8 17 -10 16 22 -13 14 27 25 -17 29 18 -20 20 21 -23 -24 -25 -26 26 -28 -29 -30 -31
leaf_value=-0.019292343958270081 0.023060116369818726 -0.018573613389251981 -0.014075256807804852 -0.0063937039491218138 0.048359149263706699 -0.0090317806838861332 0.022081569943819435 0.018445679147812363 0.02712586136257859 0.019770513160444463 -0.01791098019929967 0.025630230263113625 -0.006384157306059849 -0.01003930637435585 -0.013895102883956458 0.042131867868542575 0.0018091046275833726 0.01062814846988798 -0.0067521008510315278 -0.0057420351098978898 0.034650634833856539 0.0059163128600060993 -0.025675507126476833 0.0087144876252833493 0.0063418776989437112 0.018879236432548324 -0.014250041233576406 0.026202201473800379 -0.011081653659738617 -0.021418495707282229
leaf_weight=16.856284741312265 6.1450775861740139 10.489644125103952 18.827895455062393 2.9544597864151028 3.2369075864553478 10.927953585982321 4.9320678487420073 1.8211439903825546 18.258097521960735 3.4820163529366281 9.1061899289488775 2.9207251500338307 2.4219587743282345 2.0189875997602931 10.144864898175003 2.0128638222813606 9.7001652736216766 32.826314454898238 9.9965786412358266 3.0134992767125395 12.231347642838957 9.1331928782165033 24.874460719525814 4.763890739530324 4.2924000769853583 4.4655390400439492 2.0119110718369484 2.5977574475109577 15.568124778568743 5.0081532076001158
leaf_count=270 124 169 400 59 60 156 74 27 248 55 154 46 39 34 170 35 165 522 160 47 175 194 389 80 71 73 36 60 232 82
internal_value=0.000353678 -0.00297249 0.00833207 0.00230522 0.0157127 0.0136284 0.00129055 -0.00218171 0.0223121 -0.0100899 -0.0151961 -0.00408236 0.00616136 -0.00880038 0.000339915 0.0190607 -0.000923179 0.00248638 0.00647518 0.0245247 0.01952 0.0232478 -0.0200058 -0.00869413 -0.0113002 -0.00536784 0.00785901 0.0111204 -0.00707284 -0.00686438
internal_weight=267.04 188.779 78.2618 132.331 54.8172 37.0726 15.86 95.2588 21.2126 35.0466 56.4473 17.7028 27.2022 23.4446 21.0571 4.43482 18.1903 60.2122 42.8229 27.6149 24.378 21.3645 38.7445 13.8701 14.782 16.6223 6.47745 4.61675 17.3893 14.7083
internal_count=4406 2959 1447 2050 953 537 230 1513 307 572 909 286 477 494 353 74 302 941 682 476 416 369 623 234 240 279 109 94 259 247
is_linear=0
shrinkage=0.03


Tree=3
num_leaves=31
num_cat=0
split_feature=49 51 50 49 30 48 16 45 9 52 54 47 49 52 49 3 13 40 49 49 12 1 34 7 50 41 42 40 7 54
split_gain=7.52581 12.9709 10.6406 7.11753 4.64157 4.3102 4.16588 5.44683 4.05215 4.01003 3.53782 3.43487 3.86095 3.49102 3.39209 3.62007 3.17963 2.94889 2.89176 2.78558 2.79598 2.53159 2.46564 2.78486 2.39402 2.27961 2.5566 2.35667 2.32313 2.25804
threshold=1.4819135069847109 0.33774550259113317 0.35906364023685461 1.4111408591270449 3.5000000000000004 0.32558229565620428 0.025161397643387321 0.705589920282364 0.25611211359500891 0.32288888096809393 53.500000000000007 0.2101983651518822 1.4173102378845217 0.33539257943630224 1.4366971850395205 0.077175810933113112 2.5000000000000004 0.24918171763420108 1.7227906584739687 1.3706104159355166 0.4690688848495484 0.0486404336988926 39.500000000000007 0.029721373692154888 0.32854674756526953 0.47761663794517523 75.250000000000014 0.30473664402961737 0.036393737420439727 32.500000000000007
decision_type=2 2 2 2 2 2 2 2 2 2 2 2 2 2 2 2 2 2 2 2 2 2 2 2 2 2 2 2 2 2
left_child=1 3 4 5 10 9 8 -8 -5 16 17 12 13 -3 24 -16 -1 -2 -4 -11 -21 -13 -6 29 -9 26 -7 -27 -28 -24
right_child=2 11 18 6 22 25 7 14 -10 19 -12 21 -14 -15 15 -17 -18 -19 -20 20 -22 -23 23 -25 -26 27 28 -29 -30 -31
leaf_value=-0.01414757813789342 -0.0025539271286730428 -0.022601801650361436 -0.01375552274267555 -0.010752740260410561 0.046565158615091813 -0.010341775838583372 0.039431305636597011 0.010712955190704674 0.022053141075629685 -0.0052334435835059718 -0.0084019774763174869 0.0012730093966626958 0.011612432950141314 0.010921215105289215 0.001248360245617535 0.038963155807450696 0.021752476104488275 0.021930846042445003 0.010825623317655192 0.029092576544432397 -0.0033164839635986729 -0.023084030964873582 0.019664641962247396 0.027317539788390403 -0.019789286080212892 -0.019225315288480489 0.025813183199673635 0.0087479181807664386 -0.0086934345779943554 -0.0058712693385256009
leaf_weight=1.8942954037338484 6.3557408954948249 9.6241343822330254 18.712578088045124 9.5240770839154703 3.29832988791168 8.9159117601811868 7.9379097092896727 3.5201909746974698 3.9970606733113518 35.941793253645301 9.2323893681168538 4.1027753669768563 7.4268094990402451 3.0423152334988108 4.5822329148650152 3.9099026061594486 12.29763627424836 11.661763984709976 4.6361181382089844 3.8037702683359367 4.2707287985831499 31.87655701674521 4.8256431221961993 13.900430981069801 3.8008107002824545 19.83873384445906 3.6561753023415795 2.4497004859149447 2.099527457728982 5.8348247036337852
leaf_count=41 139 152 400 137 60 142 109 50 63 606 88 75 127 63 69 57 189 250 94 59 68 492 131 214 52 299 52 25 32 71
internal_value=0.000356449 -0.0028884 0.00811007 0.00223815 0.0152302 -0.00212135 0.0131732 0.0204891 -0.000100666 0.00294301 0.00601506 -0.0148504 -0.00450958 -0.0142303 0.00911156 0.0210463 0.0162461 0.0135347 -0.00856893 -0.00157852 0.0133091 -0.0203067 0.023671 0.0188363 -0.00541762 -0.0100041 -0.000593619 -0.0158428 0.0135804 0.00625447
internal_weight=266.971 188.513 78.4578 132.44 55.1091 95.1683 37.2722 23.751 13.5211 58.2082 27.2499 56.0726 20.0933 12.6664 15.8131 8.49214 14.1919 18.0175 23.3487 44.0163 8.0745 35.9793 27.8592 24.5609 7.321 36.96 14.6716 22.2884 5.7557 10.6605
internal_count=4406 2959 1447 2050 953 1513 537 337 200 963 477 909 342 215 228 126 230 389 494 733 127 567 476 416 102 550 226 324 84 202
is_linear=0
shrinkage=0.03


Tree=4
num_leaves=31
num_cat=0
split_feature=50 45 28 50 48 10 20 11 29 3 20 54 36 1 51 6 1 28 6 6 52 32 15 13 45 28 17 39 14 4
split_gain=4.76714 4.97942 4.35486 4.1999 6.66231 4.09252 3.90341 3.71767 4.75092 3.61916 3.18532 3.15349 2.98121 4.14783 2.93065 2.85309 3.37855 3.41925 3.37477 3.90596 2.83682 2.81996 2.64564 2.52972 2.92815 2.52578 3.25058 2.45407 2.1921 2.29783
threshold=0.37666662037372595 0.76216375827789318 0.14710801094770434 0.34041503071784979 0.34491370618343359 0.24475114047527316 0.28500412404537206 0.22498441487550738 1.1978791952133181 0.089750967919826521 0.3802234828472138 54.500000000000007 94.500000000000014 0.040858060121536262 0.34905615448951727 0.095311354845762267 0.12917663156986239 0.15572873502969745 0.11227218061685564 0.12380779534578325 0.32795214653015142 6.5000000000000009 0.044597826898097999 12.500000000000002 0.72471958398818981 0.21209508925676349 0.28869608044624334 0.2996699213981629 0.45871765911579138 0.035002917051315315
decision_type=2 2 2 2 2 2 2 2 2 2 2 2 2 2 2 2 2 2 2 2 2 2 2 2 2 2 2 2 2 2
left_child=1 2 9 4 6 21 11 14 -9 12 -11 -4 -1 -14 -6 16 17 -8 -17 -20 28 22 -5 24 -23 -7 -27 -15 29 -19
right_child=-2 -3 3 5 7 25 15 8 -10 10 -12 -13 13 27 -16 18 -18 20 19 -21 -22 23 -24 -25 -26 26 -28 -29 -30 -31
leaf_value=0 -0.01920669897089753 0.027392442931768519 -0.0020743105148573692 -0.024893000485150602 0.041906971149904562 0.014117318880027149 -0.019768250820668066 0.026637725436817118 -0.009722707641360958 -0.016676468613212966 0.022481786597842425 -0.019053845022902197 -0.0023974344428664574 0.052026844712961456 0.0015372646212786824 -0.013191024338516716 -0.017308997665430842 0.034206421819033626 0.021935996123580142 -0.0055086733651635213 0.0045643074764345586 -0.0097046415775582772 0.0034851875967040614 -0.012190252710835932 0.029382142111307023 -0.010971829375130538 0.011921436332570605 0.011131870202381862 0.0022977998422231295 0.010155465889375551
leaf_weight=4.0957043953239944 9.7468602340668422 5.3657378610223523 31.366730099543929 17.816170847043399 5.9282868318259734 8.3161231279373151 2.6842475757002822 4.543356476351617 6.8242872413247824 4.7964917216449967 1.7667810749262569 13.715005129575728 2.521932262927292 4.5906635019928217 2.3165857829153538 16.725991951301694 3.9419678077101699 8.4071358814835602 6.5220572054386166 11.386410957202314 34.523576332256198 2.4301151074469081 3.1318384297192088 9.2155392710119468 2.7319613397121429 17.442650467157367 7.0220690798014394 2.7439002692699432 6.182581514120101 8.0623279288411123
leaf_count=62 217 116 610 283 98 148 41 77 121 75 31 131 38 60 37 231 63 120 89 187 518 61 61 161 70 309 132 53 94 112
internal_value=0.000364129 0.00118337 0.00051266 -0.000679479 0.00192866 -0.00688578 -0.000349294 0.017879 0.00566714 0.0134264 -0.00435828 -0.00757385 0.0216249 0.0298529 0.0321196 0.00298721 0.00672187 0.00858743 -0.00384608 0.00503854 0.0102614 -0.0138237 -0.0206165 -0.00313215 0.0121493 0.000734252 -0.0041318 0.040079 0.0183206 0.0237739
internal_weight=266.865 257.118 251.752 231.237 163.131 68.1065 143.518 19.6125 11.3676 20.5155 6.56327 45.0817 13.9522 9.8565 8.24487 98.4363 63.8018 59.8599 34.6345 17.9085 57.1756 35.3256 20.948 14.3776 5.16208 32.7808 24.4647 7.33456 22.652 16.4695
internal_count=4406 4189 4073 3754 2529 1225 2196 333 198 319 106 741 213 151 135 1455 948 885 507 276 844 636 344 292 131 589 441 113 326 232
is_linear=0
shrinkage=0.03


Tree=5
num_leaves=31
num_cat=0
split_feature=49 50 50 49 51 37 4 49 51 45 46 49 46 51 52 38 50 49 38 29 50 19 7 15 40 34 3 26 44 13
split_gain=9.15336 10.211 8.4925 5.95682 5.84467 6.74189 5.03847 4.38023 10.3119 4.27591 4.11251 3.71303 3.6756 3.59046 3.50507 4.34537 3.1484 3.10978 3.08143 3.06267 3.00304 3.03568 2.9837 2.91436 2.86929 2.88302 2.7844 3.1675 4.58767 2.63501
threshold=1.5379287600517275 0.37572932243347174 0.34247069060802465 1.4111408591270449 0.33774550259113317 105.50000000000001 0.019616588950157169 1.6722967028617861 0.36299449205398565 0.69764330983161937 0.4536746889352799 1.5793151855468752 0.38240198791027075 0.32611326873302465 0.33158092200756079 0.15000000223517421 0.32932837307453161 1.5018021464347842 0.55000001192092907 1.2593466043472292 0.32281646132469183 0.32172748446464544 0.037399070337414748 0.022257608361542228 0.28899049758911138 70.500000000000014 0.059849016368389137 0.093795821070671095 9.0500001907348651 5.5000000000000009
decision_type=2 2 2 2 2 2 2 2 2 2 2 2 2 2 2 2 2 2 2 2 2 2 2 2 2 2 2 2 2 2
left_child=2 7 3 13 6 22 -5 8 -2 -8 -10 -12 -4 14 15 19 23 -7 -18 -1 21 -21 -6 -11 25 26 -15 28 -28 -17
right_child=1 -3 12 4 5 17 9 -9 10 16 11 -13 -14 24 -16 29 18 -19 -20 20 -22 -23 -24 -25 -26 -27 27 -29 -30 -31
leaf_value=-0.014520954688084375 0.029430536060659703 -0.016715005062211481 0.020069840754042449 -0.011804625852412605 -0.015846745388583452 0.0044863237830975178 0.04460378294264114 0.037364823489518743 0.02101139830237965 -0.0053257574866839331 -0.031411619134971237 0.00031625277478691783 -0.017217848463772233 -0.019119672590777802 -0.0081195401017286964 -0.0060441995915232411 -0.0061296436507349951 0.041980122401247412 0.024263566068665796 0.02826099296061441 -0.018536259146555756 -0.0023031266993851123 0.0029758709417211596 0.027064535185460436 -0.026387206695448192 -0.024374144513624983 0.025648291989484151 -0.013182717891350169 -0.014191094972361207 0.024898650026170168
leaf_weight=9.6465514861047286 14.758153187111022 8.5231702756136638 1.6780550777912129 5.0416020043194285 18.612857215106491 5.0903319884091607 4.0635737720876923 7.6701243706047526 3.3691417053341857 2.5682276561856332 4.5277874544262877 8.0314373541623336 38.808895347639918 4.7110086400061908 30.147875972092152 2.6302944738417855 10.139173129573463 2.7303289026021957 3.1060208342969409 5.150460306555031 2.3403144478797904 5.1524022538214922 11.713722513988612 13.695302980020641 9.0250153094530088 5.4044508188962928 7.5593645907938463 4.7604744154959908 2.9279994107782841 10.515758236870168
leaf_count=160 271 178 39 81 292 84 53 145 72 45 62 137 735 71 519 48 141 39 42 81 39 90 181 193 105 86 120 79 48 164
internal_value=-0.000364057 0.0115094 -0.00297443 -9.7933e-05 0.00613492 -0.00215961 0.0142147 0.0180846 0.0121911 0.0183939 -0.00448825 -0.0124845 -0.0151897 -0.0049119 -0.000720725 0.00558292 0.0133918 0.0210214 0.00209527 -0.00250611 0.0069435 0.0139919 -0.00866566 0.0218506 -0.0126165 -0.00684451 -0.0010898 0.00522234 0.0141277 0.0186119
internal_weight=264.1 46.8798 217.22 176.733 76.7611 38.1472 38.6139 38.3566 30.6865 33.5723 15.9284 12.5592 40.487 99.972 65.5837 35.4358 29.5087 7.82066 13.2452 22.2897 12.6432 10.3029 30.3266 16.2635 34.3883 25.3633 19.9588 15.2478 10.4874 13.1461
internal_count=4400 865 3535 2761 1151 596 555 687 542 474 271 199 774 1610 1101 582 421 123 183 370 210 171 473 238 509 404 318 247 168 212
is_linear=0
shrinkage=0.03


Tree=6
num_leaves=31
num_cat=0
split_feature=50 45 37 14 21 10 10 17 20 6 12 12 50 50 15 41 42 1 10 45 26 20 22 23 14 42 9 33 11 2
split_gain=4.3026 8.63003 4.27354 2.99583 4.28523 5.04504 3.50204 3.21267 3.04993 3.35016 2.70287 5.11922 3.31183 5.05166 2.68864 2.67668 2.51515 2.49952 3.05044 3.00021 3.07511 2.86033 2.69354 2.43646 2.38444 2.29188 3.74732 3.17714 3.83161 2.22264
threshold=0.37666662037372595 0.76060348749160778 105.50000000000001 0.34626756608486181 0.26629115641117101 0.24475114047527316 0.4220647811889649 0.2408912852406502 0.35742057859897619 0.079732373356819167 0.84292763471603405 0.62331080436706554 0.30922859907150274 0.34418180584907537 0.044597826898097999 0.51652082800865184 85.049999237060561 0.093472670763731017 0.16740413010120395 0.70897695422172557 0.080039061605930342 0.30438479781150823 0.15192308276891711 0.10818713530898096 0.36012423038482672 80.649997711181655 0.26546555757522589 205.00000000000003 0.25209772586822515 0.072093728929758086
decision_type=2 2 2 2 2 2 2 2 2 2 2 2 2 2 2 2 2 2 2 2 2 2 2 2 2 2 2 2 2 2
left_child=1 2 3 -1 5 8 14 -6 17 -10 11 12 -4 15 25 24 -9 18 19 -5 -21 22 -19 -20 -14 26 -7 -27 -29 -25
right_child=-2 -3 10 4 7 6 -8 16 9 -11 -12 -13 13 -15 -16 -17 -18 21 23 20 -22 -23 -24 29 -26 27 -28 28 -30 -31
leaf_value=0.0085536074249710214 -0.018734033672017727 0.029221191473828921 -0.017297370993199855 -0.0042552192682514629 0.0049494479443323441 0.00069425596848747854 -0.019060704610599638 -0.021333852972779777 0.029836857115969253 -0.0036961808379978103 -0.011760922468162733 0.031795076976671804 -0.00404832810474873 -0.0093821354716993634 -0.0079270016601306302 -0.0097454811004952201 0.01019859098144754 0.0049751585187904493 -0.024216496947112417 0.034546612197239986 -0.0086324999147440185 -0.022319790212370672 -0.023762242550759136 -0.010633698517288029 0.026334664948778223 0.039831579123792579 0.021779982245677725 0.028233447378452872 -0.013312314363356666 0.0046911055434804196
leaf_weight=19.152286227792501 9.9833547193557006 8.0466555561870319 4.2086495179682997 7.2738244924694282 6.0503610540181425 30.512860205024481 4.0609346069395533 22.291644163429741 3.27302856184542 6.5312068816274405 4.6571378428488961 7.1734722461551419 2.3793836645782056 8.5159643683582527 8.406448118388651 2.1820247098803511 1.8695118241012085 9.417067890986802 5.9493041746318331 4.112735141068697 1.5443805903196333 17.297074740752578 3.0885141789913169 19.59263626858592 13.494263332337139 3.980154460296033 9.1984989419579488 2.6539981737732887 3.4513109959661961 13.59666773304343
leaf_count=356 223 156 56 122 108 459 75 368 56 122 88 112 37 152 145 35 26 153 90 77 28 249 51 297 218 55 142 42 50 252
internal_value=-0.000347009 0.000440552 -0.000609642 -0.00243268 -0.00362341 -0.00154667 0.00498301 -0.0137686 -0.00600356 0.00908505 0.00791035 0.0106026 0.00477133 0.00882176 0.00697954 0.0175281 -0.018526 -0.00791635 -0.00378433 0.00835955 0.0230075 -0.0147297 -0.00324501 -0.00794221 0.0217215 0.00963202 0.00603029 0.0218552 0.00596845 -0.00435813
internal_weight=263.945 253.962 245.915 203.304 184.152 153.941 62.2642 30.2115 91.6764 9.80424 42.6109 37.9538 30.7803 26.5716 58.2033 18.0557 24.1612 81.8722 52.0695 12.9309 5.65712 29.8027 12.5056 39.1386 15.8736 49.7968 39.7114 10.0855 6.10531 33.1893
internal_count=4400 4177 4021 3323 2967 2465 968 502 1497 178 698 610 498 442 893 290 394 1319 866 227 105 453 204 639 255 748 601 147 92 549
is_linear=0
shrinkage=0.03


Tree=7
num_leaves=31
num_cat=0
split_feature=49 50 50 49 51 28 51 37 47 15 39 28 49 45 50 43 51 49 26 45 13 46 16 54 28 0 28 54 26 51
split_gain=8.46996 9.2684 7.97737 5.75132 4.96897 4.31969 4.15597 3.69677 3.52375 3.44526 3.936 3.50841 3.43966 5.48076 3.56598 3.62566 3.224 6.38523 2.82722 3.22207 3.30462 2.64035 2.59554 2.63896 2.37611 3.68494 4.29484 2.79487 2.42806 2.22909
threshold=1.5379287600517275 0.37572932243347174 0.34247069060802465 1.4394737482070925 0.34943988919258123 0.17655051499605182 0.34051059186458593 105.50000000000001 0.18915506452322009 0.020287418738007549 0.32413837313652044 0.21872523427009585 1.4111408591270449 0.69790896773338329 0.32434684038162237 54.95000076293946 0.35998095571994787 1.6722967028617861 0.057318547740578658 0.72619998455047619 3.5000000000000004 0.4536746889352799 0.01977350935339928 48.500000000000007 0.20298890769481662 92.268844604492202 0.24754087626934054 36.500000000000007 0.059584718197584159 0.36777478456497198
decision_type=2 2 2 2 2 2 2 2 2 2 2 2 2 2 2 2 2 2 2 2 2 2 2 2 2 2 2 2 2 2
left_child=2 5 3 6 18 -2 9 -6 -4 11 12 -1 22 -14 -15 -16 -7 21 -5 20 -20 29 23 -11 27 26 -26 -24 -29 -18
right_child=1 -3 8 4 7 16 -8 -9 -10 10 -12 -13 13 14 15 -17 17 -19 19 -21 -22 -23 24 -25 25 -27 -28 28 -30 -31
leaf_value=0.0006616741881467213 0.035627135558721476 -0.016063486956339707 0.019654256349731225 -0.00052058950057581757 -0.018143616997309341 0.025076634316283312 -0.018981970359807851 0.020490255419579356 -0.016763341605128549 -0.0019265627885791535 -0.023715542871738944 -0.020084074502593804 0.043424369856393231 0.024546614907349874 0.022744385122090316 -0.013043901551593701 0.033681392395023366 0.028128664351957534 -0.0020413004446951421 -0.0033939240327878792 0.028660427117215698 -0.012632250569787019 0.0067574284588290106 0.025730063743168774 0.037915035229207271 -0.0025918557049916949 -0.0099613184982984757 0.0026395914844930691 -0.022091191237272288 -0.0071118806338336645
leaf_weight=13.448104439303281 8.2052317280322296 8.4019321091473085 1.6906379237771023 8.392032213509081 7.8286481481045467 9.3338211271911877 12.550450121983884 2.0392365399748087 38.448715966194868 5.6680421493947488 4.2894926741719237 14.639131749048827 3.4140227418392923 4.7248904835432795 2.4238369949161997 9.0047995392233116 1.463933253660801 5.978079440072178 3.5171317607164445 4.3721055686473838 18.169186718761921 12.007738603278993 5.8730316981673267 5.3200639374554157 3.7611137852072707 27.737252091988921 2.0125689338892698 4.3911667875945595 13.020462263375519 1.7127015199512241
leaf_count=229 145 178 39 127 128 176 191 33 735 124 98 245 41 62 28 115 26 109 70 83 271 189 127 54 56 447 28 49 155 42
internal_value=-0.000333844 0.0110539 -0.00285503 -7.45192e-05 0.00914962 0.017235 -0.00322168 -0.00887099 -0.0147525 -0.00141364 0.00141268 -0.0104182 0.00291807 0.0136659 0.0051242 -0.00411377 0.0112648 0.00424878 0.0144583 0.0191786 0.0237445 -0.00621715 -0.000316342 0.012368 -0.00296785 0.00211602 0.0219982 -0.0101321 -0.0159681 0.0148915
internal_weight=263.84 47.1034 216.736 176.597 44.3183 38.7015 132.278 9.86788 40.1394 119.728 91.6407 28.0872 87.3513 19.5675 16.1535 11.4286 30.4963 21.1625 34.4505 26.0584 21.6863 15.1844 67.7837 10.9881 56.7956 33.5109 5.77368 23.2847 17.4116 3.17663
internal_count=4400 865 3535 2761 712 687 2049 161 774 1858 1384 474 1286 246 205 143 542 366 551 424 341 257 1040 178 862 531 84 331 204 68
is_linear=0
shrinkage=0.03


Tree=8
num_leaves=31
num_cat=0
split_feature=49 50 50 49 28 53 52 52 34 47 27 40 26 11 29 11 19 13 41 9 49 50 19 29 54 8 53 54 26 12
split_gain=8.00278 8.76081 7.57565 5.40133 3.98544 3.59108 3.69483 3.73865 3.43815 3.3799 3.24927 3.29586 3.22526 5.16012 4.34318 3.04537 3.46294 3.06557 3.80224 3.02959 2.84844 4.43382 2.80517 3.11006 2.78593 2.71313 2.65593 2.58321 2.46361 2.46197
threshold=1.5379287600517275 0.37572932243347174 0.34247069060802465 1.4394737482070925 0.17655051499605182 0.036638356745243079 0.3318020105361939 0.33070695400238043 54.500000000000007 0.18915506452322009 0.016085905954241756 0.28958654403686529 0.073714014142751708 0.30619883537292486 1.2721289992332461 0.30126504600048071 0.34378275275230413 59.500000000000007 0.50764223933219921 0.192484125494957 1.6722967028617861 0.35291111469268804 0.31179633736610418 1.3804495334625246 47.500000000000007 0.18722837418317798 0.03888960927724839 51.500000000000007 0.049940617755055434 0.35355392098426824
decision_type=2 2 2 2 2 2 2 2 2 2 2 2 2 2 2 2 2 2 2 2 2 2 2 2 2 2 2 2 2 2
left_child=2 4 3 5 29 6 7 12 -9 -4 -7 22 14 24 28 16 17 18 26 -13 21 -6 -12 27 -14 -16 -5 -24 -1 -2
right_child=1 -3 9 15 20 10 -8 8 -10 -11 11 19 13 -15 25 -17 -18 -19 -20 -21 -22 -23 23 -25 -26 -27 -28 -29 -30 -31
leaf_value=0.016794549557895444 0.0039190319009072463 -0.015736124376568818 0.019179294480259394 0.030112270231529594 0.017020167630843606 -0.026738714504721352 -0.006394838425181828 0.048970277072221756 0.00087868153173969825 -0.016395403889996534 -0.010052378132254368 0.004432813545812664 0.0024240335571134152 0.024732494024972965 0 -0.0074803623137796836 -0.0040317927444339504 -0.0072330599375307232 -0.0065722318082557084 -0.030182383107826141 0.027579630902881517 -0.0077129269495646241 0.0016230126695907781 -0.0056270906156855446 -0.018870450501927573 0.038035376682052154 0.0019204420965872094 0.033876694717694757 -0.011189148251965981 0.04294423025830215
leaf_weight=3.5012141391634959 2.2117010299116355 8.3411508575081807 1.705072347074746 17.655340710654865 13.082169378176337 7.3766962457448235 36.742094691842794 2.2904052119702092 2.4269774090498686 38.159094700589776 14.787681175395848 2.8008340857923013 9.0683262776583486 3.685554636642336 2.2573990859091273 7.6746154967695466 8.3782650493085367 3.4452752098441115 3.4257638324052087 6.7092232368886471 6.2800030875951043 11.23555340990424 4.393380459398033 7.9740260932594529 12.004925262182949 5.3755276668816805 3.8929811734706155 4.0363131538033485 6.6167798899114132 6.1031787414103746
leaf_count=59 41 178 39 267 230 108 605 27 35 735 248 33 190 59 33 134 149 31 62 78 116 196 89 131 121 81 69 42 110 104
internal_value=-0.000307449 0.0107395 -0.00276509 -6.16111e-05 0.0167044 -0.0031203 0.000623787 0.00613467 0.0289719 -0.014405 -0.00956944 -0.00585516 0.00295828 -0.00396437 0.0123904 0.00885619 0.0124108 0.0172815 0.0208694 -0.0203933 0.010953 0.00568017 -0.00088018 0.00740471 -0.00994429 0.0280277 0.0253966 0.0191806 -0.000731194 0.0342599
internal_weight=263.638 47.2538 216.384 176.52 38.9126 132.047 83.9692 47.2271 4.71738 39.8642 48.0782 40.7015 42.5097 24.7588 17.7509 44.4722 36.7976 28.4194 24.9741 9.51006 30.5977 24.3177 31.1914 16.4037 21.0733 7.63293 21.5483 8.42969 10.118 8.31488
internal_count=4400 865 3535 2761 687 2049 1320 715 62 774 729 621 653 370 283 712 578 429 398 111 542 426 510 262 311 114 336 131 169 145
is_linear=0
shrinkage=0.03


Tree=9
num_leaves=31
num_cat=0
split_feature=49 51 51 49 34 9 29 33 40 53 23 52 4 52 11 41 6 49 45 43 4 4 49 6 4 38 5 48 0 23
split_gain=7.55241 8.34988 6.58822 8.35359 5.11493 3.65453 3.6032 3.65545 3.89112 3.17152 3.33166 3.24053 3.13946 4.2379 4.32724 3.43452 3.10486 4.03568 3.29044 2.92273 2.60873 2.59446 2.49374 2.64166 2.44444 2.44126 2.64576 2.43178 2.41029 2.34932
threshold=1.5379287600517275 0.39886267483234411 0.34075081348419195 1.4295547604560854 38.500000000000007 0.13680927455425265 1.1057547330856325 50.000000000000007 0.27405096590518957 0.036981195211410529 0.18465909361839297 0.3318020105361939 0.035233668982982642 0.33070695400238043 0.18451692909002307 0.49452535808086401 0.067491646856069579 1.4779529571533205 0.72696766257286083 53.549999237060554 0.033935764804482467 0.020850053988397125 1.412138104438782 0.091989282518625273 0.043519433587789542 1.2500000000000002 0.22364627569913867 0.3527894020080567 92.99084854125978 0.22788461297750476
decision_type=2 2 2 2 2 2 2 2 2 2 2 2 2 2 2 2 2 2 2 2 2 2 2 2 2 2 2 2 2 2
left_child=2 6 3 9 -4 -5 -2 8 25 11 19 12 13 14 -1 21 17 20 -19 -11 -6 -16 24 -24 28 26 -8 -7 29 -13
right_child=1 -3 4 5 16 27 7 -9 -10 10 -12 22 -14 -15 15 -17 -18 18 -20 -21 -22 -23 23 -25 -26 -27 -28 -29 -30 -31
leaf_value=-0.016259525206344144 -0.0052537215956972956 -0.018646940944385366 0.013753434156503959 -0.0079867122994472968 -0.02104035358708916 0.022703286305902251 -0.0086938649120697452 0.026313304817576284 -0.017558340759533601 -0.019418041317300239 -0.016192885033923056 -0.012504599499924385 -0.0051964806919940201 0.040791326901443874 -0.0043802911581502599 -0.0049335365071057199 -0.017649863672366303 0.025587374372972007 -0.010122779761132981 0.010073910264823578 0.0044751939348757503 0.025223279466442265 0.023451326924679008 -0.010923813191204581 0.0143609741199967 0.039381460784226732 0.023974821072456368 -0.0042320839743756732 -0.019599201268234133 0.014811258228588557
leaf_weight=4.9390221219509902 5.8652211651206008 6.6793066393584004 6.3958175741136065 4.6396973952651051 9.754685031250121 21.984355816617612 4.366202397271989 22.142224971204996 3.6169391330331555 3.1437569744884959 24.150404073297977 5.4976590182632261 14.412134597077964 2.9311749320477238 2.8648626450449255 6.6239558737725011 40.894539043307304 5.0421767216175777 2.9962741360068321 10.165100380778311 4.8407709263265124 12.869266124442218 3.7912094015628091 2.6123833935707808 2.4718067385256282 1.8788804206997154 2.8496523033827543 3.0396850593388072 15.957745319232343 4.0195726230740547
leaf_count=72 123 136 111 90 167 338 79 395 53 47 384 94 231 37 50 104 702 88 67 153 85 183 49 35 52 27 52 60 272 64
internal_value=-0.000284199 0.0104267 -0.00267828 0.000947708 -0.0101828 0.0148932 0.0155643 0.0191583 0.00557557 -0.00268847 -0.00975695 0.000724889 0.00601417 0.0114024 0.00686361 0.0125133 -0.0127917 -0.00357511 0.0124634 0.00213243 -0.0127373 0.0198038 -0.00608211 0.00964386 -0.00994598 0.0157524 0.00537274 0.0193369 -0.0128145 -0.000513865
internal_weight=263.436 47.3984 216.038 146.114 69.9243 29.6637 40.7191 34.8539 12.7117 116.45 37.4593 78.9908 44.6404 30.2283 27.2971 22.3581 63.5284 22.6339 8.03845 13.3089 14.5955 15.7341 34.3504 6.40359 27.9468 9.09474 7.21585 25.024 25.475 9.51723
internal_count=4400 865 3535 2315 1220 488 729 606 211 1827 584 1243 677 446 409 337 1109 407 155 200 252 233 566 84 482 158 131 398 430 158
is_linear=0
shrinkage=0.03


Tree=10
num_leaves=31
num_cat=0
split_feature=49 51 50 49 28 7 48 28 51 49 48 1 1 9 4 16 9 51 18 50 18 51 18 7 2 42 44 0 54 49
split_gain=8.32769 11.2032 7.93445 5.57832 4.8254 4.36601 4.10906 3.79298 3.4734 7.41981 3.4243 3.27809 3.03725 2.96863 4.51466 3.18643 2.92466 2.72531 2.72371 2.7217 2.68848 2.6436 2.57635 3.08096 2.86659 4.24354 3.34522 2.83723 2.48768 2.3077
threshold=1.4956260323524477 0.34051059186458593 0.37469732761383062 1.4182473421096804 0.1795323267579079 0.029466030187904838 0.33196063339710241 0.1454972252249718 0.35587802529335028 1.6059614419937136 0.32542231678962713 0.096393283456563963 0.063081942498683943 0.23922333866357806 0.031642934307456023 0.038501603528857238 0.21070533245801928 0.33702170848846441 0.21181455999612811 0.33069972693920141 0.13738915324211123 0.38233350217342382 0.29417420923709875 0.013289183378219606 0.057166200131177909 71.549999237060561 6.6499998569488534 93.959384918212905 38.500000000000007 1.4484295845031741
decision_type=2 2 2 2 2 2 2 2 2 2 2 2 2 2 2 2 2 2 2 2 2 2 2 2 2 2 2 2 2 2
left_child=1 3 4 7 5 -2 28 20 11 12 19 -6 -10 14 -8 -15 17 -16 -11 -9 -1 -20 23 27 25 -25 -27 -12 -5 -3
right_child=2 29 -4 6 8 -7 13 10 9 18 22 -13 -14 15 16 -17 -18 -19 21 -21 -22 -23 -24 24 -26 26 -28 -29 -30 -31
leaf_value=-0.0078053974058673887 0.0062985025769845653 -0.021233500180923768 -0.017260605399122938 0.0052878984314577975 0.026445604224240967 0.03936330488425497 -0.012975959021860599 -0.0013856672676314863 0.0088021829651895259 -0.0046614471945576226 0.025874372499943236 0.00046496924410154326 -0.016992922049234443 0.026171805526111872 0.036525745522896884 -0.0073773730346739638 -0.0077100804687153879 -0.0034171630517880721 0.038629426815512104 0.024342454277549108 0.025798967354720634 0.0021583965975934772 -0.028151341165062453 -0.022865915571636676 -0.018017572605624772 0.027454368692664058 -0.011710214964002158 -0.0091795713304835495 0.044794238026539014 -0.0081509775048140606
leaf_weight=2.5072109568864089 6.6771526318043462 27.583975445479155 8.6733219884335977 2.6788670867681494 11.110751708969476 8.5444073490798456 11.82438704557717 51.320692494511604 4.7936959415674272 2.7353507112711659 3.4301571212708941 7.0824240744113913 14.510994846001266 8.2362361587584001 4.050323259085415 2.9218094628304234 3.1470906585454941 1.8876768350601194 5.1816792637109739 2.9802968967705956 5.6805270910263062 2.8187883775681257 5.7838763259351245 3.2326308283954877 19.328918296843767 4.555797616019845 2.2681752722710371 3.0970806647092104 3.5237180404365063 25.427998635917902
leaf_count=44 116 459 195 51 206 134 163 867 77 48 61 131 247 125 63 48 51 31 96 49 80 52 92 44 270 62 34 54 40 454
internal_value=-0.000396413 -0.00361709 0.00824118 0.000778716 0.0119639 0.0262339 0.0104304 -0.0028178 0.0069887 0.000549124 -0.00455029 0.0169609 -0.0103956 0.00557987 -0.00115402 0.0173791 0.0138447 0.0249494 0.0195662 0.000413937 0.015616 0.0276138 -0.0109085 -0.00740348 -0.0115285 0.00130934 0.0144121 0.0100326 0.031043 -0.0152531
internal_weight=267.596 195.467 72.1286 142.455 63.4552 15.2216 38.2701 104.185 48.2337 30.0405 95.9976 18.1932 19.3047 32.0675 20.9095 11.158 9.08509 5.938 10.7358 54.301 8.18774 8.00047 41.6966 35.9128 29.3855 10.0566 6.82397 6.52724 6.20259 53.012
internal_count=4444 3142 1302 2229 1107 250 572 1657 857 520 1533 337 324 481 308 173 145 94 196 916 124 148 617 525 410 140 96 115 91 913
is_linear=0
shrinkage=0.03


Tree=11
num_leaves=31
num_cat=0
split_feature=49 51 50 49 51 49 50 49 1 45 18 40 47 24 45 7 40 9 53 52 49 9 34 40 10 14 47 47 49 47
split_gain=7.86724 10.6722 7.51923 5.28492 4.01124 9.81068 3.5635 3.32902 4.21755 3.20872 3.09921 3.63805 3.07405 2.89247 2.81853 2.79903 2.78056 2.74434 2.71889 2.59055 3.52008 3.06619 2.93196 2.67353 2.50885 2.49992 2.38948 3.18081 2.22188 6.40735
threshold=1.4956260323524477 0.34051059186458593 0.37469732761383062 1.4182473421096804 0.35998095571994787 1.6587336063385012 0.3402326107025147 1.5379287600517275 0.091729547828435912 0.69208136200904857 0.29417420923709875 0.28438162803649908 0.23378490656614306 1.0000000180025095e-35 0.72168162465095531 0.013029454275965692 0.24375670403242114 0.32015624642372137 0.03980547562241555 0.32288888096809393 1.3706104159355166 0.1671656742691994 48.500000000000007 0.2701792716979981 0.20419135689735415 0.43968574702739721 0.21337427198886874 0.21702802181243899 1.4484295845031741 0.22568474709987643
decision_type=2 2 2 2 2 2 2 2 2 2 2 2 2 2 2 2 2 2 2 2 2 2 2 2 2 2 2 2 2 2
left_child=1 3 4 9 7 14 15 8 12 19 11 16 -2 -9 -6 -5 -11 -16 26 23 21 24 -22 -1 -21 -25 -17 -28 -3 -30
right_child=2 28 -4 6 5 -7 -8 13 -10 10 -12 -13 -14 -15 17 18 -18 -19 -20 20 22 -23 -24 25 -26 -27 27 -29 29 -31
leaf_value=-1.3743334449035924e-05 0.037356807583415891 -0.020820856509565725 -0.016919323507624217 -0.00455622383349563 0.01522679703112601 0.030318881466360408 -0.0100421220756149 0.0082326829088299226 -0.0074167842593164286 -0.016797235598112352 -0.027776943475763431 -0.018178980177779632 0.0043927362427020108 0.039234561281385451 -0.015195908592749649 0.034396124853621833 0.0061895079453547141 0.011126027628297454 -0.0040292686643084823 -0.0089535478278031221 -0.01066750513101334 -0.010716035243912814 0.024378249111875035 0.035458648862111072 0.02098576278309627 0 -0.0096350666303384128 0.020311789424221075 0.0048873674999464888 -0.024567524016173271
leaf_weight=8.1145023182034475 4.4449782613664919 27.310729566961527 8.6040546484291536 5.5393077805638304 3.828379167243841 8.2968635410070402 5.8273720778524867 4.7861717399209729 7.198301186785101 5.0564365629106787 5.72417864575982 12.117017973214386 5.5784666426479816 8.9905459079891425 16.949011964723471 8.1161279901862198 20.639948410913348 3.6072147693485013 3.927609195932745 3.4798100218176824 2.331109479069708 28.240711763501167 6.128517609089613 4.5667413063347331 5.0421841107308865 2.5997898448258638 3.5439583286643019 11.432368306443093 14.644405642524363 10.688913267105816
leaf_count=155 72 459 195 100 68 143 105 88 128 96 93 138 106 150 282 107 323 70 60 57 37 478 97 63 87 33 45 155 256 198
internal_value=-0.000371419 -0.00350988 0.00801015 0.000770239 0.0116112 0.00402001 0.0101453 0.0191919 0.0094118 -0.00273815 -0.00885818 -0.00531375 0.0212097 0.0298517 -0.00571097 0.0139947 0.00115031 -0.0102055 0.0178782 0.0017138 -0.00191268 -0.00600208 0.0144558 0.0119963 0.00894662 0.0241153 0.0216791 0.0129718 -0.0149161 -0.0079446
internal_weight=267.356 195.072 72.284 142.428 63.6799 32.6815 38.3867 30.9985 17.2217 104.041 43.5376 37.8134 10.0234 13.7767 24.3846 32.5594 25.6964 20.5562 27.0201 60.5034 45.2223 36.7627 8.45963 15.281 8.52199 7.16653 23.0925 14.9763 52.644 25.3333
internal_count=4444 3142 1302 2229 1107 563 572 544 306 1657 650 557 178 238 420 467 419 352 367 1007 756 622 134 251 144 96 307 200 913 454
is_linear=0
shrinkage=0.03


Tree=12
num_leaves=31
num_cat=0
split_feature=28 52 26 10 50 47 18 19 20 51 3 25 24 28 29 16 24 47 51 13 10 4 48 52 3 29 29 39 53 48
split_gain=4.12303 3.33976 4.61579 3.58265 3.31737 5.45973 4.71028 3.28466 3.40907 2.91529 4.49129 4.17272 3.54494 4.70854 4.80061 2.78806 2.77417 2.72443 4.52326 2.70398 3.89125 2.66006 2.56696 2.46084 3.01425 2.3722 2.67199 2.15593 2.12574 2.11041
threshold=0.18010603636503222 0.33158092200756079 0.081020984798669829 0.24940191209316256 0.3402326107025147 0.2202122583985329 0.22292696684598926 0.30848041176795965 0.29992614686489111 0.33888356387615209 0.09745271131396295 5.5000000000000009 1.0000000180025095e-35 0.19494190067052844 1.0299700498580935 0.034672062844038017 1.0000000180025095e-35 0.26596510410308843 0.38233350217342382 37.500000000000007 0.18044170737266543 0.034637033939361579 0.32860165834426885 0.33526197075843817 0.08306178450584413 1.2170971632003786 1.384854316711426 0.26723733544349676 0.033968320116400726 0.33543930947780615
decision_type=2 2 2 2 2 2 2 2 2 2 2 2 2 2 2 2 2 2 2 2 2 2 2 2 2 2 2 2 2 2
left_child=1 2 7 16 5 9 23 -1 -9 10 11 15 13 -13 -15 -2 -3 21 -19 20 -7 -8 -18 -6 -25 -23 -27 -11 -29 -24
right_child=4 3 -4 -5 6 19 17 8 -10 27 -12 12 -14 14 -16 -17 22 18 -20 -21 -22 25 29 24 -26 26 -28 28 -30 -31
leaf_value=0.0044531286635857798 -0.015220492937411045 -0.021382992503718445 2.0882044076184609e-06 0.016636067416870032 -0.024110004584823735 0.030393898123740475 -0.012023380090056011 0.003104371337979174 0.039799901005650312 0.0025894180886796101 -0.015254791016278187 -0.015374368444594175 0.00074678684956940337 -0.012070776336117726 0.027916045604470446 0.0064283872552591799 -0.016055766814257324 0.026825638280150329 -0.0088826383307127176 0.028593137033456256 -0.0011793464126274814 -0.010237643860494701 0.025844123019980129 0.013403770612389173 -0.021168833793856798 0.024735501162246602 -0.013077455438212921 -0.0027444558960254667 -0.026157565391999715 -0.00027215308056902408
leaf_weight=7.0888085626065758 14.508864142000677 6.8837478179484668 15.56827658601105 6.7803510632365933 17.002521645277742 3.5610385425388875 22.0780328810215 3.3275677897036067 8.7502357363700849 5.899168714880946 13.795652491971849 2.8151379022747305 30.847446147352457 2.5700077544897821 15.984231971204279 7.3625164646655312 4.9612667057663229 5.8032472822815162 5.2191605176776648 6.1896781399846068 14.649642901495097 4.4457314200699312 3.001093426719307 3.9301602933555833 3.202639339491725 5.3504541721194983 1.5186902564018963 5.8674025461077681 9.4124814551323635 8.7313258126378042
leaf_count=105 233 118 251 106 308 68 403 55 136 76 221 39 495 46 232 123 77 115 103 70 281 84 42 78 57 102 34 104 141 141
internal_value=-0.00035334 0.00614967 0.0123702 -0.00108745 -0.00247609 0.000279387 -0.00778926 0.0218437 0.030815 -0.00260469 -0.000133116 0.00282831 0.00741622 0.016513 0.0219666 -0.00790486 -0.00671488 -0.00183473 0.0104604 0.0128245 0.00617736 -0.00612288 0.000115501 -0.0181785 -0.00262914 0.00531001 0.0155854 -0.0123246 -0.01798 0.00779556
internal_weight=267.107 65.0927 34.7349 30.3578 202.014 133.463 68.5506 19.1666 12.0778 109.063 87.8839 74.0882 52.2168 21.3694 18.5542 21.8714 23.5774 44.4153 11.0224 24.4004 18.2107 33.3929 16.6937 24.1353 7.1328 11.3149 6.86914 21.1791 15.2799 11.7324
internal_count=4444 1031 547 484 3413 2129 1284 296 191 1710 1389 1168 812 317 278 356 378 841 218 419 349 623 260 443 135 220 136 321 245 183
is_linear=0
shrinkage=0.03


Tree=13
num_leaves=31
num_cat=0
split_feature=49 51 51 49 49 51 45 45 45 18 49 1 24 45 14 9 19 16 49 10 37 17 52 49 9 11 11 8 9 16
split_gain=7.4192 9.89098 6.90878 4.87648 3.79455 7.58347 3.58795 3.05853 3.02536 2.96861 2.94477 3.90592 2.84732 2.78365 2.77496 2.60585 3.90228 2.6691 2.66286 2.61495 2.50869 2.93595 2.41373 3.28721 2.90068 2.38861 2.35383 3.03096 2.50364 2.33432
threshold=1.4956260323524477 0.34051059186458593 0.35998095571994787 1.4182473421096804 1.6222006082534792 0.39886267483234411 0.72168162465095531 0.69208136200904857 0.70273065567016613 0.29417420923709875 1.5379287600517275 0.091729547828435912 1.0000000180025095e-35 0.72416773438453685 0.36590014398097997 0.23922333866357806 0.32355807721614843 0.039002154022455222 1.4525893330574038 0.23117408901453021 105.50000000000001 0.22498653829097751 0.32288888096809393 1.3706104159355166 0.1671656742691994 0.16825909912586215 0.27679154276847845 0.29375523328781133 0.21070533245801928 0.026098308153450493
decision_type=2 2 2 2 2 2 2 2 2 2 2 2 2 2 2 2 2 2 2 2 2 2 2 2 2 2 2 2 2 2
left_child=1 3 10 7 6 14 -4 22 -5 26 11 13 -12 -2 -6 16 18 -17 -10 -18 -8 -22 29 24 25 -24 28 -28 -9 -1
right_child=2 -3 4 8 5 -7 20 9 15 -11 12 -13 -14 -15 -16 17 19 -19 -20 -21 21 -23 23 -25 -26 -27 27 -29 -30 -31
leaf_value=-0.0022011358872367406 0.035009551043869505 -0.01444778007437111 0.014880057447791226 0.025096847973040154 -0.0045455377331932237 -0.017959233927603152 -0.019807219547379771 0.0013301193702495793 -0.021143681325636359 -0.02731355944214231 0.0071399880026775196 -0.0073021528888554217 0.037191679810974154 0.0038631105204062649 0.028004463561065368 0.024128946203397939 -0.00073479973477942454 -0.0072711707062882132 0.0075671456483885008 0.031071747901432387 -0.015327732501310738 0.025276458115679648 -0.0066934184705646016 0.013910476104230927 -0.010427276459209503 0.02215475591678754 0.026977649663907071 -0.0061465036886750556 -0.016121500875025806 0.020570237881327558
leaf_weight=6.307966284453868 4.6666027158498817 52.113464280962944 3.9200156759470728 7.9915469624102107 2.5602528527379063 5.4427720345556727 14.216348912566902 11.869877541437747 8.0905155520886236 5.6390148922801009 4.9022512882947913 7.1959023959934703 9.2061362471431476 5.4861604981124401 10.348385158926247 8.0553935002535564 5.026661613956092 2.7153523731976739 3.5604335702955714 3.1267504375427961 2.3415095787495366 2.0941544361412525 4.1749964337795955 8.5190842933952791 28.092399327084422 4.3752691466361284 3.2608022112399322 5.1628702990710735 17.436952486634254 9.0504241511225683
leaf_count=108 76 913 71 114 53 115 244 175 107 93 92 129 153 104 179 120 74 45 58 54 43 43 73 134 478 71 46 91 245 143
internal_value=-0.000340757 -0.00339699 0.00778875 0.000707693 -0.000364403 0.00945228 -0.00847156 -0.00267155 0.00968596 -0.00866319 0.0181261 0.00891587 0.0280126 0.0201692 0.0215781 0.00494319 -0.00155739 0.0161402 -0.0123467 0.0133608 -0.0139631 0.00468968 0.00166878 -0.00184114 -0.00581535 0.00868556 -0.00520382 0.00801878 -0.00919307 0.0115631
internal_weight=266.95 194.57 72.3805 142.456 40.9234 18.3514 22.572 103.89 38.5667 43.3695 31.4571 17.3487 14.1084 10.1528 12.9086 30.5751 19.8044 10.7707 11.6509 8.15341 18.652 4.43566 60.5201 45.1617 36.6427 8.55027 37.7305 8.42367 29.3068 15.3584
internal_count=4444 3142 1302 2229 748 347 401 1657 572 650 554 309 245 180 232 458 293 165 165 128 330 86 1007 756 622 144 557 137 420 251
is_linear=0
shrinkage=0.03


Tree=14
num_leaves=31
num_cat=0
split_feature=37 50 46 50 48 0 40 15 0 6 10 33 33 40 4 27 40 18 2 12 6 4 4 27 45 45 0 17 18 44
split_gain=3.93238 3.46694 5.74282 4.30763 5.73736 3.61728 3.44956 3.1213 3.05135 2.9473 3.10033 2.62841 2.56514 2.50382 2.40695 3.60075 2.37337 2.37227 2.24295 2.23927 2.22258 2.21915 2.1986 1.92223 2.51171 2.8102 2.65085 2.60445 3.40114 2.87838
threshold=105.50000000000001 0.37572932243347174 0.46563647687435156 0.34041503071784979 0.33962874114513403 93.099323272705092 0.22913835942745212 0.024370445869863037 93.017135620117202 0.063901424407958998 0.25838014483451849 772.50000000000011 50.000000000000007 0.29917591810226446 0.04765960946679116 0.045300120487809188 0.27030423283576971 0.24091693013906482 0.098885577172040953 0.43212531507015234 0.048422623425722129 0.020007697865366939 0.032952196896076209 0.011246495414525272 0.69323012232780468 0.69087168574333202 95.568183898925795 0.18830917030572894 0.26138108968734747 3.9500000476837163
decision_type=2 2 2 2 2 2 2 2 2 2 2 2 2 2 2 2 2 2 2 2 2 2 2 2 2 2 2 2 2 2
left_child=1 2 3 4 6 22 -1 16 18 17 -11 -5 -7 19 15 21 -6 -9 -2 20 -10 -8 -4 -23 25 -25 27 -26 29 -29
right_child=8 -3 5 11 7 12 14 9 13 10 -12 -13 -14 -15 -16 -17 -18 -19 -20 -21 -22 23 -24 24 26 -27 -28 28 -30 -31
leaf_value=0.019421990752998539 0.019921547775497976 -0.019478347822910299 -0.012904811161263833 -0.013348654189395511 0.011114114906323684 0.00052807303627688492 -0.014026650588433399 0.044710233086125248 0.013547097039556652 -0.0028510838070209799 0.027138866933862933 0.006289606612477695 0.034560043489213661 -0.023490124391073185 0.011079735046695838 -0.021546499058012977 -0.018267929780593349 0.0056172983278272052 -0.0095761752089964063 0.011328694488797812 -0.014651116964713667 0.014964647797881807 0.015296358467906239 -0.00054603219479079255 -0.01739116402677654 0.021801069516609074 -0.025244575265064812 0.023142030368143832 -0.01659284978400026 -0.00071465054337996933
leaf_weight=4.9088706690818062 17.039092270657424 8.7663114666938764 4.64121236279607 40.348693709820509 4.1572956331074264 2.8129265643656236 14.00122996419668 4.3235678076744106 2.665578402578836 7.9209620505571348 3.8607467953115702 6.4809548482298842 7.0354448463767767 2.3480092100799075 7.7766174059361211 10.061771150678394 3.7568057626485825 2.4590043611824512 1.9858541376888741 14.528986018151043 7.2782898675650358 4.9705269411206237 3.4468329325318336 33.676991783082485 8.9062597528099996 4.9286553654819718 5.6772409602999678 5.6952033378183904 6.5143606942147008 13.685350323095916
leaf_count=65 293 199 75 735 93 61 245 61 56 122 62 125 125 26 152 130 50 43 34 226 123 64 62 581 132 69 81 71 90 193
internal_value=-0.000316037 -0.00198822 -0.00117008 -0.00270217 -0.000150561 0.0145983 -0.00295293 0.0122224 0.00757642 0.0186784 0.00821336 -0.0105248 0.0259227 0.000868044 -0.00407153 -0.00526662 -0.00314987 0.0332728 0.0164432 0.00409435 -0.00640799 -0.0033803 -0.000360741 -0.00144521 -0.0026693 0.00274749 -0.00781333 -0.0043021 0.000623205 0.00701383
internal_weight=266.66 220.814 212.048 194.111 147.281 17.9364 120.803 26.4784 45.8458 18.5643 11.7817 46.8296 9.84837 26.8209 115.894 108.118 7.9141 6.78257 19.0249 24.4729 9.94387 98.0558 8.08805 84.0546 79.0841 38.6056 40.4784 34.8012 25.8949 19.3806
internal_count=4444 3686 3487 3164 2304 323 1873 431 758 288 184 860 186 431 1808 1656 143 104 327 405 179 1526 137 1281 1217 650 567 486 354 264
is_linear=0
shrinkage=0.03


Tree=15
num_leaves=31
num_cat=0
split_feature=49 51 51 49 12 6 27 51 49 48 52 15 43 0 2 34 36 38 21 17 49 51 2 2 51 8 43 26 40 15
split_gain=4.75369 6.81084 6.40409 6.89097 3.81633 4.35 3.40554 3.3649 6.00765 4.27114 3.33146 2.87133 3.55691 3.035 2.94523 2.86726 2.61593 2.61053 2.47638 2.82164 2.28263 3.13711 2.21691 2.20898 2.16889 2.67696 3.00923 2.2327 2.1623 2.05762
threshold=1.5379287600517275 0.39886267483234411 0.3411508202552796 1.4356240630149844 0.48808848857879644 0.078999374061822905 0.075235851109027876 0.35587802529335028 1.6722967028617861 0.35958169400691992 0.30793140828609472 0.021145390346646312 49.350000381469734 96.519626617431655 0.055905582383275039 63.500000000000007 111.00000000000001 0.45000000298023229 0.21017885208129886 0.19330532103776935 1.5735969543457033 0.37807463109493261 0.064538285136222853 0.065660018473863616 0.32284539937973028 0.22127521038055423 67.350002288818374 0.084928557276725783 0.26270486414432531 0.039241351187229163
decision_type=2 2 2 2 2 2 2 2 2 2 2 2 2 2 2 2 2 2 2 2 2 2 2 2 2 2 2 2 2 2
left_child=2 7 3 6 -4 -6 10 -2 9 29 28 24 14 -14 -13 -16 -10 22 19 -7 -11 23 -5 -22 25 27 -27 -12 -1 -9
right_child=1 -3 4 17 5 18 -8 8 16 20 11 12 13 -15 15 -17 -18 -19 -20 -21 21 -23 -24 -25 -26 26 -28 -29 -30 -31
leaf_value=-0.0026798860027053553 0.027782372586085811 -0.017998860628009729 -0.01585837112381179 0.019649437184018199 0.011317876344749964 -0.010407967896356632 0.02736954025578138 0.028120869880179488 0.035617027023531811 -0.022329501452016738 -0.0039662606161690386 -0.010635855616162726 -0.0037610184032108107 0.018446593704039095 0.029246275252973131 -0.0062528584880235799 -0.0031579165229553658 0.031078707415222832 -0.020038463066769294 0.018423813746770924 0.022824754092077085 -0.020559815218271583 -5.1499632873745261e-05 -0.005952614716249886 -0.018927224792911864 -0.023047154571926683 0.009567518907861056 0.028325673086909829 0.039811804547471928 -0.0050478160424878293
leaf_weight=1.440583169460296 10.571305466815828 6.1727922018617383 32.155040122568607 8.9153262041509205 13.407994847744702 7.4396827630698699 2.8332139141857615 4.6879140455275836 6.8835102636367065 5.3742355518043068 3.4809855483472374 2.5931886043399563 71.870403796434402 4.9896072149276725 7.8590041883289796 2.1766464430838823 1.6760889720171688 6.9214054998010388 9.90539877489209 3.7880455497652292 4.3185512609779817 3.4376425165683031 10.351228965446351 3.6525297649204731 13.094305213540791 6.2135630138218385 3.1619913801550865 2.6595353223383427 1.8572509810328481 1.9097985588014124
leaf_count=39 190 135 566 151 223 130 42 89 128 79 63 45 1102 66 108 34 30 112 187 69 77 69 168 61 206 121 49 42 31 36
internal_value=0.000996678 0.00937121 -0.000908653 0.0025174 -0.00858055 -0.0015077 -0.000461175 0.0137022 0.00829461 3.65149e-05 -0.00134126 -0.00227859 0.000380534 -0.00208167 0.014529 0.021542 0.0283313 0.0161996 -0.00985642 0 -0.00794979 0 0.00951055 0.0102775 -0.0103785 -0.00236413 -0.012041 0.0118179 0.0245965 0.0189216
internal_weight=265.799 48.6844 217.114 150.418 66.6962 34.5411 124.23 42.5116 31.9403 23.3807 121.397 118.099 89.4889 76.86 12.6288 10.0357 8.5596 26.188 21.1331 11.2277 16.783 11.4087 19.2666 7.97108 28.6104 15.5161 9.37555 6.14052 3.29783 6.59771
internal_count=4448 894 3554 2379 1175 609 1948 759 569 411 1906 1836 1355 1168 187 142 158 431 386 199 286 207 319 138 481 275 170 105 70 125
is_linear=0
shrinkage=0.03


Tree=16
num_leaves=31
num_cat=0
split_feature=49 28 53 10 18 37 54 4 46 13 4 11 13 11 49 47 39 46 9 38 13 28 8 20 26 33 41 13 2 1
split_gain=4.46666 6.2687 3.72171 3.70054 4.26406 4.5385 5.06369 3.61158 3.65154 3.21222 3.95427 4.40097 3.24063 2.67868 2.62057 3.76863 2.59431 3.35083 2.80067 2.56986 2.56849 3.50266 2.44871 2.29545 2.63183 2.29389 3.19992 2.44084 2.29334 2.26406
threshold=1.5379287600517275 0.17655051499605182 0.036189362406730659 0.24475114047527316 0.26138108968734747 100.50000000000001 51.500000000000007 0.026098308153450493 0.4536746889352799 53.500000000000007 0.031876398250460632 0.19163960963487628 37.500000000000007 0.14458627253770831 1.4819135069847109 0.19588308036327365 0.28120797872543341 0.4111220389604569 0.32015624642372137 1.0000000180025095e-35 25.500000000000004 0.23217629641294482 0.25336350500583654 0.36372479796409612 0.11942845210433008 530.00000000000011 0.48263153433799749 18.500000000000004 0.071009360253810896 0.086234439164400115
decision_type=2 2 2 2 2 2 2 2 2 2 2 2 2 2 2 2 2 2 2 2 2 2 2 2 2 2 2 2 2 2
left_child=2 28 3 22 5 6 -5 -3 -9 10 12 13 -4 -12 15 -6 17 29 -18 -14 21 -10 23 -1 -25 26 -7 -27 -2 -13
right_child=1 7 9 4 14 25 -8 8 20 -11 11 16 19 -15 -16 -17 18 -19 -20 -21 -22 -23 -24 24 -26 27 -28 -29 -30 -31
leaf_value=-0.0020373381437503589 0.039991838572653954 0.016184849904258669 -0.013909213181487788 0.0085114479628983358 0.01136595935035554 0.031276454723580968 0.039524861719030739 0.016373077194185889 0.016805410105746581 -0.021400988606547388 -0.0010106263151952203 0.030945598999311773 -0.0072838370345592171 0.031085565034804332 0.021426674816751628 -0.013481075537762453 -0.017617745417464855 -0.0089561936310736737 0.011846623973318848 0.023787401742692619 -0.019321359507722374 -0.014614108275212666 -0.016740838967741499 0.028168027930832902 -0.01114180781240285 0.011007660450113829 -0.0063470666371187459 -0.019607487607976017 0.0097597565196129478 -0.0028671648472458643
leaf_weight=57.716221932321787 5.8105768766254169 11.786415515467523 32.691640039905906 10.959855802357199 7.3264735732227626 3.224175924435257 8.7092344723641855 5.6482862532138851 5.4036819059401768 9.3984900228679162 3.3108107727020961 4.3924820981919783 4.5784211605787268 5.9157882090657949 2.8560024574398986 15.30582615546882 11.284688290208576 5.6575626078993082 2.9669089894741765 3.2702362351119518 9.9006630629301053 5.3611276242882013 8.21287036500871 3.889324788004159 1.5215173978358505 2.8693882599472982 3.2837677299976349 5.2500672489404678 4.8730843234807253 2.3122736066579819
leaf_count=941 101 234 579 223 122 45 81 102 114 92 61 63 60 97 51 245 226 88 65 41 128 133 141 72 27 69 51 78 82 36
internal_value=0.000982369 0.0090898 -0.000867535 0.00229886 0.00774806 0.0145064 0.0235643 0.00306489 -0.00313426 -0.00569578 -0.00349231 0.00368998 -0.00981405 0.0204491 -0.0014935 -0.00523359 -0.00259593 0.00709086 -0.0110109 0.00671803 -0.00904487 0.00111811 -0.00229096 -0.000155885 0.0168665 0.00150202 0.0137758 -0.00860306 0.0283462 0.0202312
internal_weight=265.688 48.7838 216.904 131.125 59.7848 34.2965 19.6691 38.1002 26.3138 85.7793 76.3808 35.8405 40.5403 9.2266 25.4883 22.6323 26.6139 12.3623 14.2516 7.84866 20.6655 10.7648 71.3399 63.1271 5.41084 14.6274 6.50794 8.11946 10.6837 6.70476
internal_count=4448 894 3554 2146 965 547 304 711 477 1408 1316 636 680 158 418 367 478 187 291 101 375 247 1181 1040 99 243 96 147 183 99
is_linear=0
shrinkage=0.03


Tree=17
num_leaves=31
num_cat=0
split_feature=21 50 48 11 23 45 51 36 14 27 52 17 54 34 17 2 42 41 54 2 14 54 42 14 51 43 51 7 54 3
split_gain=3.99495 3.32373 4.09128 3.63571 3.62175 3.13484 3.93466 4.46702 3.02098 2.6932 2.46188 2.41196 3.03073 2.45878 2.40448 3.47353 2.37231 2.90843 2.49202 2.26934 2.06523 1.93923 1.91931 1.94476 1.83622 2.30941 2.69488 2.43736 3.14221 2.63814
threshold=0.28295642137527471 0.34041503071784979 0.34491370618343359 0.36893695592880255 0.48333333432674414 0.73908194899559032 0.39886267483234411 103.50000000000001 0.34626756608486181 0.075235851109027876 0.30743278563022619 0.26296199858188635 58.500000000000007 53.500000000000007 0.18365491926670077 0.064033426344394698 80.350002288818374 0.48337906599044805 27.500000000000004 0.080531671643257155 0.41760817170143133 28.500000000000004 73.950000762939467 0.43002590537071234 0.30996364355087286 50.750000000000007 0.34051059186458593 0.056374141946434982 44.500000000000007 0.088320046663284316
decision_type=2 2 2 2 2 2 2 2 2 2 2 2 2 2 2 2 2 2 2 2 2 2 2 2 2 2 2 2 2 2
left_child=1 2 3 4 9 16 7 11 -2 10 -1 12 13 21 -4 -16 18 -18 -3 -9 -15 -7 -10 -24 -12 26 -26 29 -29 -27
right_child=8 5 14 -5 -6 6 -8 19 22 -11 24 -13 -14 20 15 -17 17 -19 -20 -21 -22 -23 23 -25 25 27 -28 28 -30 -31
leaf_value=0.02574342036120043 0.011310119120780431 0.00073738090439454823 0.031928595159845932 -0.022351212830929331 0.028490124195745994 0.013195746137747221 -0.016858323612190182 -0.012736633626219403 -0.019864426753020033 0.027580350154100715 -0.0063305402318626688 -0.0087808121988108764 0.050456151870460451 0.0013413082210972553 0.023881174832002892 -0.0044404163165637856 -0.01156496706671931 0.020704757145053626 -0.015438448758516101 0.014633955442458504 0.044310474572389257 -0.019452808590411666 0.01141409573653269 -0.014998444131559293 0.018398244048700243 0.0061423018855681494 -0.011240127000317244 0.005681574824878988 -0.022290181623366281 -0.0065688571160853202
leaf_weight=2.8155346494168034 4.3361539561301496 11.900475993752478 5.9156027585268047 3.9964237976819268 4.130043974146246 2.7738722730428034 5.0486647095531216 7.3786857165396196 15.196583067998292 2.8249821048229924 22.589137895032763 1.4948646444827307 2.6073942705988875 1.716675937175751 6.2951211687177402 7.6616565231233835 3.6720998082309944 4.5294880904257298 27.41467216797173 3.0517694372683764 2.0247385744005442 1.8866318725049493 4.1216657944023591 3.9058069009333849 13.375807715579869 58.794690439477563 2.6361071523278943 5.6450236663222295 7.3937301822006702 18.48409441486001
leaf_count=60 92 346 98 83 62 82 109 130 282 40 369 30 22 37 103 120 65 84 389 55 38 24 74 74 196 858 43 126 80 277
internal_value=0.000970709 0.00223926 0.00464968 0.00280078 0.00369111 -0.00292391 0.0049005 0.0102572 -0.00962891 0.00271433 0.00196602 0.0216915 0.0263406 0.0141266 0.0170829 0.00897618 -0.00756877 0.00640694 -0.0106081 -0.00401759 0.0293523 -0.000857527 -0.0139059 -0.00150876 0.00124103 0.00290754 0.0130567 0.000968546 -0.0105311 0.00303772
internal_weight=265.618 238.058 162.558 142.686 138.689 75.5 27.9833 22.9346 27.5602 134.559 131.734 12.5042 11.0093 8.40192 19.8724 13.9568 47.5167 8.20159 39.3151 10.4305 3.74141 4.6605 23.2241 8.02747 128.919 106.329 16.0119 90.3175 13.0388 77.2788
internal_count=4448 3926 2515 2194 2111 1411 527 418 522 2049 2009 233 203 181 321 223 884 149 735 185 75 106 430 148 1949 1580 239 1341 206 1135
is_linear=0
shrinkage=0.03


Tree=18
num_leaves=31
num_cat=0
split_feature=21 50 48 11 10 53 8 9 39 10 45 10 51 33 19 14 26 51 18 3 29 20 29 33 33 52 24 25 11 5
split_gain=3.7913 3.11861 3.85899 3.48174 3.24026 4.41383 3.95459 4.03083 3.81787 3.19193 2.99281 3.93786 3.76327 4.35035 4.05932 2.88015 2.58347 2.47714 3.26044 2.82502 3.2324 2.33474 2.30263 2.242 2.47733 2.08312 2.45221 2.06198 2.72516 2.02021
threshold=0.28295642137527471 0.34041503071784979 0.34491370618343359 0.36893695592880255 0.22508277744054797 0.035831876099109657 0.2158947363495827 0.33449883759021765 0.26723733544349676 0.20846114307641986 0.73908194899559032 0.28252571821212774 0.39886267483234411 502.50000000000006 0.29284600913524633 0.34626756608486181 0.061901472508907325 0.31384864449501043 0.26138108968734747 0.057602915912866599 1.3868626952171328 0.32453328371047979 1.1899088025093081 145.00000000000003 8.5000000000000018 0.32150131464004522 0.58333334326744091 5.5000000000000009 0.27223715186119085 0.22918510437011722
decision_type=2 2 2 2 2 2 2 2 2 2 2 2 2 2 2 2 2 2 2 2 2 2 2 2 2 2 2 2 2 2
left_child=1 2 3 4 23 17 -7 8 27 -4 11 -3 13 -12 -15 -2 -11 25 19 -19 -21 -16 -20 24 -1 -6 -27 -8 -29 -13
right_child=15 10 9 -5 5 6 7 -9 -10 16 12 29 -14 14 21 -17 -18 18 22 20 -22 -23 -24 -25 -26 26 -28 28 -30 -31
leaf_value=0.0045601418868247258 0.010990992377729575 -0.012304029801139725 0.030326238154370914 -0.02199203519110594 0.021079033065502361 0.021967177670638431 -0.011736196048948775 0.024566810016343584 -0.016966243001632537 0.024210653048738821 -0.0025260148183453004 0.021859741386723159 -0.016553605489094417 -0.0058371185975418785 0.040884444981197247 -0.013600808576307372 -0.0033877523065824044 0.0025987895440597714 0.017443644052530256 0.037379411460795445 0.0084179826570023007 0.0025318899867033885 -0.011716738644438887 0.0033789204430857171 -0.013742730326019881 -0.021629129316717739 0.012035349205230828 0.034205793043034047 -0.0055269199834225872 -0.0020923653529317794
leaf_weight=9.4128208421170729 4.3569083809852627 35.493743201717734 7.9004427138716009 3.9567787963896981 1.9729271773248891 4.875931020826104 2.3155085854232373 2.6253471244126549 16.623121984302998 3.5328861996531478 11.901319159194832 4.077571449801324 5.0064051784574977 2.9204227123409501 6.0883905403316003 23.07972707413137 8.5354838855564577 4.87860511615873 3.3942145034670821 12.375718848779799 5.8414169568568459 2.0697857476770878 4.459052786231041 40.801068330183625 18.214998990297318 3.8617157861590385 2.3582713752985001 2.6619852483272552 2.1816163063049316 7.7710309494286776
leaf_count=145 92 657 121 83 32 74 32 41 252 56 226 84 109 50 105 430 144 61 49 170 87 37 64 630 301 70 37 35 31 143
internal_value=0.000956878 0.00219012 0.00452057 0.00272247 0.00358967 0.00806255 -0.0003281 -0.00515076 -0.00935077 0.0165654 -0.0028194 -0.00737196 0.00481871 0.0100336 0.0227421 -0.00939373 0.005811 0.0146471 0.018421 0.0238982 0.0290921 0.0326569 0.00126381 -0.00104193 -0.00751306 0 -0.00875856 0.00806033 0.0181697 0.00709355
internal_weight=265.545 238.109 162.78 142.811 138.854 70.4254 31.2835 26.4076 23.7822 19.9688 75.3287 47.3423 27.9863 22.9799 11.0786 27.4366 12.0684 39.1419 30.949 23.0957 18.2171 8.15818 7.85327 68.4289 27.6278 8.19291 6.21999 7.15911 4.8436 11.8486
internal_count=4448 3926 2515 2194 2111 1035 465 391 350 321 1411 884 527 418 192 522 200 570 431 318 257 142 113 1076 446 139 107 98 66 227
is_linear=0
shrinkage=0.03


Tree=19
num_leaves=31
num_cat=0
split_feature=49 50 51 28 49 53 53 6 29 4 41 47 37 49 51 9 48 33 47 4 39 53 6 4 10 54 27 26 16 54
split_gain=4.09646 8.66617 5.92022 5.54516 4.17411 4.82597 4.26452 3.65809 3.42866 3.30024 3.29888 3.26563 3.59369 2.92506 2.86319 4.95458 2.72753 2.60299 2.57495 2.56282 3.30146 3.25847 2.4917 2.4308 2.33207 2.30648 2.65217 3.4805 2.2806 2.11295
threshold=1.5379287600517275 0.3400645405054093 0.39886267483234411 0.17655051499605182 1.4111408591270449 0.036189362406730659 0.0375854428857565 0.018407679162919525 1.2350311279296877 0.026098308153450493 0.51067835092544567 0.21360685676336291 95.500000000000014 1.4559757709503176 0.33774550259113317 0.22594670206308368 0.35980829596519476 50.000000000000007 0.2033910155296326 0.040017792955040939 0.2597829550504685 0.03811286389827729 0.095119047909975066 0.033050663769245155 0.28252571821212774 47.500000000000007 0.026498044840991501 0.059584718197584159 0.035728793591260917 27.500000000000004
decision_type=2 2 2 2 2 2 2 2 2 2 2 2 2 2 2 2 2 2 2 2 2 2 2 2 2 2 2 2 2 2
left_child=1 4 3 -2 8 7 -7 -6 25 -5 11 12 -9 14 15 -13 -11 -15 22 20 -8 -22 -3 -18 29 26 -1 -28 -25 -20
right_child=2 18 -4 9 5 6 19 10 -10 16 -12 13 -14 17 -16 -17 23 -19 24 -21 21 -23 -24 28 -26 -27 27 -29 -30 -31
leaf_value=-0.013247397430255122 0.03147497574400502 0.020932320139904322 -0.017127711421854968 0.019473701459853797 -0.015136875670961353 -0.019273934915448623 0.024166345669667622 0.0036622875746556587 0.0026314248489020605 0.015702344366879256 -0.006155336636306667 -0.0090326323415456395 0.041173081119567655 0.034030821483526222 -0.02033443784989742 0.03403699540673219 -0.0190302406331854 0.0065684720602225272 -0.0053477615694242694 0.023399442113616324 0.021025421303088869 -0.014848043425148607 -0.015643095550104267 0.020237117931944954 -0.0030595940157612102 -0.01687322815284684 -0.0096110628491571405 0.021162074724912112 -0.0070569088211973425 -0.023985209983854623
leaf_weight=9.0475674439221638 9.7753537371754629 3.1783142164349547 6.0253906194120637 10.409426247701047 2.807026306167244 7.9225779902189997 2.7257293798029449 3.4140173960477105 62.35461413115263 5.9127907678484943 4.6614846773445597 4.8064694274216908 8.6326617393642646 6.1098622623831016 3.1095131337642661 3.1987036112695932 6.8517665751278427 6.8724772576242685 8.5105933882296103 4.3675217851996413 1.9105197638273228 10.106825325638054 1.8467753734439609 3.3219137210398895 12.226691747084258 16.283012084662914 5.1806469690054637 6.2680491227656603 6.5976313836872578 21.011640317738056
leaf_count=186 158 75 135 199 52 111 36 46 1004 102 84 62 113 80 39 37 115 109 251 71 28 162 36 67 248 183 110 132 118 299
internal_value=0.000945116 -0.000830409 0.00869804 0.0126698 0.00232578 0.0078484 -0.0020354 0.0139168 -0.00163388 0.00631079 0.0162656 0.0192855 0.031753 0.0119761 0.000321834 0.00987916 -0.000233351 0.0211098 -0.0121269 0.00563954 -0.00067855 -0.00785258 0.00687615 -0.00650339 -0.0145567 -0.00878312 -0.0018003 0.00746298 0.00296233 -0.0190128
internal_weight=265.448 216.553 48.8943 42.8689 169.779 70.6454 27.0332 43.6122 99.1339 33.0935 40.8052 36.1437 12.0467 24.097 11.1147 8.00517 22.6841 12.9823 46.774 19.1106 14.7431 12.0173 5.02509 16.7713 41.7489 36.7793 20.4963 11.4487 9.91955 29.5222
internal_count=4448 3554 894 759 2645 1030 408 622 1615 601 570 486 159 327 138 99 402 189 909 297 226 190 111 300 798 611 428 242 185 550
is_linear=0
shrinkage=0.03


Tree=20
num_leaves=31
num_cat=0
split_feature=5 52 37 49 50 51 49 51 7 10 14 54 46 49 40 20 43 53 26 51 53 10 4 8 2 40 19 1 54 43
split_gain=3.54039 3.48848 3.46623 3.38846 5.87674 5.4333 4.0911 4.04822 3.248 4.56002 3.37096 3.04484 2.96323 3.31056 2.95386 2.85473 2.65086 2.47673 3.93463 2.34808 2.30748 3.38708 3.25862 3.20072 2.38424 2.3747 2.29122 2.26178 2.26146 2.08159
threshold=0.29822817444801336 0.3087423592805863 105.50000000000001 1.5397148132324221 0.3585581928491593 0.32696996629238134 1.7530418038368227 0.30996364355087286 0.040875999256968505 0.24396079033613208 0.41376274824142462 60.500000000000007 0.38546796143054968 1.4568133354187014 0.26409091055393225 0.32543374598026281 67.049999237060561 0.033552998676896102 0.06524964421987535 0.35123050212860113 0.037215933203697212 0.23918244242668155 0.043395236134529121 0.21981918811798098 0.089907851070165648 0.26541180908679968 0.31312417984008795 0.090831257402896895 57.500000000000007 46.049999237060554
decision_type=2 2 2 2 2 2 2 2 2 2 2 2 2 2 2 2 2 2 2 2 2 2 2 2 2 2 2 2 2 2
left_child=1 14 3 5 15 7 -6 16 9 27 12 29 -10 -14 -1 26 -3 -12 -19 -15 21 22 24 25 -9 -22 -5 -7 -18 -4
right_child=-2 2 11 4 6 8 -8 20 10 -11 17 -13 13 19 -16 -17 28 18 -20 -21 23 -23 -24 -25 -26 -27 -28 -29 -30 -31
leaf_value=0.0011732353291662126 -0.013697718340858409 -0.014515946793924215 0.017942449199536567 0.009997488960075086 -0.013108234147168789 -0.010641577616560626 0.021516211343172682 -0.011464505964244408 0.01885583135958932 -0.0019460500342120986 0.026006738998333244 0.021683087632995084 -0.023124302286133595 0.015935345461934605 0.035929032605152914 -0.0034986766721219423 0.020204241851417611 0.021187784788114533 -0.012172217770945614 -0.01547837143100494 0.032096824052752694 0.023370912180849295 0.029099619215540117 -0.013708454462384967 0.018938942210271328 -0.0025499516051565897 0.03443948281814075 -0.025565567737469302 -0.012580643091920887 -0.00063621135706858523
leaf_weight=4.5492747612297517 15.362167015671728 13.300843544304373 5.7396133672446004 8.3325850609689969 14.06389324180782 24.245154395699501 2.8831560034304848 9.1705781165510434 2.1810552813112762 29.596580725163221 4.7002052441239348 9.6777958497405034 9.9018751569092291 4.1252955626696339 3.5815250426530838 4.3223284725099793 3.8835048116743556 4.3649190627038461 6.8079451285302639 2.677527729421854 2.3460951372981054 14.393705930560825 2.2384038474410763 7.328820152208209 2.0215597916394463 3.3647061046212912 7.2726494874805203 17.559190234169364 2.1825310960412025 26.881836891174316
leaf_count=118 308 257 86 128 287 398 58 154 34 478 80 87 143 70 63 73 72 59 100 53 47 220 39 125 33 42 115 264 20 504
internal_value=-0.000166678 0.000697351 1.41604e-05 -0.00161419 0.00648658 -0.00344643 -0.00626344 0.00369518 -0.00750896 -0.0111279 0 0.00773025 -0.00834093 -0.0128411 0.0189053 0.0171825 -0.00731389 0.00988999 0.00140729 0.00297985 0.00899868 0.0137428 0.00241577 -0.00127539 -0.00474695 0.0141219 0.0228668 -0.017396 0.00808505 0.00302445
internal_weight=269.057 253.695 245.564 203.265 36.8746 166.39 16.947 60.2307 106.16 71.4009 34.7588 42.2992 18.8858 16.7047 8.1308 19.9276 19.3669 15.8731 11.1729 6.80282 40.8639 27.8242 13.4305 13.0396 11.1921 5.7108 15.6052 41.8043 6.06604 32.6215
internal_count=4515 4207 4026 3349 661 2688 345 1009 1679 1140 539 677 300 266 181 316 349 239 159 123 660 446 226 214 187 89 243 662 92 590
is_linear=0
shrinkage=0.03


Tree=21
num_leaves=31
num_cat=0
split_feature=52 34 11 42 6 7 20 10 6 11 40 28 33 0 10 10 40 44 17 28 45 50 47 39 52 11 44 45 15 9
split_gain=3.26238 2.94408 3.67568 3.97716 2.91946 2.69292 2.33735 4.13637 2.83117 2.62022 3.30256 2.55857 2.48621 2.47684 2.46521 2.3758 2.31833 2.19534 2.17231 2.16198 2.13561 2.62549 3.02914 2.7201 1.99066 2.86014 2.47283 2.32182 2.07975 2.8411
threshold=0.30929231643676763 38.500000000000007 0.23742024600505832 83.549999237060561 0.098099362105131163 0.01855293940752745 0.28655548393726354 0.24475114047527316 0.07414641231298448 0.20692624896764758 0.27110387384891516 0.19790570437908175 935.00000000000011 96.251544952392592 0.17875940352678302 0.15815528482198718 0.27843818068504339 8.7500000000000018 0.18140564113855365 0.22734874486923221 0.76216375827789318 0.34095570445060736 0.22435145080089572 0.29039412736892706 0.32652390003204351 0.25887796282768255 9.0500001907348651 0.72416773438453685 0.032479254528880126 0.22460445016622546
decision_type=2 2 2 2 2 2 2 2 2 2 2 2 2 2 2 2 2 2 2 2 2 2 2 2 2 2 2 2 2 2
left_child=4 2 18 -4 5 -1 12 8 9 10 15 16 -3 24 -11 -8 17 -9 -2 -20 21 22 23 -10 28 27 -27 -26 29 -13
right_child=1 6 3 -5 -6 -7 7 11 20 14 -12 13 -14 -15 -16 -17 -18 -19 19 -21 -22 -23 -24 -25 25 26 -28 -29 -30 -31
leaf_value=-0.0030769442524291278 0.0024513661809001728 -0.0077042088501258991 -0.016505170627551795 0.015848903770658535 -0.010870826631401107 0.033170322373320536 -0.014542341129276614 0.032463669712653985 -0.014039250417756036 0.017309542654881719 0.022459688097439416 -0.0073705520314265869 0.014080680227619678 0.018802499071953322 -0.010879930413681845 0.011455474067553983 -0.00017356563719746323 0 0.0352196656381219 1.6571241691902512e-05 0.014842396413019533 -0.018140293831293005 0.012240907526804621 0.0023870377372618499 0.019551130102037229 -0.017655358745262813 0.0056463252108628851 -0.012275501542247137 -0.0062862888293061178 0.027241839877961232
leaf_weight=2.2226391080766899 5.2274737562984255 69.439317740499973 7.281991418451069 4.8259582463651896 2.2006222624331713 5.7299050781875849 5.1780726332217473 7.0362326987087709 23.088375385850668 2.4828042332083013 9.1549658980220538 2.486850291490553 4.1026264503598204 6.2399562932550898 13.541343426331876 5.4700773321092129 4.6435826905071727 2.3883656207472086 6.2607419770210964 2.1136678140610456 2.7863691207021466 17.382353752851486 7.1655197832733384 13.920357070863245 5.2702542785555151 13.457814706489446 5.0429508686065665 2.201652305200696 4.5846196543425313 5.9042757656425238
leaf_count=56 95 1221 129 79 55 106 107 118 292 42 116 45 73 98 208 96 56 47 98 40 51 319 110 265 86 223 88 41 75 80
internal_value=-0.00014387 -0.000831198 0.00859899 -0.00326982 0.0157376 0.02366 -0.00191061 0.000129708 -0.00356773 0.00310717 0.0102077 0.00636041 -0.0062962 0.00268594 -0.0056639 -0.0012213 0.0171021 0.024958 0.0187673 0.0274441 -0.00729805 -0.00854546 -0.00441875 -0.007921 -0.000264595 -0.00505507 -0.011263 0.0096541 0.00889245 0.0171316
internal_weight=268.832 258.679 25.7098 12.1079 10.1532 7.95254 232.969 159.427 100.17 35.8273 19.8031 59.2566 73.5419 45.1884 16.0241 10.6481 14.0682 9.4246 13.6019 8.37441 64.343 61.5566 44.1743 37.0087 38.9484 25.9727 18.5008 7.47191 12.9757 8.39113
internal_count=4515 4298 441 208 217 162 3857 2563 1606 569 319 957 1294 736 250 203 221 165 233 138 1037 986 667 557 638 438 311 127 200 125
is_linear=0
shrinkage=0.03


Tree=22
num_leaves=31
num_cat=0
split_feature=37 51 28 51 29 16 26 13 19 9 19 21 10 47 20 39 7 21 7 15 39 52 2 43 7 39 15 43 10 22
split_gain=3.23068 3.29278 3.53198 3.20943 3.19239 3.10451 2.85275 2.64849 2.56307 3.39882 3.14587 2.37577 2.71927 5.08427 3.50531 2.69101 2.48652 2.32307 2.31011 2.29121 3.68054 3.01065 3.20237 2.28022 2.26939 3.12465 2.89516 2.24618 2.26298 2.21791
threshold=105.50000000000001 0.32696996629238134 0.1746889799833298 0.30996364355087286 1.384854316711426 0.049406187608838088 0.084928557276725783 24.500000000000004 0.35958454012870794 0.21638836711645129 0.29234029352664953 0.27818346023559576 0.24647607654333117 0.29250596463680273 0.29311554133892065 0.29767298698425299 0.044158272445201881 0.24194741249084475 0.050114154815673835 0.035102387890219695 0.2996699213981629 0.33158092200756079 0.072093728929758086 55.649999618530281 0.027826171368360523 0.26767747104167944 0.036916092038154609 62.149999618530281 0.20346482098102572 0.080128207802772536
decision_type=2 2 2 2 2 2 2 2 2 2 2 2 2 2 2 2 2 2 2 2 2 2 2 2 2 2 2 2 2 2
left_child=1 3 24 6 11 18 -1 27 9 10 -2 12 13 16 23 29 -4 -9 19 21 -21 22 -5 -14 -3 -26 -27 -6 -29 -16
right_child=8 2 4 5 7 -7 -8 17 -10 -11 -12 -13 14 -15 15 -17 -18 -19 -20 20 -22 -23 -24 -25 25 26 -28 28 -30 -31
leaf_value=-0.014372908383469999 -5.4553567296392937e-05 -0.0054171631032645913 -0.013478384818644348 -0.00077138870381163356 -0.016625377979382787 0.029630883117635908 0.0068193627964019789 -0.03278939895767196 -0.0094676322322736779 0.0033921771931596238 0.03099741188532467 -0.013657318843925965 0.012995684232548012 0.02775033795795788 0.032458961361400605 -0.0057640233590441122 0.0048517057623232969 0.00018781087792914996 -0.0098854384237746177 0.02905515470323455 -0.0079253447567176859 -0.0078688489873553584 0.028522865798046002 -0.0081682835444615159 0.02768951566905636 0.014523816532744533 -0.010719862527549348 0.017452569464839619 -0.0085101866496184696 0.0047367126645394241
leaf_weight=12.378186989575626 4.0287765786051741 11.551474303007128 29.569250920787454 7.0282782278955001 10.61060150712729 4.5421486217528573 9.0684869941323978 8.2859156504273397 6.3678591251373282 26.646222498267889 8.9237739332020265 15.686365688219665 5.1309752445668009 2.609627053141593 6.5156934652477485 3.5707919504493466 7.8169152699410906 2.2966553755104533 6.5245488844811907 7.8374112788587791 2.7591057103127241 11.265991836786268 5.1847151555120945 17.115673806518316 5.7031309157609966 7.5644835680723173 6.8175819125026464 4.1337424274533969 6.3284056559205055 4.7860855832695961
leaf_count=238 72 212 483 111 199 90 160 106 124 425 131 288 75 50 89 77 129 28 105 115 52 202 79 299 66 120 119 77 127 67
internal_value=-0.000124119 -0.00163102 -0.00401173 0.00390429 -0.00628436 0.00839815 -0.00544057 -0.0143823 0.00702332 0.00988005 0.0219198 -0.0033822 -0.0011248 -0.00649039 0.00463584 0.0154362 -0.0095802 -0.0261048 0.00533149 0.00848666 0.0194438 0.00288793 0.0127687 -0.00287344 0.00480131 0.0107275 0.00254098 -0.00751151 0.00224486 0.0221804
internal_weight=268.649 222.682 156.093 66.5889 124.457 45.1422 21.4467 31.6553 45.9666 39.5988 12.9526 92.8014 77.115 39.9958 37.1192 14.8726 37.3862 10.5826 40.6001 34.0755 10.5965 23.479 12.213 22.2466 31.6367 20.0852 14.3821 21.0727 10.4621 11.3018
internal_count=4515 3763 2611 1152 2094 754 398 537 752 628 203 1557 1269 662 607 233 612 134 664 559 167 392 190 374 517 305 239 403 204 156
is_linear=0
shrinkage=0.03


Tree=23
num_leaves=31
num_cat=0
split_feature=5 52 49 50 50 20 49 46 13 40 26 13 40 39 0 13 33 25 49 17 49 48 26 18 15 18 1 27 40 49
split_gain=3.25718 3.10915 3.12999 5.87401 5.52471 5.40451 3.8392 2.83586 2.69023 2.68228 2.62138 3.09654 4.06389 2.97961 2.67676 3.87729 3.11919 2.55771 2.49647 2.47396 2.41815 3.38644 2.78406 3.68316 2.39526 2.42204 2.37693 2.22356 2.32779 2.23829
threshold=0.29822817444801336 0.3087423592805863 1.4956260323524477 0.34181593358516699 0.3585581928491593 0.32633154094219213 1.7530418038368227 0.39138840138912206 22.500000000000004 0.26409091055393225 0.088621977716684355 37.500000000000007 0.29594865441322332 0.29077167809009558 91.662384033203139 52.500000000000007 695.00000000000011 5.5000000000000009 1.347054183483124 0.3034095317125321 1.5846092104911806 0.36259824037551885 0.068833243101835265 0.24028697609901431 0.038491170853376395 0.19951488822698596 0.10535885021090509 0.019830545410513881 0.26983562111854559 1.3804336190223696
decision_type=2 2 2 2 2 2 2 2 2 2 2 2 2 2 2 2 2 2 2 2 2 2 2 2 2 2 2 2 2 2
left_child=1 9 3 10 5 20 -6 -5 -7 -1 14 24 13 -13 16 17 18 -16 -3 -9 21 22 -4 -24 27 -26 -19 28 -12 -29
right_child=-2 2 4 7 6 8 -8 19 -10 -11 11 12 -14 -15 15 -17 -18 26 -20 -21 -22 -23 23 -25 25 -27 -28 29 -30 -31
leaf_value=0.0009170478302668346 -0.013162735178347571 -0.01899470299817968 0.027888536409784892 0.011361928104867429 -0.012034734761428535 0.004997292204435639 0.020668834888310339 -0.020219406783076811 -0.023134459808584439 0.033829828904789611 -0.0062383974125811694 0.035508340922753644 -0.010410144733039266 0 -0.0094684256917810239 -0.016198375307932715 0.031801767180004187 0.0055083012232246239 0.0086669864458350197 0.011268292005943779 0.031450265061262729 -0.011716510230164342 -0.008438080561388726 0.022451612218796671 0.028999346737134512 -0.00093836661868443414 -0.012101713692278717 0.0030514422373553365 0.021491374042738494 -0.018859835501130167
leaf_weight=4.5646047107875329 15.18792114779353 2.9935808591544655 9.6143435277044826 2.6966674290597465 18.24423025734723 7.0555875133723003 2.9148243162780991 23.271679097786549 3.9903989508748055 3.6630145646631718 4.7468570116907376 7.3284472860395891 2.8988121524453154 2.9635133184492588 21.319068236276507 18.382584933191538 3.0143787860870352 42.237037338316441 10.050907824188469 1.7802471742033947 7.9420708119869223 3.7750842403620473 6.6555698346346599 5.4177247248589993 3.8141350504010898 4.6052865646779537 7.204190617427229 6.4712491054087868 4.3349380772560835 9.3473407234996539
leaf_count=118 308 54 147 52 392 140 58 449 52 63 85 75 29 31 369 182 50 717 159 36 137 62 108 76 61 80 107 111 58 149
internal_value=-0.000110264 0.000715155 6.50659e-05 -0.0019805 0.0056285 0.0115641 -0.00673243 -0.0144156 -0.00611773 0.0178109 0.000363603 0.00622716 0.0179734 0.0263146 -0.00224883 -0.00430333 0.00865154 -0.00100959 0.00131163 -0.0175776 0.0174624 0.0120192 0.0165512 0.00596559 0.00114511 0.0141035 0.00272352 -0.00355389 0.00766768 -0.0101585
internal_weight=268.486 253.298 245.071 179.461 65.6098 44.4508 21.1591 27.7486 11.046 8.22762 151.712 46.5106 13.1908 10.292 105.202 89.1429 16.0589 70.7603 13.0445 25.0519 33.4048 25.4627 21.6876 12.0733 33.3198 8.41942 49.4412 24.9004 9.0818 15.8186
internal_count=4515 4207 4026 2854 1172 722 450 537 192 181 2317 679 135 106 1638 1375 263 1193 213 485 530 393 331 184 544 141 824 403 143 260
is_linear=0
shrinkage=0.03


Tree=24
num_leaves=31
num_cat=0
split_feature=5 52 37 52 42 44 50 40 4 40 44 40 52 6 1 4 4 20 44 33 26 44 18 53 0 38 52 13 26 52
split_gain=3.09993 2.94608 2.96423 2.57615 2.97566 2.66068 3.72686 2.51852 2.33318 2.20925 3.96682 3.12267 3.58833 2.48307 2.38385 2.33894 2.13182 2.01821 2.38711 2.36094 2.02341 1.94198 2.69397 3.09794 1.81861 2.08078 2.48432 2.03825 1.9653 1.76932
threshold=0.29822817444801336 0.3087423592805863 105.50000000000001 0.32196500897407537 68.850002288818374 10.449999809265138 0.34125846624374395 0.26409091055393225 0.025406065396964553 0.28711996972560888 8.0500001907348651 0.27746689319610601 0.32507500052452093 0.065710563212633147 0.050046382471919067 0.030230485834181312 0.027493895962834362 0.36937637627124792 7.6499998569488534 817.50000000000011 0.11435678601264955 5.9500000476837167 0.22611893713474276 0.036582766100764282 96.470642089843764 0.15000000223517421 0.33691242337226873 15.500000000000002 0.0946159102022648 0.33826486766338354
decision_type=2 2 2 2 2 2 2 2 2 2 2 2 2 2 2 2 2 2 2 2 2 2 2 2 2 2 2 2 2 2
left_child=1 7 9 4 -4 6 29 -1 -8 11 21 17 -13 -12 -14 -15 -16 19 20 24 -19 22 -11 -24 25 27 -27 -3 -28 -5
right_child=-2 2 3 5 -6 -7 8 -9 -10 10 13 12 14 15 16 -17 -18 18 -20 -21 -22 -23 23 -25 -26 26 28 -29 -30 -31
leaf_value=0.0008942160176768953 -0.012867398825204516 -0.000678145795681857 0.018908606273006175 0.026153508746481199 -0.018778272538852933 -0.006737339666235926 -0.020180659750237331 0.032724682378094519 0.0082711303678441473 -0.01595006607503003 0.024395460177375417 0.032540816011574922 0.026015554238398179 0.01468494015077447 0.01145406085281634 -0.014036998094420444 -0.013860103544761852 0.034805189340593227 -0.0059794446902209832 0.010256757086190114 -0.0031588611060525138 -0.023414211974126468 0.015814873779967691 -0.015958527300287524 0.010319442665000178 0.0057682856649718039 -0.019281997350600308 -0.010785581651954115 0.010595807439233725 0.0034326569728558372
leaf_weight=4.5662249159067851 15.094803158193825 28.686814658343792 1.7248582039028395 15.024642694741493 5.4197619445621967 5.9664223603904238 2.796694800257681 3.7062147613614798 7.1686734575778246 12.497838344424965 3.6859012972563496 4.3973621036857393 2.1105112843215457 3.3069931585341674 4.0917225331068021 5.2503030560910702 6.2850137837231159 3.2866737283766252 3.2976205982267857 11.464283933863042 1.4742947705090044 9.7741873878985626 6.4485115110874158 3.4008695557713509 7.1022891346365205 28.200087796896696 6.4962385576218349 49.205030960962176 1.8972982931882141 4.428844215348362
leaf_count=118 308 682 26 208 94 95 53 63 127 153 47 67 31 43 60 66 93 64 75 201 33 122 83 44 119 463 133 737 33 74
internal_value=-9.48843e-05 0.000708406 7.34605e-05 0.00718395 -0.00829121 0.0104917 0.0141419 0.0173079 -0.000689046 -0.00144155 -0.00727809 0.000223367 0.0120442 0.00678289 0.00283761 -0.00240524 -0.00361704 -0.0012553 0.0124396 -0.00218256 0.0242811 -0.0127257 -0.00718396 0.00424594 -0.00344178 -0.00439043 0.00145214 -0.0071379 -0.0119596 0.0214749
internal_weight=268.257 253.162 244.89 42.5299 7.14462 35.3853 29.4189 8.27244 9.96537 202.36 44.3646 157.995 16.8846 12.2432 12.4872 8.5573 10.3767 141.111 8.05859 133.052 4.76097 32.1214 22.3472 9.84938 121.588 114.485 36.5936 77.8918 8.39354 19.4535
internal_count=4515 4207 4026 677 120 557 462 181 180 3349 558 2791 251 156 184 109 153 2540 172 2368 97 402 280 127 2167 2048 629 1419 166 282
is_linear=0
shrinkage=0.03


Tree=25
num_leaves=31
num_cat=0
split_feature=49 51 49 50 49 26 19 0 46 51 41 50 37 54 54 7 39 2 0 0 53 11 18 0 53 48 39 45 46 14
split_gain=5.77507 8.3623 5.93061 4.16649 4.31822 3.81519 3.09543 2.67996 3.61463 2.60971 2.56673 2.39794 2.27296 2.72399 3.55612 2.83309 2.63206 2.93086 2.42701 2.26664 2.29355 2.24052 2.48827 2.52505 2.1683 3.03082 3.97774 2.27336 3.2979 2.49725
threshold=1.4956260323524477 0.34051059186458593 1.4356240630149844 0.35291111469268804 1.7148820757865908 0.060213075950741775 0.3088833093643189 95.287189483642592 0.39837355911731726 0.41249476373195654 0.46310061216354376 0.33829066157341009 105.50000000000001 65.500000000000014 57.500000000000007 0.021137398667633537 0.2966927587985993 0.080531671643257155 93.236892700195327 91.761264801025405 0.033746728673577316 0.19237097352743152 0.22213084995746615 95.099704742431655 0.036082141101360328 0.33646099269390112 0.26458969712257391 0.71132951974868786 0.42715674638748174 0.43687309324741369
decision_type=2 2 2 2 2 2 2 2 2 2 2 2 2 2 2 2 2 2 2 2 2 2 2 2 2 2 2 2 2 2
left_child=1 2 6 5 -5 10 7 19 -9 -6 -2 -4 13 14 15 -8 17 -14 -16 20 -1 -7 -23 -24 25 26 -3 -27 29 -29
right_child=3 24 11 4 9 21 12 8 -10 -11 -12 -13 16 -15 18 -17 -18 -19 -20 -21 -22 22 23 -25 -26 27 -28 28 -30 -31
leaf_value=0.020769591764716048 0.0040588372326386445 0.032029908954084751 0.021063316849836866 -0.0057337605020242148 0.028087266016819122 0.021138530982458999 0.012417863399356932 0.018045970051152962 -0.012263584048216708 -0.0092278017611257344 0.038777961602343342 -0.0035092295016485209 0.034702988119180267 -0.014867648222851318 3.5856934397691136e-05 -0.0052438344296645619 -0.0077609739973929417 -0.0025123056927572238 0.031670680766724274 -0.013042759493801898 -0.0079380559531301211 -0.0080310146543454489 0.020204714342566332 -0.0072735363090732372 -0.019865539840985897 -0.027750990321528002 -0.0047457433081455466 -0.0063463232705261345 -0.017269090627805735 0.031116173515093815
leaf_weight=3.1894703637808544 2.9947328418493253 2.4882935043424395 16.707675408571962 25.869638979434967 5.4972099978476754 7.8594552967697409 10.366585547104476 7.55148804374039 5.0898211803287268 1.6562296003103254 6.9470469299703836 4.028412051498889 5.3348876740783435 7.2450295239686957 3.5659523755311948 28.073380840942264 2.5935555994510651 2.4374145250767469 5.0538999661803246 33.358500631526113 5.2476106882095337 9.4607956409454363 8.254450708627699 3.7362499833106986 19.764822084456682 6.2703508622944382 10.038689477369187 2.6860099881887418 7.5394467543810606 2.0515216719359159
leaf_count=56 47 30 252 528 96 132 213 120 73 38 114 84 62 66 35 524 53 32 47 512 79 151 135 64 361 95 202 50 148 35
internal_value=0.000806368 -0.00192896 0.00186434 0.00797121 2.68533e-05 0.0144508 -0.000747293 -0.00597207 0.00572796 0.0191916 0.0297835 0.0162788 0.00365182 0.00104879 0.00378877 -0.000248664 0.0158645 0.0239052 0.0201037 -0.00959702 0.00380623 0.00838968 0.00291844 0.0116263 -0.0122269 -0.00685364 0.00427612 -0.0142817 -0.00571737 0.0122107
internal_weight=262.959 190.683 139.844 72.2758 33.0231 39.2527 119.108 54.4369 12.6413 7.15344 9.94178 20.7361 64.6707 54.3048 47.0598 38.44 10.3659 7.7723 8.61985 41.7956 8.43708 29.311 21.4515 11.9907 50.8391 31.0743 12.527 18.5473 12.277 4.73753
internal_count=4434 3129 2208 1305 662 643 1872 840 193 134 161 336 1032 885 819 737 147 94 82 647 135 482 350 199 921 560 232 328 233 85
is_linear=0
shrinkage=0.03


Tree=26
num_leaves=31
num_cat=0
split_feature=49 51 49 29 50 49 44 44 0 15 54 51 51 0 50 9 54 44 48 49 6 41 0 10 25 40 7 51 49 2
split_gain=5.45561 7.94659 5.55553 4.11247 3.91913 4.0732 3.65128 3.72434 3.3494 3.18358 2.64416 2.70602 2.46744 2.30139 2.24516 2.2433 3.32001 2.19083 2.11385 2.32655 2.64421 2.07335 2.05707 2.01757 1.98015 1.90579 2.50797 2.97644 2.12643 1.9101
threshold=1.4956260323524477 0.34051059186458593 1.4356240630149844 1.1548072099685671 0.35291111469268804 1.7148820757865908 6.1499998569488534 2.7500000000000004 92.958599090576186 0.024580094031989578 53.500000000000007 0.32387003302574163 0.41249476373195654 93.628372192382827 0.33829066157341009 0.16399846225976947 44.500000000000007 4.7500000000000009 0.3326637744903565 1.4173102378845217 0.072491426020860686 0.4746979027986527 94.45652008056642 0.29280610382556921 6.5000000000000009 0.24918171763420108 0.023323813453316692 0.36299449205398565 1.5433382987976076 0.058614375069737441
decision_type=2 2 2 2 2 2 2 2 2 2 2 2 2 2 2 2 2 2 2 2 2 2 2 2 2 2 2 2 2 2
left_child=1 2 3 -1 25 -6 7 10 17 22 11 -5 23 -12 21 16 -8 -9 19 24 -21 -4 -10 -7 -3 -2 28 29 -27 -28
right_child=4 18 14 6 5 12 15 8 9 -11 13 -13 -14 -15 -16 -17 -18 -19 -20 20 -22 -23 -24 -25 -26 26 27 -29 -30 -31
leaf_value=-0.011294921562225474 0.0034422786431222933 -0.018759697776669325 0.031856670401221046 0.020868412487032337 -0.0055817034904081979 0.036841718128414268 -0.0086774078413952987 0.012966820546525754 -0.017115991046920104 0.030177040840544612 -0.02731270970914168 -0.0067345501040251008 -0.0090823989450286406 0.0021327065398104293 -0.003429235546952882 -0.0067156188374579272 0.022906482418662749 -0.014480745037924722 -0.015919835471898045 0.033228562874351358 -0.0039710982622377291 0.0094764663434441371 0.016185966615392285 -0.00042340022849695713 0.00793491570012308 -0.0064801615066305924 0.044788005560531717 0 0.019788086846245535 0.018541586432893799
leaf_weight=24.979098834097385 11.892856111750005 6.9628986194729787 7.1546226274222198 5.5176288262009638 25.805382015183568 3.898176558315753 4.7826651707291585 4.5259023681283015 2.0499856695532825 12.52163942158222 4.079717952758072 5.4383454788476229 1.6483910195529459 4.0926536321640015 4.0221344251185647 38.970172703266144 5.400988694280386 3.9722149726003408 35.162350114434958 1.9218743592500676 3.5913279019296169 9.6694589853286725 2.6788587309420109 1.6455701049417255 2.8799956031143665 5.6439271010458487 5.1510184407234219 3.5228713583201161 3.7944592516869307 9.3939808420836908
leaf_count=431 221 123 106 102 528 65 104 68 29 172 40 96 38 39 84 629 60 64 642 35 62 146 38 31 59 97 70 46 76 133
internal_value=0.000796361 -0.00186738 0.00182148 -0.000713273 0.0077514 3.4228e-05 0.00217121 0.00827891 0.0155162 0.0227602 -0.00167557 0.00762407 0.018589 -0.0137783 0.0157311 -0.00342903 0.00848968 0 -0.0119459 -0.00233779 0.011877 0.0203314 0.00101981 0.0271766 -0.0107992 0.0140167 0.018255 0.0245734 0.00482062 0.0302163
internal_weight=262.771 190.375 139.856 119.01 72.3966 32.9975 94.0308 44.8769 25.7486 17.2505 19.1283 10.956 7.19214 8.17237 20.8462 49.1538 10.1837 8.49812 50.5184 15.3561 5.5132 16.8241 4.72884 5.54375 9.84289 39.3991 27.5063 18.0679 9.43839 14.545
internal_count=4434 3129 2208 1872 1305 662 1441 648 371 239 277 198 134 79 336 793 164 132 921 279 97 252 67 96 182 643 422 249 173 203
is_linear=0
shrinkage=0.03


Tree=27
num_leaves=31
num_cat=0
split_feature=53 4 53 34 1 0 7 34 21 19 23 7 44 4 40 9 2 41 39 27 27 5 11 15 41 50 36 13 54 10
split_gain=4.09321 3.46253 3.44005 3.11154 2.90558 2.99433 3.33524 2.78668 3.37176 2.6764 2.51457 2.45438 2.3685 2.28486 2.54556 2.65013 2.58448 3.22888 2.19338 3.17496 2.18827 2.13426 2.25977 2.09483 2.02645 2.38232 2.01118 1.95865 1.9095 2.55896
threshold=0.033445836976170547 0.021746758371591571 0.0316273681819439 42.500000000000007 0.065125189721584334 93.547058105468764 0.043177418410778053 53.500000000000007 0.17392318695783618 0.28396560251712805 0.060661764815449722 0.012685046065598728 7.5499999523162851 0.032843718305230148 0.265856683254242 0.28271847963333135 0.076663829386234297 0.49586576223373419 0.29690366983413702 0.029771234840154651 0.025528719648718837 0.22668749094009402 0.166672557592392 0.030320710502564911 0.4451094269752503 0.3257762491703034 94.500000000000014 3.5000000000000004 30.500000000000004 0.23918244242668155
decision_type=2 2 2 2 2 2 2 2 2 2 2 2 2 2 2 2 2 2 2 2 2 2 2 2 2 2 2 2 2 2
left_child=2 3 28 -2 5 6 11 8 -6 -4 -9 -3 -7 14 26 16 17 -16 20 -20 -11 22 -5 -13 25 -10 -12 -26 -1 -30
right_child=1 4 9 21 7 12 -8 10 24 18 13 23 -14 -15 15 -17 -18 -19 19 -21 -22 -23 -24 -25 27 -27 -28 -29 29 -31
leaf_value=0.0063919787878157393 0.011479095193139041 0.012043511012114786 -0.0024265930389230747 -0.021287796233254865 0.0098087346745083653 0.02563991470491353 0.016193281341718935 0.025570043276624609 0.021346704504063552 0.0071224682100280608 -0.019210058803510632 0.0004175324794080305 0 -0.0057468298257300678 0.027214899022690715 0.035379209645713991 -0.01071145965192743 -0.0077748344539447373 0.020787832775344028 -0.014759127916820472 0.029389340846368382 -0.023779788271632362 0.003121646706209345 -0.024146983776314794 0.010142582676118611 -0.0089174068665433311 0.0053438127834012908 -0.01526126149291804 -0.014279434776256782 0.0039415600757429269
leaf_weight=29.478914706036448 3.8696903847157982 3.4354589674621847 7.2822239492088547 4.3211167119443443 7.8353854585438958 9.3312487341463548 6.8603881057351819 2.8660046085715285 2.7893994115293017 6.9486850891262355 3.9563181325793284 5.0814836677163822 4.7752586062997571 25.924314523115754 5.7136553935706633 3.0119712855666867 4.3241810798645011 3.0213993079960346 3.3530695587396613 3.7012186516076326 12.984499003738163 12.004344969987867 8.7197429407387954 6.5304033551365137 2.2106664367020121 5.1184527166187763 6.6815375611186028 34.43617232888937 11.893383320420982 14.111052695661781
leaf_count=863 65 58 121 79 125 139 105 41 44 94 73 81 87 421 69 36 52 38 63 69 176 196 144 97 46 83 121 516 154 178
internal_value=0.000788875 -0.00190407 0.00595449 -0.0111909 1.59479e-05 0.00728731 0.000126886 -0.00244214 -0.00734672 0.0132867 0.0022092 -0.00765727 0.0175638 0.000456142 0.00652111 0.0137575 0.0065022 0.0154027 0.0175155 0.00243411 0.0224098 -0.0150574 -0.00579973 -0.0140976 -0.0105457 0.00278748 -0.0045251 -0.0134603 0.00124411 -0.00455663
internal_weight=262.572 172.819 89.753 28.9149 143.904 36.0142 21.9077 107.889 52.3901 34.2697 55.4994 15.0473 14.1065 52.6334 26.7091 16.0712 13.0592 8.73505 26.9875 7.05429 19.9332 25.0452 13.0409 11.6119 44.5547 7.90785 10.6379 36.6468 55.4834 26.0044
internal_count=4434 2716 1718 484 2232 567 341 1665 814 523 851 236 226 810 389 195 159 107 402 132 270 419 223 178 689 127 194 562 1195 332
is_linear=0
shrinkage=0.03


Tree=28
num_leaves=31
num_cat=0
split_feature=49 53 9 6 6 9 28 39 0 0 45 39 53 29 12 33 52 14 53 19 17 42 6 39 27 10 19 39 27 49
split_gain=5.16765 3.56378 3.37052 3.4986 3.63812 3.22433 3.01651 3.50223 2.89181 4.19245 2.7598 3.15511 2.65855 2.54269 2.64142 3.09017 2.50529 2.294 2.22129 2.21453 2.54876 2.13604 2.14286 2.35819 3.86174 3.02902 3.17557 2.76801 3.54819 2.50696
