tree
version=v4
num_class=1
num_tree_per_iteration=1
label_index=0
max_feature_idx=51
objective=binary sigmoid:1
feature_names=away_p_avg_velo away_p_bb_rate_vs_L away_p_bb_rate_vs_R away_p_career_bb_rate away_p_career_hr_rate away_p_career_k_rate away_p_fi_bb_rate away_p_fi_hr_rate away_p_fi_k_rate away_p_fi_k_rate_vs_L away_p_fi_k_rate_vs_R away_p_fi_platoon_k_rate away_p_fi_runs_per_start away_p_fi_starts away_p_gb_rate away_p_hr_rate_vs_L away_p_hr_rate_vs_R away_p_k_rate_vs_L away_p_k_rate_vs_R away_p_obpa_vs_L away_p_obpa_vs_R away_p_platoon_k_rate away_p_recent_fi_bb_rate away_p_recent_fi_k_rate away_p_recent_fi_runs away_p_rest_days away_p_season_bb_rate away_p_season_hr_rate away_p_season_k_rate away_p_whip_approx ctx_day_of_week ctx_is_weekend ctx_month env_elevation_ft env_humidity env_is_dome env_park_factor_hr env_park_factor_runs env_precipitation env_temp_max env_temp_min env_wind_mph home_lineup_pa_prob_4 home_lineup_pa_prob_5 home_lineup_pa_prob_6 home_lineup_top3_obp home_lineup_weighted_score home_platoon_lineup_obp home_platoon_lineup_woba ump_career_strike_rate ump_consistency ump_games_count
feature_infos=[85.976272583007812:101.17353057861328] [0:0.60000002384185791] [0:0.5] [0:0.75] [0:0.15000000596046448] [0:0.52631580829620361] [0:0.5] [0:0.40000000596046448] [0:1] [0:1] [0:1] [0:1] [0:9] [0:77] [0:1] [0:0.3333333432674408] [0:0.28571429848670959] [0:0.75] [0:0.54545456171035767] [0:0.8888888955116272] [0:0.8571428656578064] [0:0.47179487347602844] [0:0.5] [0:1] [0:4.3333334922790527] [1:30] [0:0.75] [0:0.25] [0:0.72222220897674561] [0:9] [0:6] [0:1] [3:10] [5:5200] [16:99] [0:1] [84:115] [92:115] [0:114] [35.400001525878906:113] [23.700000762939453:82.800003051757812] [0:46.900001525878906] [0.59820467233657837:0.8198811411857605] [0.28244972229003906:0.58602631092071533] [0.11514447629451752:0.38075867295265198] [0.26165050268173218:0.4341529905796051] [1.0412454605102539:1.9963531494140625] [0.23417313396930695:0.42900693416595459] [0.22380846738815308:0.44898843765258789] [0.21770000457763672:0.4512999951839447] [0:0.074000000953674316] [0:76]
tree_sizes=3371 3433 3427 3427 3418 3447 3432 3422 3422 3436 3459 3429 3432 3451 3434 3429 3444 3418 3427 3434 3446 3430 3433 3438 3433 3417 3435 3437 3447 3449 3421 3444 3437 3437 3449 3432 3441 3423 3451 3442 3456 3452 3440 3441 3428 3434 3445 3441 3445 3447 3430 3429 3453 3431 3432 3433 3446 3439 3439 3437 3452 3430 3446 3456 3445 3448 3438 3433 3449 3411 3442 3443 3442 3439 3453 3444 3450 3463 3431 3449 3464 3434 3447 3434 3429 3449 3441 3450 3442 3436 3446 3447 3425 3456 3434 3423 3439 3449 3461 3442 3440 3467 3443 3439 3449 3440 3448 3439 3467 3445 3437 3455 3451

Tree=0
num_leaves=31
num_cat=0
split_feature=46 47 47 23 29 47 1 50 1 46 37 51 5 37 16 42 4 1 46 17 7 1 39 1 3 39 23 5 27 26
split_gain=30.9574 33.719 30.3772 16.8572 15.5163 15.2013 14.5913 14.2008 13.8875 12.6354 12.3342 12.2551 13.2713 11.0648 9.99505 9.89206 9.84055 8.48117 10.565 8.47557 8.07795 9.87334 7.8721 7.77102 9.45989 7.50286 8.46619 7.17889 7.56476 6.94585
threshold=1.5399549007415774 0.36179104447364813 0.33291201293468481 0.23303167521953586 1.1562834382057192 0.33723719418048864 0.079672925174236311 0.035933202132582671 0.10153551399707796 1.4433290362358095 98.000000000000014 18.500000000000004 0.21675662696361545 105.50000000000001 0.027689227834343914 0.76677128672599804 0.027670470066368583 0.064531214535236373 1.4691972732543948 0.21876931190490725 0.044158272445201881 0.12609656900167468 56.149999618530281 0.10041177645325662 0.089952714741230025 77.149997711181655 0.28174604475498205 0.23599410057067874 0.028182251378893856 0.067248288542032256
decision_type=2 2 2 2 2 2 2 2 2 2 2 2 2 2 2 2 2 2 2 2 2 2 2 2 2 2 2 2 2 2
left_child=2 3 4 6 9 10 15 -7 11 16 -5 12 -6 -10 -15 19 -1 18 -4 29 -19 -22 -13 -8 -25 26 -14 28 -20 -2
right_child=1 -3 17 5 8 7 23 -9 13 -11 -12 22 25 14 -16 -17 -18 20 27 -21 21 -23 -24 24 -26 -27 -28 -29 -30 -31
leaf_value=-0.90298162655494918 -0.83442361845570923 -0.89390596524367194 -0.88543964289992327 -0.88383028807296204 -0.84419772901155854 -0.86682081902700747 -0.825036894076984 -0.90052596673348262 -0.88707027265737237 -0.86353647016292401 -0.83487436931619552 -0.84331123318658963 -0.87819496982589584 -0.88573966087618583 -0.83859464124127547 -0.83274840333833955 -0.88094670856692947 -0.89317970209626329 -0.8717109661772855 -0.88694585147054172 -0.88469559824866972 -0.8487761203247739 -0.87295263483874153 -0.88181336773970498 -0.83834599417759803 -0.89138034357192608 -0.83778040530977194 -0.88372828155945249 -0.82723789314262164 -0.87462229622339382
leaf_weight=31.751299917697906 6.225745081901553 29.468526721000671 45.032889425754547 6.225745081901553 34.449122786521912 27.393278360366821 21.790107786655426 17.639611065387726 68.068146228790283 18.677235245704651 14.111688852310179 7.4708940982818595 10.376241803169256 6.6407947540283194 8.0934686064720136 6.4332699179649344 42.750116229057312 160.00164860486984 6.8483195900917071 15.356837868690489 55.409131228923798 6.8483195900917044 187.60245180130005 6.640794754028323 11.413865983486174 10.376241803169249 7.2633692622184745 7.0558444261550894 6.6407947540283203 8.7160431146621686
leaf_count=153 30 142 217 30 166 132 105 85 328 90 68 36 50 32 39 31 206 771 33 74 267 33 904 32 55 50 35 34 32 42
internal_value=-0.876572 -0.865151 -0.879299 -0.859091 -0.874285 -0.87045 -0.849617 -0.880226 -0.871313 -0.885066 -0.849573 -0.867882 -0.856411 -0.881941 -0.859176 -0.863829 -0.890584 -0.886838 -0.877315 -0.871663 -0.889625 -0.880345 -0.871646 -0.837183 -0.853853 -0.872076 -0.86045 -0.859988 -0.847825 -0.85619
internal_weight=892.772 171.416 721.356 141.947 433.519 65.3703 76.5767 45.0329 340.341 93.1787 20.3374 257.538 62.465 82.8024 14.7343 36.7319 74.5014 287.837 65.5778 30.2986 222.259 62.2575 195.073 39.8448 18.0547 28.0159 17.6396 20.545 13.4891 14.9418
internal_count=4302 826 3476 684 2089 315 369 217 1640 449 98 1241 301 399 71 177 359 1387 316 146 1071 300 940 192 87 135 85 99 65 72
is_linear=0
shrinkage=1


Tree=1
num_leaves=31
num_cat=0
split_feature=46 48 47 48 29 5 1 6 51 11 49 46 46 47 12 4 41 44 29 1 36 51 11 46 50 14 6 41 49 26
split_gain=29.122 33.6237 28.7238 17.0239 16.9189 14.788 13.7642 11.8583 11.8334 15.0075 13.0129 11.4994 10.5678 13.3107 10.419 10.3358 10.2766 10.0218 10.118 9.19471 8.63836 8.5703 8.49557 9.02625 8.50695 8.44195 8.18253 8.14264 7.99949 7.97425
threshold=1.5399549007415774 0.37161831557750707 0.33291201293468481 0.30220277607440954 1.1562834382057192 0.15269055962562564 0.10153551399707796 0.080069687217473998 18.500000000000004 0.27504132688045507 0.33596268296241766 1.4433290362358095 1.7167790532112124 0.3626163005828858 0.29340028762817388 0.027670470066368583 10.150000095367433 0.20170494168996814 1.4199828505516054 0.064531214535236373 105.50000000000001 11.500000000000002 0.21324025094509128 1.4198414683341982 0.036671239882707603 0.38396455347538 0.081672355532646193 13.550000190734865 0.32043974101543432 0.082582339644432082
decision_type=2 2 2 2 2 2 2 2 2 2 2 2 2 2 2 2 2 2 2 2 2 2 2 2 2 2 2 2 2 2
left_child=2 5 3 -1 11 -2 8 21 9 -6 -10 15 -3 -14 -13 -5 19 -18 26 22 -12 -7 23 -4 -24 -23 -19 -8 -21 -27
right_child=1 12 16 4 6 7 27 -9 10 -11 20 14 13 -15 -16 -17 17 18 -20 28 -22 25 24 -25 -26 29 -28 -29 -30 -31
leaf_value=-0.017973827248497994 0.053274103980129175 -0.02326791605906682 -0.0081123307828499386 -0.02716188665056218 0.030849638664417898 -0.01040036641163895 0.0010542100500964041 0.024854839584556809 0.011174188643946171 -0.0041830751717394192 0.0012589399906524641 0.038191831211990719 0.036694061078429978 -0.014507654526031619 -0.0054423964248288695 -0.0034879251936391366 0.012701535170469227 -0.0051377890408162118 0.007882458961020064 -0.0022907149504056818 -0.027926874689400683 -0.0077639045834459394 -0.028017925216678369 0.038627386094620596 0.0078625976098875439 0.030476594098346525 -0.026630774390745994 -0.022907952115365771 -0.021807091717543362 -0.0047497696264411438
leaf_weight=33.829186573624611 9.4241463840007764 26.315205574035645 6.4094843715429288 27.912856340408325 43.976435154676437 18.976551875472069 60.665187209844589 59.552107825875282 138.26287589967251 14.184526786208151 28.697729036211967 7.3020096868276623 6.6944191902875927 10.301388055086134 11.474586650729178 40.18581885099411 26.443054556846619 39.672047585248947 25.460534155368805 23.323836803436279 12.269337102770804 11.456714347004889 12.435914948582651 6.8867794275283813 9.9495476037263852 22.120784312486652 26.631248980760574 15.104191452264784 109.36709229648113 7.2935870438814154
leaf_count=163 45 127 31 136 210 91 293 285 665 68 138 35 32 50 55 194 128 192 123 113 59 55 60 33 48 106 129 73 530 35
internal_value=-6.80564e-05 0.0109795 -0.00272128 0.00214488 0.00389054 0.0186377 0.00713982 0.0154717 0.0106839 0.0223541 0.00678559 -0.00775307 -0.0116717 0.006495 0.0125238 -0.013466 -0.0100754 -0.00323944 -0.00793663 -0.0148183 -0.00790342 0.00585518 -0.00120815 0.0170001 -0.0123519 0.0135066 -0.0140603 -0.00393915 -0.0184306 0.0218236
internal_weight=892.579 172.135 720.444 433.865 400.036 128.824 313.16 119.4 237.391 58.161 179.23 86.8753 43.311 16.9958 18.7766 68.0987 286.58 118.207 91.7638 168.373 40.9671 59.8476 35.6817 13.2963 22.3855 40.8711 66.3033 75.7694 132.691 29.4144
internal_count=4302 826 3476 2089 1926 617 1506 572 1140 278 862 420 209 82 90 330 1387 572 444 815 197 287 172 64 108 196 321 366 643 141
is_linear=0
shrinkage=0.03


Tree=2
num_leaves=31
num_cat=0
split_feature=46 47 47 46 47 23 37 47 11 5 46 30 1 19 26 26 10 2 13 18 28 11 17 8 2 30 25 49 22 38
split_gain=27.7725 28.7896 25.0771 18.6489 14.6519 19.5536 16.4862 13.4313 14.247 12.8192 12.6254 10.3958 9.99658 9.68223 10.5123 9.08657 10.7358 9.95313 8.45533 7.52509 7.47857 7.32944 10.5687 7.74628 7.52748 6.94068 6.9085 10.7808 9.43699 9.28514
threshold=1.4814838171005251 0.3318066149950028 0.3626163005828858 1.691017270088196 0.33635227382183081 0.23303167521953586 98.000000000000014 0.34875853359699255 0.25586986541748052 0.26531636714935308 1.444278419017792 2.5000000000000004 0.062988311052322402 0.23546314984560016 0.057567765936255462 0.071503762155771269 0.24514517188072207 0.076616864651441588 58.500000000000007 0.24197983741760257 0.19761871546506884 0.17266315966844561 0.1595895737409592 0.21411960572004321 0.082357514649629607 3.5000000000000004 6.5000000000000009 0.3229851126670838 0.064583335071802153 1.1500000357627871
decision_type=2 2 2 2 2 2 2 2 2 2 2 2 2 2 2 2 2 2 2 2 2 2 2 2 2 2 2 2 2 2
left_child=1 9 3 4 6 7 -2 -6 -9 10 18 19 -7 14 -3 -12 17 -17 21 20 -8 -1 23 -23 26 -5 27 -24 -28 -30
right_child=2 13 -4 25 5 12 11 8 -10 -11 15 -13 -14 -15 -16 16 -18 -19 -20 -21 -22 22 24 -25 -26 -27 28 -29 29 -31
leaf_value=-0.008355713005619993 -0.0049767618432269983 -0.014417493501452768 -0.017488363844527049 0.049230182980586519 0.0011600981989739816 0.015766603681552728 0.013472462917819963 0.037257512092024873 -0.011695011197373831 -0.010586769086350646 0.001443774734477299 0.032428470779454044 -0.015736303859075977 -0.013935476029521105 0.033775754798315502 -0.005954414472734512 0.052835618195325756 0.038494853971969653 -0.020918940608550488 0.028489965413382012 -0.023837458717339687 0.051000492860391926 0.017203210783275358 0.0062098530858614703 -0.0082759193922992032 0.016494772419103715 0.039589702955800068 -0.0029125990974410748 -0.0038210797733502933 0.035326298019107742
leaf_weight=44.211415857076645 23.304715558886528 7.0181067138910276 31.179436340928078 13.100102439522745 43.768703103065491 9.9873222112655622 9.8569684177637154 23.874715238809589 6.2484203428030005 66.393092095851898 17.579933479428291 45.362105652689934 53.550167694687843 208.25476989150047 7.423121765255928 10.012649595737463 9.8000172525644285 6.8958856910467139 13.516387298703192 9.665694907307623 7.7189818024635306 6.4813831597566587 31.813951715826988 7.2443182468414307 40.544704750180244 12.825181752443312 10.818407669663427 88.009422719478607 19.519645512104038 6.4564734846353522
leaf_count=213 112 34 152 62 210 48 47 114 30 321 84 216 259 1012 36 48 47 33 65 46 37 31 153 35 195 61 52 424 94 31
internal_value=-6.73936e-05 -0.00374412 0.00753483 0.0106056 0.00783075 0.00150799 0.0167662 0.0119364 0.0270056 0.00128317 0.00383226 0.0237386 -0.0105936 -0.0122808 0.0108409 0.0184888 0.0291969 0.013227 0.00135057 0.00857942 -0.00323366 0.00261344 0.00494872 0.0294893 0.00309254 0.0343058 0.00607892 0.00251405 0.0172747 0.0068024
internal_weight=892.436 601.994 290.443 259.263 233.338 137.429 95.9085 73.8918 30.1231 379.298 312.905 72.6038 63.5375 222.696 14.4412 44.2885 26.7086 16.9085 268.616 27.2416 17.576 255.1 210.888 13.7257 197.163 25.9253 156.618 119.823 36.7945 25.9761
internal_count=4302 2908 1394 1242 1119 661 458 354 144 1826 1505 346 307 1082 70 212 128 81 1293 130 84 1228 1015 66 949 123 754 577 177 125
is_linear=0
shrinkage=0.03


Tree=3
num_leaves=31
num_cat=0
split_feature=46 48 47 48 29 8 1 1 51 11 49 46 46 48 49 18 47 48 31 7 36 40 1 0 26 50 0 40 10 49
split_gain=26.1857 30.7273 25.9151 15.986 15.6828 14.0726 12.9106 10.7916 10.7193 13.6982 12.0579 10.714 10.0373 12.1456 9.22348 9.18099 8.90158 10.0266 8.5695 11.7275 8.2473 8.18643 8.15939 10.4009 8.00078 11.115 7.68119 8.82632 9.4585 8.65648
threshold=1.5399549007415774 0.37161831557750707 0.33291201293468481 0.30220277607440954 1.1562834382057192 0.26441530883312231 0.10153551399707796 0.078977067023515715 18.500000000000004 0.27504132688045507 0.33596268296241766 1.4433290362358095 1.7167790532112124 0.38641455769538885 0.31955403089523321 0.28693637251853948 0.33723719418048864 0.35449874401092535 1.0000000180025095e-35 0.027072835713624958 105.50000000000001 71.149997711181655 0.10041177645325662 94.704917907714858 0.048831041902303703 0.037080580368638046 93.623584747314467 50.45000076293946 0.26418928802013403 0.32805788516998297
decision_type=2 2 2 2 2 2 2 2 2 2 2 2 2 2 2 2 2 2 2 2 2 2 2 2 2 2 2 2 2 2
left_child=2 5 3 -1 11 7 8 -2 9 -6 21 24 -3 -14 15 -4 -7 -18 -16 -20 -12 26 23 -9 25 -5 27 -10 -29 -30
right_child=1 12 14 4 6 16 -8 22 10 -11 20 -13 13 -15 18 -17 17 -19 19 -21 -22 -23 -24 -25 -26 -27 -28 28 29 -31
leaf_value=-0.017557557396236753 0.013050105482485752 -0.022783097807110714 0.0074066566613371423 0.018837811709675495 0.029279782238648987 0.020703054678183619 -0.003921274955709834 0.058528136241791671 0.024343430428940854 -0.00413060961013113 0.0012492775946814235 0.011944270648303654 0.026702489872800557 -0.021792956428017044 -0.016154436383592954 -0.028403769022063003 -0.036506467353022612 0.003670603911949569 -0.017270422137986016 0.0057741929227966941 -0.027386601882947604 0.035947333126832591 0.019295780777633664 0.012439864648397749 -0.019656348864602668 -0.025527351564720708 0.017714125076018709 -0.0085133070183671094 0.039745781306001149 -0.0014430032375776275
leaf_weight=33.560893535614014 40.927493289113045 26.035045430064201 42.67120161652565 12.939232513308527 44.64358301460743 16.547067269682884 75.740296825766563 17.341301485896114 13.010599657893179 14.171755254268644 28.699503540992737 18.906133711338043 9.9136275798082369 7.1206743419170371 155.60446859896183 6.5565927773714057 6.4174781590700176 21.902272313833237 33.373859345912933 46.16002194583416 12.108079746365545 9.8220767825841886 20.323754832148552 6.7663206160068503 47.71229462325573 6.9978545755147925 49.328218355774879 49.47469288110733 7.130525857210162 10.245138481259344
leaf_count=163 194 127 207 63 210 78 366 81 62 68 138 90 47 35 760 32 31 105 163 225 59 47 96 32 233 34 236 237 34 49
internal_value=-5.70256e-05 0.0103748 -0.00258483 0.0020211 0.00370332 0.0176129 0.00681664 0.0247017 0.0102332 0.0212699 0.00651729 -0.00753603 -0.0113797 0.00626293 -0.00961002 0.0021367 0.00384934 -0.00631727 -0.0120743 -0.0039715 -0.00766327 0.0107158 0.0348779 0.0466629 -0.0130968 0.00271865 0.00852457 0.00268098 -0.00180956 0.0166213
internal_weight=892.152 173.295 718.857 434.491 400.93 130.226 314.374 85.3589 238.634 58.8153 179.819 86.5555 43.0693 17.0343 284.366 49.2278 44.8668 28.3198 235.138 79.5339 40.8076 139.011 44.4314 24.1076 67.6494 19.9371 129.189 79.861 66.8504 17.3757
internal_count=4302 826 3476 2089 1926 617 1506 403 1140 278 862 420 209 82 1387 239 214 136 1148 388 197 665 209 113 330 97 618 382 320 83
is_linear=0
shrinkage=0.03


Tree=4
num_leaves=31
num_cat=0
split_feature=28 29 19 47 43 48 47 43 38 41 14 15 36 20 6 36 6 15 8 29 47 29 9 25 28 21 43 28 33 47
split_gain=21.1015 12.9392 14.2537 9.63581 11.3225 9.52252 11.8802 18.5547 22.2991 10.1652 9.01477 9.53795 8.91249 8.93213 8.65247 8.50236 7.80255 8.5281 10.22 8.0158 7.56621 9.27774 8.15362 7.34806 7.25878 7.0467 6.96785 8.28882 6.86689 6.84274
threshold=0.22504612058401111 1.0701195597648623 0.23239878565073016 0.36022593080997473 0.50724792480468761 0.30220277607440954 0.33260272443294531 0.45092608034610754 0.35000000894069677 10.449999809265138 0.37996415793895727 0.014405783265829088 103.50000000000001 0.31971044838428503 0.044489428400993354 102.50000000000001 0.098848264664411559 0.035924674943089492 0.21283459663391116 1.6004807949066164 0.33570957183837896 1.3639448881149294 0.20938088744878772 6.5000000000000009 0.17929661273956302 0.1765888333320618 0.39626504480838781 0.18338254094123843 597.50000000000011 0.3583082407712937
decision_type=2 2 2 2 2 2 2 2 2 2 2 2 2 2 2 2 2 2 2 2 2 2 2 2 2 2 2 2 2 2
left_child=1 -1 -3 4 -2 -4 10 9 15 12 14 -12 -8 -14 -7 29 17 19 25 -13 -11 -22 -23 -16 -10 -19 28 -28 -18 -9
right_child=3 2 5 -5 -6 6 7 8 24 20 11 16 13 -15 23 -17 26 18 -20 -21 21 22 -24 -25 -26 -27 27 -29 -30 -31
leaf_value=-0.014704208390782384 -0.00507145523737182 0.038560901373498171 -0.016957893283126909 -0.023543689035338263 0.03046203292832492 -0.0042852790896102926 -0.021242118539507554 0.025042785528701202 0.061924930681281201 0.023752244598333017 0.025596976681929916 0.0098645179317509504 -0.011638288011155783 0.015537740374014156 0.01626551632243517 -0.0092283459681539396 -0.032469478554828637 -0.01057778952496098 -0.018558999960821485 0.04058261042633908 -0.015148447935627279 -0.007130857224727863 0.026739509773796789 0.042576651118912415 0.02032033812587963 0.026274056330930978 0.024054305214395281 -0.0099119952164340424 0.0023946474412015529 -0.0047344356205941927
leaf_weight=30.949555367231369 336.25733828544617 10.157002970576285 17.420291215181351 24.073504433035851 7.2728106379508963 10.267157241702078 46.012857556343079 17.609865948557857 7.6594984680414226 12.343333899974821 19.746519297361374 76.076726794242859 31.928793266415596 15.257066160440443 30.640066832304001 26.290898114442825 12.267264634370806 6.9009326845407513 19.439858719706535 7.7630770355463019 22.903687998652458 11.334659054875376 12.609511643648146 14.921278551220892 9.630532354116438 10.890399992465971 9.90564773976803 14.90317466855049 7.9105253517627707 10.520026236772535
leaf_count=150 1628 48 85 118 34 49 226 83 36 60 94 363 156 74 146 126 59 33 93 37 112 55 61 71 46 52 47 71 38 51
internal_value=-5.40488e-05 0.00380563 0.00499734 -0.00555801 -0.0042286 0.00421047 0.0050401 5.28785e-05 0.0125416 -0.00585765 0.00964 0.00638768 -0.0119884 -0.00267997 0.0201349 0.0028266 0.0039549 0.00790888 -0.0039368 0.0131713 0.00380928 -0.00180047 0.0110028 0.0256439 0.0412112 0.0120978 -0.00659427 0.00399846 -0.0192628 0.014075
internal_weight=891.864 524.26 493.311 367.604 343.53 483.154 465.733 224.101 71.7108 152.39 241.633 185.804 93.1987 47.1859 55.8285 54.4208 166.058 121.071 37.2312 83.8398 59.1912 46.8479 23.9442 45.5613 17.29 17.7913 44.9866 24.8088 20.1778 28.1299
internal_count=4302 2522 2372 1780 1662 2324 2239 1086 342 744 1153 887 456 230 266 260 793 578 178 400 288 228 116 217 82 85 215 118 97 134
is_linear=0
shrinkage=0.03


Tree=5
num_leaves=31
num_cat=0
split_feature=46 47 47 46 47 44 48 40 6 21 37 30 25 19 48 4 50 22 2 39 11 40 6 50 49 49 15 47 47 11
split_gain=31.8786 21.8123 21.5893 21.5316 26.1687 16.1684 15.199 11.7633 11.6562 10.6991 10.3202 10.0422 9.81433 9.40988 8.64308 9.4539 12.9093 10.1924 12.5002 8.86872 8.57134 8.34243 7.88971 7.20692 7.18921 7.08153 9.73573 8.01439 8.61528 7.41785
threshold=1.4814838171005251 0.33691574633121496 0.36822970211505895 1.6751971244812014 0.33505779504776007 0.23647915571928027 0.37161831557750707 69.350002288818374 0.057233849540352828 0.19870349764823916 103.50000000000001 3.5000000000000004 11.500000000000002 0.23239878565073016 0.34092055261135107 0.030844963155686859 0.038226138800382621 0.080128207802772536 0.040748257189989097 66.049999237060561 0.27737908065319067 64.750000000000014 0.088574629276990904 0.033703610301017768 0.32906702160835272 0.33270481228828436 0.025654188357293609 0.31419055163860327 0.31952950358390814 0.25210967659950262
decision_type=2 2 2 2 2 2 2 2 2 2 2 2 2 2 2 2 2 2 2 2 2 2 2 2 2 2 2 2 2 2
left_child=1 7 3 4 5 -2 10 14 -9 -5 20 22 23 -3 15 16 25 -17 -19 -20 -6 -16 -7 -12 -23 26 -1 -28 -29 -30
right_child=2 13 -4 9 6 11 -8 8 -10 -11 12 -13 -14 -15 21 17 -18 18 19 -21 -22 24 -24 -25 -26 -27 27 28 29 -31
leaf_value=-0.0042000511899751456 0.034116980416942354 0.018525329658483747 -0.024590946577700321 0.0042977115036202038 0.0026931968834224378 0.0069688568164771938 -0.023987641318121682 -0.011795275004133948 0.024081958791237174 0.03990831348756968 0.022207584174013039 0.02147067486647047 0.042235422406083377 -0.015120207636087964 -0.022984984411603522 -0.0018776985680286113 -0.019810796388315576 -0.020035089263136758 0.037364465492729322 0.010955589694399635 -0.018812429775350605 -0.017685547495253119 -0.028224095474991669 -0.0023660588366396572 0.021010427824238752 -0.0082656808706643384 -0.0062858618501476053 0.053604886257914729 -0.0014311987127420959 0.034960940641499592
leaf_weight=42.46570985019207 40.270833238959312 7.0471996963024131 15.537769436836241 10.596417784690855 64.56539960205555 14.798744991421701 19.757708370685577 10.178623750805853 31.068583443760872 29.440704539418221 17.233174160122871 23.230391204357147 8.2634256780147535 136.4856523424387 29.235142931342125 100.27318897843361 39.572292760014534 8.938533276319502 13.372223705053328 66.984429284930229 21.368377894163132 6.8326799869537345 8.0330870449542982 25.501133278012276 8.6473655551671964 59.235605105757713 9.3298072665929777 6.2763817459344891 11.695542380213739 7.6651698350906363
leaf_count=205 190 34 77 50 309 70 97 49 149 139 83 109 39 673 142 482 192 43 64 322 104 33 38 123 42 287 45 30 56 37
internal_value=0.000813322 -0.003197 0.00879757 0.0107157 0.00727898 0.0204382 -4.56294e-05 4.49449e-05 0.0151234 0.0308544 0.00354693 0.00797649 0.0141055 -0.0133412 -0.00149947 3.32997e-05 -0.00494991 0.0046757 0.0119907 0.015774 -0.00279204 -0.0137981 -0.00601513 0.00779049 0.00380278 -0.000523403 0.00541015 0.0169153 0.0253339 0.0139127
internal_weight=893.901 595.304 298.597 283.059 243.022 86.3331 156.689 451.771 41.2472 40.0371 136.932 46.0622 50.9977 143.533 410.524 365.809 176.241 189.568 89.2952 80.3567 85.9338 44.7152 22.8318 42.7343 15.48 136.668 77.4326 34.9669 25.6371 19.3607
internal_count=4313 2885 1428 1351 1162 407 755 2178 198 189 658 217 245 707 1980 1763 852 911 429 386 413 217 108 206 75 660 373 168 123 93
is_linear=0
shrinkage=0.03


Tree=6
num_leaves=31
num_cat=0
split_feature=46 47 47 46 47 44 13 50 23 29 9 18 16 9 30 30 20 12 33 50 6 19 23 12 14 30 13 32 6 29
split_gain=29.9446 20.6812 20.4329 19.9339 24.3809 14.8814 14.4965 10.7794 11.479 10.4177 13.5808 12.3704 13.9242 9.74304 9.62124 9.40595 9.3882 9.03191 11.0583 9.02623 9.72417 8.93373 8.77492 8.40468 8.16051 7.93114 7.92136 7.90031 7.54418 7.15009
threshold=1.4814838171005251 0.33691574633121496 0.36822970211505895 1.6751971244812014 0.33505779504776007 0.23647915571928027 9.5000000000000018 0.033703610301017768 0.15587044507265094 1.1711483001708987 0.22998257726430896 0.22914790362119677 0.026672404259443287 0.2875268161296845 2.5000000000000004 3.5000000000000004 0.31239141523838049 0.47655677795410162 92.500000000000014 0.036082141101360328 0.084711592644453063 0.23239878565073016 0.30384616553783422 0.76253134012222301 0.40106652677059179 1.5000000000000002 29.500000000000004 6.5000000000000009 0.088574629276990904 1.3265725374221804
decision_type=2 2 2 2 2 2 2 2 2 2 2 2 2 2 2 2 2 2 2 2 2 2 2 2 2 2 2 2 2 2
left_child=1 9 3 4 5 6 -2 17 19 -1 22 12 13 -12 -5 28 -16 24 -19 -9 -21 -3 -11 -23 -6 -25 29 -26 -7 -8
right_child=2 21 -4 14 7 15 26 8 -10 10 11 -13 -14 -15 16 -17 -18 18 -20 20 -22 23 -24 25 27 -27 -28 -29 -30 -31
leaf_value=-0.008119336546846892 0.053624119322917697 0.01791755159634249 -0.024147631561369447 0.045692109939977861 -0.023566666225575891 0.0067555409075165497 -0.015479428128434931 -0.014600676424255946 -0.013026112389761845 0.00048567642807394233 0.015815876904196585 0.0020621469841750686 0.032306611441713061 -0.023606135786793398 0.030822667968160931 0.020688877981315131 -0.0071200074491614748 0.037122674697714804 4.8210854854250397e-05 8.9654755648893846e-05 0.040458975864003648 -0.018556656015995172 -0.0162139355487134 0.024897076506949001 -0.0087119687466435791 -0.0096069392686997778 0.037835038156514955 0.026255205614538753 -0.027750671381994552 0.023025014722095703
leaf_weight=106.28802229464054 16.652929544448853 7.1007479578256598 15.36925722658634 17.88957504928112 9.2890320271253604 14.839008718729021 8.1139136999845523 9.1468422412872332 67.201631009578705 179.2722052782774 15.133381381630899 76.516639530658722 34.246149346232414 7.6739584207534781 13.269929185509683 23.419812455773354 9.3443703055381757 16.376491621136669 12.556967735290526 11.118507951498033 9.5324622541666013 107.47276529669762 32.586977809667587 7.2623962312936809 10.968891173601152 20.851108253002167 8.7451872825622541 10.45797725021839 7.9434500485658637 7.2863510996103278
leaf_count=520 77 34 77 83 45 70 38 44 327 860 73 368 163 37 62 109 44 78 60 53 45 534 157 36 53 103 41 50 38 34
internal_value=0.000791577 -0.00310403 0.00851202 0.0103623 0.00704699 0.0196826 0.0326938 -4.14691e-05 -0.00620242 4.59638e-05 0.00257893 0.0100352 0.0204826 0.0020542 0.0296187 0.00771219 0.0154434 0.00988957 0.0216218 0.0090613 0.0198014 -0.0130176 -0.00214002 -0.014768 -0.00144783 -9.31787e-05 0.0166402 0.00869756 -0.00587347 0.0029399
internal_weight=893.927 594.404 299.523 284.153 243.649 87.0007 40.7984 156.649 96.9994 451.717 345.429 133.57 57.0535 22.8073 40.5039 46.2023 22.6143 59.6494 28.9335 29.7978 20.651 142.687 211.859 135.586 30.7159 28.1135 24.1455 21.4269 22.7825 15.4003
internal_count=4313 2885 1428 1351 1162 407 190 755 469 2178 1658 641 273 110 189 217 106 286 138 142 98 707 1017 673 148 139 113 103 108 72
is_linear=0
shrinkage=0.03


Tree=7
num_leaves=31
num_cat=0
split_feature=46 47 47 46 43 28 30 40 6 10 47 13 13 29 9 18 16 17 51 30 51 46 10 46 19 49 21 46 7 16
split_gain=28.2179 20.06 19.4659 18.3913 20.7196 12.4915 11.0532 10.8137 10.7959 10.5381 9.54404 12.1056 10.0583 9.47802 12.2326 10.3015 12.6231 9.20458 8.54582 8.31102 8.22433 8.04566 8.04172 7.93831 7.89269 7.8604 7.72576 7.44924 7.42833 7.42428
threshold=1.4833853244781496 0.33691574633121496 0.36822970211505895 1.691017270088196 0.44052034616470342 0.18396890908479693 5.5000000000000009 69.350002288818374 0.057233849540352828 0.21301901340484622 0.33505779504776007 8.5000000000000018 34.500000000000007 1.1711483001708987 0.22998257726430896 0.22914790362119677 0.026672404259443287 0.22663383185863498 52.500000000000007 2.5000000000000004 17.500000000000004 1.5115121006965639 0.24697575718164447 1.3797141909599306 0.23239878565073016 0.33703784644603735 0.24918647855520251 1.4405668377876284 0.035314904525876052 0.023476219736039642
decision_type=2 2 2 2 2 2 2 2 2 2 2 2 2 2 2 2 2 2 2 2 2 2 2 2 2 2 2 2 2 2
left_child=1 7 3 4 10 25 18 13 -9 -10 11 -2 21 27 17 16 22 20 -7 -5 -15 -13 -16 -18 -3 -6 -11 -1 -25 -12
right_child=2 24 -4 19 5 6 -8 8 9 26 29 12 -14 14 15 -17 23 -19 -20 -21 -22 -23 -24 28 -26 -27 -28 -29 -30 -31
leaf_value=-0.01348754300926034 0.048794423066039753 0.015940893801017739 -0.023713464725197253 0.047863617521348371 0.022855264152140488 -0.003405717173418196 0.017689708523953927 -0.011486676407367268 -0.0035034265780643846 0.044459321478006325 -0.016568471538729465 0.020649106426980372 0.043452802447613029 0.013214208186316726 -0.01355047340653023 0.001142714815473375 0.011931929735920601 -0.016231704443907993 -0.026333536547405664 0.016462049132521382 -0.0037218569203852901 -0.015673128633131382 0.023713970499992004 0.058493275843485106 -0.014354864555733962 -0.0056579214161671344 0.0043821121628698943 0.0072973705384634744 0.014810070047971247 0.015042507327950594
leaf_weight=78.842304050922394 16.483823627233505 7.3505658805370322 15.20199094712734 14.056260839104651 30.85690701007843 91.582675769925117 17.936116546392441 10.121412470936773 9.2507281750440615 15.896504670381548 7.7630154639482489 10.885662436485296 7.3730296641588202 31.686625152826309 13.008077099919321 71.301761329174042 13.354707702994348 39.550464153289795 16.56983357667923 19.124262601137161 121.55467447638512 9.207133933901785 7.2988221496343604 10.614431321620943 136.53096382319927 11.395979702472685 6.2536560893058768 18.480812981724739 6.410539746284484 27.896490812301636
leaf_count=389 75 35 77 64 145 439 85 49 44 75 38 51 34 150 63 343 63 191 80 89 586 43 35 50 682 54 30 89 30 135
internal_value=0.000772925 -0.00297894 0.00832756 0.0101434 0.00725779 0.00125162 -0.00348585 0.000121434 0.0145296 0.0230574 0.0197668 0.0290079 0.0157832 -0.00135832 0.00117358 0.00857397 0.0187743 -0.00352134 -0.00714126 0.0308197 -0.000147192 0.00398006 0.000257285 0.0307013 -0.0126974 0.0151773 0.0338872 -0.00949134 0.0438623 0.0078557
internal_weight=893.84 597.507 296.333 281.131 247.951 168.342 126.089 453.626 41.5223 31.4009 79.6092 43.9496 27.4658 412.103 314.78 121.988 50.6866 192.792 108.153 33.1805 153.241 20.0928 20.3069 30.3797 143.882 42.2529 22.1502 97.3231 17.025 35.6595
internal_count=4313 2904 1409 1332 1179 803 604 2187 198 149 376 203 128 1989 1511 584 241 927 519 153 736 94 98 143 717 199 105 478 80 173
is_linear=0
shrinkage=0.03


Tree=8
num_leaves=31
num_cat=0
split_feature=46 47 48 46 43 48 28 23 30 30 41 29 48 2 5 40 11 48 46 47 26 14 18 26 26 46 47 51 51 48
split_gain=26.6623 23.685 17.2975 18.0098 20.5115 13.3336 13.2533 11.6704 10.9937 10.0747 9.99588 9.57117 8.4703 11.8091 10.7606 11.6573 10.0526 12.3796 12.7314 10.5523 8.67939 8.42372 8.30899 8.28049 8.22196 8.16627 8.14688 7.66079 8.61089 7.58242
threshold=1.4950932264328005 0.33691574633121496 0.38863115012645727 1.691017270088196 0.44052034616470342 0.37161831557750707 0.17929661273956302 0.36038962006568914 5.5000000000000009 2.5000000000000004 11.250000000000002 1.1711483001708987 0.30448834598064428 0.049265578389167793 0.22930754721164706 71.049999237060561 0.22222831845283511 0.32205778360366827 1.3639873862266543 0.32716107368469244 0.074038933962583556 0.37011831998825079 0.22266936302185061 0.066715046763420119 0.068211644887924208 1.4405668377876284 0.31419055163860327 52.500000000000007 16.500000000000004 0.34377256035804754
decision_type=2 2 2 2 2 2 2 2 2 2 2 2 2 2 2 2 2 2 2 2 2 2 2 2 2 2 2 2 2 2
left_child=1 11 3 4 7 6 21 9 27 -2 -11 25 -13 -14 15 16 19 18 -18 20 -15 -6 -21 -5 -10 -1 -22 28 -8 -23
right_child=2 -3 -4 23 5 -7 8 -9 24 10 -12 12 13 14 -16 -17 17 -19 -20 22 26 29 -24 -25 -26 -27 -28 -29 -30 -31
leaf_value=-0.011208707402442255 0.009341440200874726 -0.012654367768827042 -0.0272076143358045 0.003189389787754265 -0.0056969386846725803 -0.020387690524927841 -0.009896919117239401 -0.0068538093018020458 0.040969505986053291 0.046920552685361612 0.006546687484742842 -0.010905260861723722 -0.0089324933008288875 0.025174100493891058 -0.0014481530944640464 0.039910880744679904 0.019947742785760805 0.025903429132672941 -0.021247097630404901 -0.018645169379047956 -0.017478254296259387 0.0058213281135056491 0.014660378472437632 0.038517793269892901 0 0.0087479148791870884 0.010055456493834632 -0.023605704172445698 0.0094143276928209136 0.041913821921553893
leaf_weight=85.959338143467903 18.610466659069061 157.68281801044941 10.644856229424475 8.0742902606725675 7.2938163876533535 20.739139452576637 41.167118594050407 10.134679034352301 8.3614354729652423 24.132946327328685 7.6488739252090445 34.010885447263718 48.22462522983551 21.133606284856796 90.462183907628059 10.976753890514372 13.017623439431192 49.596434861421585 12.026303753256796 26.045956209301949 12.576093569397925 8.3468725532293337 8.1028558909893018 25.54148031771183 8.2998955845832807 22.537886112928391 32.600812718272209 14.19096317887306 39.964399993419647 15.557988628745077
leaf_count=426 88 789 54 37 34 103 196 48 39 111 36 166 231 100 435 51 62 235 57 126 60 39 39 117 39 108 155 69 191 72
internal_value=0.000756934 -0.00263973 0.00864284 0.0102267 0.00707532 0.00151207 0.00481392 0.0218481 -4.94499e-05 0.0276708 0.0377457 0.000756355 0.00312133 0.00462384 0.00701695 0.0111261 0.00909669 0.0173647 5.17894e-05 0.00282826 0.0097723 0.0217764 -0.0105075 0.0304127 0.0216959 -0.00700743 0.00214577 -0.00405166 -0.000367365 0.0301114
internal_weight=893.663 624.954 268.709 258.064 224.449 163.922 143.182 60.527 111.984 50.3923 31.7818 467.271 358.774 324.763 276.539 186.076 175.1 74.6404 25.0439 100.459 66.3105 31.1987 34.1488 33.6158 16.6613 108.497 45.1769 95.3225 81.1315 23.9049
internal_count=4313 3040 1273 1219 1065 782 679 283 534 235 147 2251 1717 1551 1320 885 834 354 119 480 315 145 165 154 78 534 215 456 387 111
is_linear=0
shrinkage=0.03


Tree=9
num_leaves=31
num_cat=0
split_feature=39 48 45 29 1 30 17 33 7 40 15 17 51 5 49 7 41 45 2 1 34 34 7 40 0 41 29 27 48 6
split_gain=14.5203 10.7486 16.3655 11.5067 10.6704 12.0441 10.9981 10.3811 10.1957 9.76008 9.72682 9.25816 9.21911 8.77024 8.38868 8.20514 7.92356 7.68024 7.48021 7.41971 9.8579 7.98273 8.85011 7.13236 6.95814 6.81668 7.13694 6.81497 6.7447 6.68259
threshold=89.850002288818374 0.38863115012645727 0.38832573592662817 1.1208651065826418 0.096018292009830489 4.5000000000000009 0.30005536973476415 817.50000000000011 0.031555239111185081 71.250000000000014 0.021789129823446277 0.15011737495660785 20.500000000000004 0.22501540929079059 0.32974807918071752 0.013536417856812479 9.7500000000000018 0.33421462774276739 0.045120188966393478 0.062535550445318236 75.500000000000014 65.500000000000014 0.050568981096148498 67.649997711181655 96.221286773681655 15.550000190734865 1.3639448881149294 0.027980924583971504 0.33725796639919287 0.095849398523569121
decision_type=2 2 2 2 2 2 2 2 2 2 2 2 2 2 2 2 2 2 2 2 2 2 2 2 2 2 2 2 2 2
left_child=1 2 3 24 5 6 9 29 14 11 -10 -5 -4 -9 15 -7 -16 -18 -12 -20 21 22 -21 -2 -1 -13 -27 28 -25 -6
right_child=23 -3 12 4 7 8 -8 13 10 -11 18 25 -14 -15 16 -17 17 -19 19 20 -22 -23 -24 27 -26 26 -28 -29 -30 -31
leaf_value=-0.0058144079408204673 0.030021302217831964 -0.027875853387590264 0.0038906191938369423 0.0182016683482671 -0.012563283864326135 0.027359793591044086 0.021086094474623097 0.02500516132418339 -0.0036979341321132474 0.028815020564737684 -0.0063782624717472636 -0.0055309563321109144 0.03824199564305427 -0.0064716041564693381 -0.022761311552912944 -0.002045396658161034 -0.013615358991600882 0.023563468427934255 0.047568512805953117 0.030266042087019704 0.040280135481285027 -0.012044335133448086 -0.0068927283497086968 0.043685265985176899 -0.025463529691900223 -0.0015450623705582723 0.029914032885273559 -0.0023576351104271798 0.0014559223550137542 -0.0010637873605219774
leaf_weight=112.05957144498825 18.870073452591896 11.48963640630245 13.609091028571131 17.280265331268311 98.177835911512375 15.766960039734839 19.971823200583458 17.156474456191066 15.454402297735212 8.2932369560003263 6.8446026891469947 232.68776255846024 14.385939851403235 13.490974754095076 16.612134739756584 16.966018632054329 8.9721850156784075 9.0628511458635312 11.017011895775793 18.012468591332439 14.210676863789557 9.307306692004202 7.7362787425518027 6.3688933998346311 18.298306927084923 16.855778351426128 9.3797630220651609 23.607483461499214 6.6003324240446091 84.939660534262657
leaf_count=551 90 59 63 82 477 75 97 81 74 39 33 1124 66 65 81 81 44 43 52 86 67 45 37 30 91 81 44 112 31 412
internal_value=0.000737491 -0.000252447 0.000162947 -0.000638331 0.000953975 0.00355397 0.000113352 -0.00455705 0.0104825 -0.00142239 0.0174858 -0.00243638 0.0223048 0.0113351 0.00174698 0.0124653 -0.00840276 0.00524511 0.0223674 0.0257065 0.0199388 0.010763 0.0192052 0.0154657 -0.00875682 -0.00388424 0.0103325 0.00731735 0.0239439 -0.0072721
internal_weight=893.486 838.039 826.549 798.554 668.196 454.432 304.469 213.765 149.963 284.497 82.5827 276.204 27.995 30.6474 67.3801 32.733 34.6472 18.035 67.1283 60.2837 49.2667 35.0561 25.7487 55.4468 130.358 258.923 26.2355 36.5767 12.9692 183.117
internal_count=4313 4050 3991 3862 3220 2185 1467 1035 718 1370 394 1331 129 146 324 156 168 87 320 287 235 168 123 263 642 1249 125 173 61 889
is_linear=0
shrinkage=0.03


Tree=10
num_leaves=31
num_cat=0
split_feature=46 47 47 43 46 12 30 14 1 19 11 16 19 40 46 26 7 11 11 8 37 16 15 14 19 19 12 15 48 2
split_gain=35.5978 23.7334 20.133 11.8648 16.3651 14.8899 12.069 11.902 11.7088 10.8555 9.13456 8.70372 9.46456 11.9957 14.5928 10.6387 8.95082 8.61247 9.01855 10.4082 13.2213 9.26796 8.39417 8.44172 8.34424 8.09288 9.83266 7.63795 7.52695 11.1177
threshold=1.4987838864326479 0.36822970211505895 0.34034761786460882 0.44052034616470342 1.691017270088196 0.59137290716171276 4.5000000000000009 0.41529780626297003 0.032345248386263854 0.30382379889488226 0.17911747097969058 0.050043178722262389 0.32702317833900457 63.649999618530281 1.4189683794975283 0.084171712398529067 0.023032714612782005 0.30028353631496435 0.21422712504863742 0.21411960572004321 107.00000000000001 0.042276712134480483 0.041105948388576515 0.37214058637619024 0.32918702065944677 0.2881950587034226 0.81365740299224865 0.032427821308374412 0.36901436746120458 0.054396653547883041
decision_type=2 2 2 2 2 2 2 2 2 2 2 2 2 2 2 2 2 2 2 2 2 2 2 2 2 2 2 2 2 2
left_child=2 3 8 5 6 9 10 -6 -1 -2 -5 12 17 -14 16 -16 -15 18 19 20 25 22 23 -20 27 -10 -27 -12 29 -8
right_child=1 -3 -4 4 7 -7 28 -9 11 -11 24 -13 13 14 15 -17 -18 -19 21 -21 -22 -23 -24 -25 -26 26 -28 -29 -30 -31
leaf_value=0.024900384745485511 0.027306375304732983 -0.029102908690429467 -0.015503506919083287 0.018117260755723334 0.0051712599730200986 0.043115296682208253 0.043929024204811595 0.040116724514883205 -0.025929762980384991 -0.0041313684366713031 -0.0077381155000013019 0.011566354946305202 -0.0060223260583097231 0.019267770786253073 0.044884537510535102 0.0070103682515798406 -0.0096710670429305309 -0.01672730880784476 0.016694327073533036 -0.026484968525538308 0.030631376288387312 0.025164439656938622 -0.023458604739850251 -0.0027537929355515257 -0.02381020785625599 0.0058723281018043519 -0.028579937249527943 0.014225120257636083 -0.010718028594724828 0.009727030311935515
leaf_weight=13.410318136215208 18.105204865336418 13.092835322022436 116.82287737727165 14.744608789682387 15.871026188135145 20.043321922421455 11.430719912052153 19.919063284993172 17.981097519397736 19.871233746409416 50.917200669646263 35.658045753836632 64.452889263629913 13.714064091444014 14.791119411587717 12.498010352253912 26.772285491228104 57.643895193934441 22.366268441081047 28.348022893071175 7.3189480453729621 11.076982647180555 14.012909427285193 142.12810093164444 18.88459999859333 31.466596812009811 8.6751526296138746 18.63300034403801 7.9901063591241828 30.736464962363243
leaf_count=65 84 68 588 69 71 92 53 90 87 93 245 171 312 66 70 60 129 283 107 138 35 53 68 688 91 152 42 89 39 144
internal_value=-0.000489433 0.00884174 -0.00429905 0.0109671 0.00724357 0.022751 0.00290111 0.0252228 -0.00176532 0.0111341 -0.00296764 -0.00251839 -0.00360496 0.00318359 0.0119203 0.0284527 0.00032347 -0.00624319 -0.00405392 -0.0116099 -0.00484206 -0.000266719 -0.00198456 -1.5475e-05 -0.00666313 -0.00977687 -0.00205049 -0.00171452 0.0148252 0.0198362
internal_weight=899.377 260.239 639.138 247.147 189.127 58.0198 153.337 35.7901 522.315 37.9764 103.179 508.904 473.246 132.228 67.7755 27.2891 40.4863 341.018 283.374 93.7898 65.4418 189.584 178.507 164.494 88.4348 58.1228 40.1417 69.5502 50.1573 42.1672
internal_count=4342 1228 3114 1160 891 269 730 161 2526 177 494 2461 2290 637 325 130 195 1653 1370 454 316 916 863 795 425 281 194 334 236 197
is_linear=0
shrinkage=0.03


Tree=11
num_leaves=31
num_cat=0
split_feature=46 47 47 28 50 1 12 4 46 37 39 2 28 16 40 1 46 28 4 26 16 49 1 29 46 50 39 47 23 12
split_gain=33.5273 22.5411 19.1465 11.0737 11.3614 10.9713 9.4371 8.34176 9.9775 11.3821 9.13234 9.29677 8.7873 8.18369 8.76213 7.75855 7.94089 7.50292 7.41623 13.3675 7.2556 7.44586 9.24193 7.22488 9.19546 9.00582 8.7829 7.09114 6.48936 11.2905
threshold=1.4987838864326479 0.36822970211505895 0.34034761786460882 0.18002770096063617 0.039383651688694961 0.032345248386263854 0.45867486298084265 0.04765960946679116 1.7167790532112124 105.50000000000001 87.350002288818374 0.068849083036184325 0.21508502215147021 0.050043178722262389 69.350002288818374 0.07655032724142076 1.4033691287040713 0.26672123372554785 0.050869019702076919 0.077273953706026091 0.020425546914339069 0.3325460702180863 0.080421824008226409 1.2418297529220583 1.4405668377876284 0.038969658315181739 54.199998855590827 0.32657898962497717 0.21240601688623431 0.41486424207687383
decision_type=2 2 2 2 2 2 2 2 2 2 2 2 2 2 2 2 2 2 2 2 2 2 2 2 2 2 2 2 2 2
left_child=2 3 5 6 7 -1 -2 8 9 10 11 12 -5 14 23 -16 -17 -14 19 -15 -4 -22 -23 24 27 28 -25 -7 -26 -30
right_child=1 -3 20 4 -6 13 -8 -9 -10 -11 -12 -13 17 18 15 16 -18 -19 -20 -21 21 22 -24 26 25 -27 -28 -29 29 -31
leaf_value=0.023973445935357815 0.0056195737921857954 -0.02866969921134635 -0.035870371888978216 0.02868611881827814 -0.0071384329057582463 -0.0080353372873590324 0.031196220129516342 -0.012430948128748944 0.036772912990568479 0.025586967272250662 0.025372784106002341 -0.011036717481958737 -0.0093905006411022889 0.043281581457846441 -0.0075091974580906318 0.0033536325238014801 0.035243398871013944 0.020309133825348973 -0.0088413900778505569 0 -0.019231951999362576 -0.01672039169824768 0.0099342375398735316 0.02418159927963635 -0.0071621102453575877 -0.025799049609457714 -0.0028300875184611501 -0.022894361256992322 0.039914919718644228 -0.002646479945057159
leaf_weight=13.547488912940024 20.961275547742844 12.909845173358915 12.802206322550772 13.594778478145598 39.349074378609657 80.144380256533623 36.264672115445137 11.957350865006445 13.317139834165571 30.935239672660828 15.143487274646757 34.177894562482834 21.762540653347969 10.945447251200678 15.398078009486197 15.382816702127458 12.505932673811911 10.53119385242462 10.878603875637053 14.000168919563292 58.303757786750793 21.558062300086021 23.337373182177544 10.316749483346937 12.90260489284992 7.1672910749912253 251.15253089368343 46.406858906149864 10.397689566016199 10.695206537842749
leaf_count=65 97 68 65 63 187 396 165 56 59 146 70 163 104 52 73 73 59 50 52 67 295 109 119 49 62 35 1209 232 50 52
internal_value=-0.000471673 0.00856651 -0.00417864 0.0106183 0.00706564 -0.0017127 0.0221109 0.0107893 0.0128652 0.0100601 0.00478601 0.000608834 0.00936486 -0.00244598 -0.00350354 0.00920817 0.0184306 0.000568783 0.0111774 0.0199695 -0.0151496 -0.0122451 -0.00291764 -0.00480754 -0.00965045 0.00259011 -0.00167051 -0.0136327 0.00918446 0.0191232
internal_weight=898.748 260.904 637.843 247.995 190.769 521.842 57.2259 151.42 139.462 126.145 95.2099 80.0664 45.8885 508.294 472.47 43.2868 27.8887 32.2937 35.8242 24.9456 116.001 103.199 44.8954 429.183 167.714 41.1628 261.469 126.551 33.9955 21.0929
internal_count=4342 1228 3114 1160 898 2526 262 711 655 596 450 380 217 2461 2290 205 132 154 171 119 588 523 228 2085 827 199 1258 628 164 102
is_linear=0
shrinkage=0.03


Tree=12
num_leaves=31
num_cat=0
split_feature=46 47 47 43 46 31 14 34 5 28 2 16 51 2 20 16 0 34 16 0 15 48 46 8 6 46 46 42 47 21
split_gain=31.5717 21.4116 18.245 10.8448 14.8012 11.2807 10.7306 9.35503 9.33649 9.23764 8.75984 7.92047 8.826 9.3007 8.28537 8.18519 7.88811 7.77584 11.8843 7.5003 7.43201 7.83413 9.92719 10.0642 9.45601 8.67016 8.2582 13.0457 15.4245 8.66374
threshold=1.4987838864326479 0.36822970211505895 0.34034761786460882 0.44052034616470342 1.691017270088196 1.0000000180025095e-35 0.41529780626297003 72.500000000000014 0.29798580706119543 0.21508502215147021 0.046397846192121513 0.050043178722262389 8.5000000000000018 0.060738204047083862 0.33177842199802404 0.027240471914410595 95.629039764404311 64.500000000000014 0.032421302050352103 93.795696258544936 0.052701013162732131 0.3336158692836762 1.4033691287040713 0.31592582166194921 0.10517395287752153 1.4716258049011233 1.4382324218750002 0.72406351566314708 0.3168283104896546 0.22033821046352389
decision_type=2 2 2 2 2 2 2 2 2 2 2 2 2 2 2 2 2 2 2 2 2 2 2 2 2 2 2 2 2 2
left_child=2 3 8 17 5 9 -6 -8 11 10 -5 12 13 -1 15 -15 -7 -2 -19 -12 21 26 -23 24 25 -24 -14 28 -28 -30
right_child=1 -3 -4 4 6 16 7 -9 -10 -11 19 -13 20 14 -16 -17 -18 18 -20 -21 -22 22 23 -25 -26 -27 27 -29 29 -31
leaf_value=-0.0069459710100257055 0.032457174734148365 -0.028246158462561424 -0.014813340468509286 0.034064245007705725 0.0046671307695242137 0.01962522568779447 0.051170265892520057 0.0068863898310569842 -0.017668288673251036 -0.011223822158633141 0.0091213842005819831 0.012759107762218802 -0.0032789027001742634 0.0042958305137144291 -0.0037318340025196978 0.042234622952881121 -0.0099506719988852223 -0.005306113605399297 0.032009728633481484 -0.018502912117461464 0.016222297915408065 -0.022897233315906634 0.01075646721557196 -0.034048050306264711 -0.01963807819675966 -0.014976284691252915 -0.01316859239502618 -0.015562593750036161 0.015245955278481315 0.056001034418967345
leaf_weight=17.852953523397446 28.70810441672802 12.72807928919792 115.21747550368309 7.594844013452529 15.951965183019636 41.230512484908104 13.613513052463533 6.6909214407205573 29.858602479100227 56.237117528915405 27.695767015218735 35.682353749871254 226.28233931958675 8.2291788160800987 9.3637809902429563 14.202061474323271 9.3152162283658964 17.93850460648537 12.067583829164503 11.783915624022482 16.00713936984539 37.539326310157776 47.324818626046181 8.3216406106948835 17.967944696545601 14.602249503135679 7.4334040135145214 10.589165031909941 10.994542941451074 9.0969938039779645
leaf_count=86 131 68 588 35 71 192 60 30 150 273 130 169 1097 40 45 67 44 83 55 56 77 185 231 41 87 70 35 51 52 43
internal_value=-0.000455413 0.00829855 -0.00406202 0.0102795 0.00672144 0.00258433 0.0236968 0.037656 -0.00165931 -0.00309589 0.00661436 -0.000649799 -0.00172842 0.0100808 0.0196074 0.0291577 0.0140582 0.0214696 0.0102012 0.000585613 -0.00319684 -0.00403684 -0.0101706 -0.00454217 -0.00106747 0.00452334 -0.00108645 0.0116428 0.0223402 0.0355503
internal_weight=898.122 261.556 636.566 248.828 190.114 153.857 36.2564 20.3044 521.348 103.312 47.0745 491.49 455.808 49.648 31.795 22.4312 50.5457 58.7142 30.0061 39.4797 406.16 390.152 125.756 88.2167 79.895 61.9271 264.396 38.1141 27.5249 20.0915
internal_count=4342 1228 3114 1160 891 730 161 90 2526 494 221 2376 2207 238 152 107 236 269 138 186 1969 1892 614 429 388 301 1278 181 130 95
is_linear=0
shrinkage=0.03


Tree=13
num_leaves=31
num_cat=0
split_feature=39 11 47 43 34 40 28 16 15 11 15 4 50 6 45 16 16 27 37 45 21 47 48 4 23 50 3 38 47 42
split_gain=15.2906 12.4678 11.8659 18.3161 10.9348 9.92047 9.91999 10.4125 12.5366 13.2652 10.3374 9.86938 9.85789 9.25765 8.2485 8.8957 12.9011 10.0816 8.04976 8.18307 7.80196 7.70343 14.2291 12.951 7.59099 7.35453 7.90967 7.75116 6.70548 9.36718
threshold=89.450000762939467 0.37300653755664831 0.36822970211505895 0.5042562484741212 72.500000000000014 67.649997711181655 0.17589969187974933 0.042276712134480483 0.024573798291385177 0.22367120534181598 0.046456187963485725 0.03957027010619641 0.041165964677929885 0.046225070953369148 0.34048812091350561 0.033186806365847595 0.040407085791230209 0.031703801825642593 105.50000000000001 0.34203425049781805 0.19157987087965014 0.33260272443294531 0.3459534496068955 0.040312422439455993 0.23669467866420749 0.038556322455406196 0.0642242766916752 0.55000001192092907 0.32683563232421881 0.71169370412826549
decision_type=2 2 2 2 2 2 2 2 2 2 2 2 2 2 2 2 2 2 2 2 2 2 2 2 2 2 2 2 2 2
left_child=1 2 3 6 24 -2 14 12 -9 11 28 -10 18 -14 15 17 20 -1 -8 -20 -17 -16 -23 -24 -5 26 -7 -28 -11 -30
right_child=5 -3 -4 4 -6 25 7 8 9 10 -12 -13 13 -15 21 16 -18 -19 19 -21 -22 22 23 -25 -26 -27 27 -29 29 -31
leaf_value=0.0026791719646760974 0.029027371319321319 -0.018661151296553248 -0.026231123328927797 0.050270196053030854 -0.0043842430977148825 -0.012851485505772337 -0.004796678136698135 -0.010483912405739622 0.024682170902370244 0.053928515441455438 -0.00539568418047721 -0.016708748625996205 0.0061671742465567257 -0.022071411647981015 0.028988783425273074 0.047415245064441315 -0.0039675945863205508 -0.022736820379626311 -0.0039407193506635725 0.014595974360804871 0.0055382448125834895 -0.01472716334627763 0.032553719677673995 -0.0094695711954383942 0.0085555490107296923 -0.018023498017910599 0.0043034789411067051 0.037868977898478096 -0.0027742401404637915 0.042196555976402199
leaf_weight=33.959082439541817 22.704434171319008 35.614590838551521 15.11943833529949 11.487565279006963 8.1890463680028898 8.3801768124103528 374.97314594686031 23.762197494506836 6.7771832644939449 10.214734658598902 6.6337870508432379 14.552542492747305 12.853799685835837 46.018718376755714 19.513875395059586 9.0610475242137927 22.605963245034218 22.633373752236366 41.67670151591301 42.212489947676659 7.2911244481801978 16.839841082692146 19.460211515426639 9.1205153316259366 6.5629737377166739 9.0730238258838636 14.276994600892069 10.519253998994825 7.7312379330396634 7.6249363571405411
leaf_count=166 107 176 81 50 37 40 1829 115 33 48 32 70 63 226 89 43 109 110 204 200 35 82 90 43 30 43 67 49 38 37
internal_value=-0.000440309 -0.00154175 -0.000752331 -0.000224764 0.023942 0.0134631 -0.00109661 -0.00288389 0.00731595 0.0152916 0.0271595 -0.00297387 -0.00442076 -0.0158809 0.00549761 -0.000117865 0.0107439 -0.00767785 -0.00291581 0.00543122 0.0302248 0.0136599 0.00655935 0.019226 0.0364272 0.00458656 0.0111602 0.019517 0.0355469 0.0206784
internal_weight=897.444 832.49 796.876 781.756 26.2396 64.9539 755.517 595.031 77.2966 53.5344 32.2047 21.3297 517.735 58.8725 160.485 95.5506 38.9581 56.5925 458.862 83.8892 16.3522 64.9344 45.4206 28.5807 18.0505 42.2494 33.1764 24.7962 25.5709 15.3562
internal_count=4342 4036 3860 3779 117 306 3662 2895 373 258 155 103 2522 289 767 463 187 276 2233 404 78 304 215 133 80 199 156 116 123 75
is_linear=0
shrinkage=0.03


Tree=14
num_leaves=31
num_cat=0
split_feature=46 43 12 19 41 4 15 19 20 33 39 46 34 26 13 27 10 32 10 50 28 8 50 29 29 15 4 27 16 8
split_gain=28.8587 12.5138 13.2589 10.3859 11.5062 12.1623 12.1104 10.0493 9.21051 14.8702 9.20115 9.20015 9.11608 9.00581 8.59407 8.30649 8.07222 10.3135 7.8311 7.62754 7.83196 7.34057 7.21806 7.21488 11.866 6.9232 6.85884 9.93719 6.83849 6.20186
threshold=1.4987838864326479 0.44052034616470342 0.59137290716171276 0.32702317833900457 8.8499999046325701 0.034176174551248557 0.032688643783330924 0.30382379889488226 0.29047234356403356 472.50000000000006 88.049999237060561 1.5421288013458254 70.500000000000014 0.096369851380586638 6.5000000000000009 0.027566292323172096 0.35190357267856603 6.5000000000000009 0.23781315982341769 0.039635967463254936 0.18338254094123843 0.31871566176414495 0.033314935863018043 1.3954591751098635 1.1184738278388979 0.025525105185806755 0.03362629562616349 0.041600106284022338 0.022865190170705322 0.32972878217697149
decision_type=2 2 2 2 2 2 2 2 2 2 2 2 2 2 2 2 2 2 2 2 2 2 2 2 2 2 2 2 2 2
left_child=3 2 7 4 -1 10 8 12 9 -7 13 -3 -2 -6 -10 -12 29 -18 -15 23 -21 -8 -9 24 -13 -26 28 -28 -27 -5
right_child=1 11 -4 16 5 6 21 22 14 -11 15 19 -14 18 -16 -17 17 -19 -20 20 -22 -23 -24 -25 25 26 27 -29 -30 -31
leaf_value=-0.011397244101023489 0.042292638043908967 -0.0075849781361141417 0.038685165636369638 0.0016138036417147764 -0.014132424071556647 -0.027403313716088933 0.0013770485373067044 0.01639082557646572 0.0069111626696512331 0.023413556739447873 0.030346024433949959 -0.0043515282411549913 0.00080841757820344418 -0.0086096929554451591 0.040766475523082754 -0.008911646987885255 4.2462588075460887e-05 0.048684618960651252 0.022750107899463436 0.018101875882798348 -0.013699111546650176 -0.027712231772402746 -0.018651681080355184 -0.00014935575921318445 0.033662262609618437 0.024436346073857605 0.039324781370501424 -0.0026536922800871328 -0.01024375769755009 -0.025202720026486748
leaf_weight=210.78569594025612 10.145312264561655 44.62457250058651 20.825108200311661 154.38436239957809 102.63227413594723 8.4029229730367678 43.696313768625259 7.6044116467237499 11.874095633625986 10.543984919786451 9.4591424316167849 20.155684426426888 8.5315590947866422 15.612855985760691 16.705348744988441 8.3000147491693479 8.527565658092497 6.3673591911792746 11.635425820946692 8.6486908346414548 24.230308815836906 8.4645012319087964 12.800819724798201 36.358886808156967 25.930806696414948 6.6241468638181713 13.845008328557016 7.4313634485006324 14.547099649906157 7.1687063425779334
leaf_count=1042 46 215 93 749 510 42 212 35 57 51 46 96 39 77 80 40 42 31 57 39 117 42 60 171 119 31 64 35 68 36
internal_value=-0.000422637 0.00792745 0.0198663 -0.00388366 -0.00626266 -0.00185237 0.00619881 0.00908623 0.0169985 0.000557204 -0.0073038 0.004306 0.0244231 -0.0100867 0.0274603 0.0124214 0.002285 0.0226853 0.00505962 0.00770531 -0.00500231 -0.00374775 -0.00536668 0.0110758 0.0156526 0.0215485 0.0135093 0.0251344 0.00115219 0.000266905
internal_weight=896.864 262.304 59.9072 634.561 458.113 247.327 99.6872 39.0821 47.5264 18.9469 147.64 202.397 18.6769 129.881 28.5794 17.7592 176.448 14.8949 27.2483 157.772 32.879 52.1608 20.4052 124.893 88.5341 68.3784 42.4476 21.2764 21.1712 161.553
internal_count=4342 1228 273 3114 2256 1214 484 180 230 93 730 955 85 644 137 86 858 73 134 740 156 254 95 584 413 317 198 99 99 785
is_linear=0
shrinkage=0.03


Tree=15
num_leaves=31
num_cat=0
split_feature=46 5 43 10 5 10 0 37 13 10 46 1 39 49 14 4 13 20 43 14 28 30 39 43 23 29 28 41 26 10
split_gain=23.8396 14.0655 11.1624 10.9212 14.755 10.9496 10.2729 10.2103 10.0461 10.3296 9.68929 14.0873 8.24504 10.4903 8.17884 8.1277 7.9903 7.90357 8.42364 7.60807 7.27154 8.03122 7.08266 7.05852 6.96492 9.61509 6.80099 10.5197 8.65819 7.58051
threshold=1.5399549007415774 0.26531636714935308 0.45438243448734289 0.22600805014371875 0.19071242958307269 0.2240092679858208 93.223579406738295 100.50000000000001 23.500000000000004 0.28550420701503759 1.3768342733383181 0.087384700775146498 86.850002288818374 0.31007675826549536 0.42263053357601171 0.027067795395851139 21.500000000000004 0.31330886483192449 0.41060560941696173 0.45492681860923773 0.24393189698457721 3.5000000000000004 85.350002288818374 0.44937102496623998 0.31414473056793218 1.2883665561676028 0.22810352593660357 9.5500001907348651 0.085619233548641219 0.32153299450874334
decision_type=2 2 2 2 2 2 2 2 2 2 2 2 2 2 2 2 2 2 2 2 2 2 2 2 2 2 2 2 2 2
left_child=1 3 6 5 8 7 -2 -1 9 14 -9 17 13 -6 -5 -13 26 -12 -19 22 21 -14 -3 -15 25 -8 27 28 -4 -28
right_child=2 19 16 4 12 -7 24 10 -10 -11 11 15 20 23 -16 -17 -18 18 -20 -21 -22 -23 -24 -25 -26 -27 29 -29 -30 -31
leaf_value=-0.0069106219794953828 0.03870324940534859 -0.0039393362795477104 0.01776970062809843 0.016350893205825542 0.024360473555974513 -0.016501494414651468 0.039770575232501035 -0.0082114874348667849 -0.013669109164729527 0.0035241993681070704 0.008557200640676001 -0.022541559170577926 -0.011528134535743705 -0.0016610415318204961 0.051130330581721881 0.0083327491430819633 -0.0045424983486972575 0.061986005277747322 0.020031172839904687 -0.024727733027350117 0.039068716081977921 0.024176031924551221 -0.028476137320457496 -0.027957770300812788 -0.013566312714680765 -0.0036931688268010674 -0.0062682434232779662 0.03115643426714116 -0.017221789210865559 0.022195228703151611
leaf_weight=140.48384255170822 19.42714712023735 82.623790442943573 14.608448848128321 13.275748163461687 12.538262441754339 54.226927101612091 8.7486522644758278 31.222496211528778 6.682928889989852 14.692977786064146 19.681065231561661 11.60606709122658 10.893048152327543 201.55456502735615 13.320698589086531 18.633649036288261 45.937745109200478 6.527773097157481 14.325910329818724 28.924562618136406 7.5456602424383155 9.8785224258899671 11.279987797141073 8.6496902257204038 7.4692962169647208 8.2387625128030759 29.987990021705627 25.407986253499985 9.7500971257686597 10.558175623416899
leaf_count=688 87 411 67 63 60 265 40 153 32 70 95 56 52 989 62 90 221 31 68 147 36 47 56 43 35 38 142 115 46 50
internal_value=0.000163292 -0.00228395 0.0098925 -0.00036847 0.00366879 -0.00444105 0.0228989 -0.00168108 0.0187336 0.0242129 0.00550435 0.0116062 0.00072136 -0.00123551 0.0350459 -0.00381111 0.00555613 0.0229587 0.0354683 -0.0114842 0.0156823 0.00571364 -0.00717157 -0.00287748 0.00925854 0.0195742 0.0107027 0.0180237 0.00357755 0.00146334
internal_weight=898.702 718.568 180.134 595.74 299.032 296.708 43.8839 242.481 47.9724 41.2894 101.997 70.7745 251.06 222.743 26.5964 30.2397 136.25 40.5347 20.8537 122.828 28.3172 20.7716 93.9038 210.204 24.4567 16.9874 90.3127 49.7665 24.3585 40.5462
internal_count=4355 3514 841 2900 1454 1446 200 1181 227 195 493 340 1227 1092 125 146 641 194 99 614 135 99 467 1032 113 78 420 228 113 192
is_linear=0
shrinkage=0.03


Tree=16
num_leaves=31
num_cat=0
split_feature=46 48 47 46 29 1 17 9 47 41 1 21 4 46 46 45 46 46 8 20 20 48 15 28 19 17 47 37 48 39
split_gain=22.4296 24.6326 20.1724 14.2443 11.2502 11.355 13.3754 11.2641 10.8199 10.7036 9.06655 12.5202 9.2689 8.8463 7.79916 14.8338 9.32008 15.7034 9.91794 7.7805 10.018 7.53504 7.79676 7.48008 7.34726 7.29015 7.22376 7.20618 9.61286 8.15099
threshold=1.5399549007415774 0.37019245326519018 0.34082834422588354 1.7443563342094424 1.1348168253898623 0.096018292009830489 0.15011737495660785 0.22736185789108279 0.33723719418048864 8.6500000953674334 0.084240097552537932 0.23051993548870089 0.038337027654051788 1.4414205551147463 1.4189683794975283 0.33588893711566931 1.3688122630119326 1.3459765911102297 0.22456374019384387 0.28265570104122167 0.29672275483608251 0.31711079180240637 0.023591862991452221 0.22587393224239352 0.29114888608455664 0.22921748459339145 0.32474482059478765 103.50000000000001 0.36760698258876806 76.250000000000014
decision_type=2 2 2 2 2 2 2 2 2 2 2 2 2 2 2 2 2 2 2 2 2 2 2 2 2 2 2 2 2 2
left_child=2 8 4 -3 13 6 -6 14 -2 -10 11 12 -9 21 16 -16 17 -8 -19 -7 25 22 -1 -11 -12 -21 -26 -4 29 -29
right_child=1 3 27 -5 5 19 7 10 9 23 24 -13 -14 -15 15 -17 -18 18 -20 20 -22 -23 -24 -25 26 -27 -28 28 -30 -31
leaf_value=-0.01999926048096248 0.027341296667977532 -0.016613822995378665 -0.016319043091962675 0.01949637405671625 0.028820981349129599 -0.017698284451687793 -0.0087871339469519343 0.027352383943082592 -0.0035665819249479417 0.028174022139032601 -0.0047099724656651364 -0.0034715897329363407 -0.0041255307046843548 0.0049154692514173362 0.029324675097013846 -0.0022493780796443989 -0.017170852343864524 0.043232564022287596 -0.00075254423663781119 0.031837336512767739 -0.0048936184606677233 -0.020480182723739099 0.013384981581508413 0.0033878881601474373 0.043196019217650171 -0.0025922347643297645 0.011699153322387081 -0.0065431377899032982 -0.02920104668418504 0.024074739768031511
leaf_weight=9.5944830924272555 50.180668741464615 39.224018678069115 104.46809107065201 12.062738522887228 19.785512208938599 30.452545210719109 42.143723711371422 27.98598325252533 33.01375737786293 27.712161794304848 6.4609294384717932 56.715191230177879 11.421311751008032 30.626674070954323 17.753602877259254 46.152796655893326 41.745290234684944 9.5944075584411639 7.9965036213397971 11.968990936875345 102.49938936531544 50.74704647064209 14.516445428133009 18.454950258135796 15.372957035899164 9.2798292785882932 12.858604729175566 17.262928858399395 7.5106206536293021 12.773427680134771
leaf_count=49 225 194 537 55 92 150 204 132 155 125 31 273 53 147 84 219 205 46 39 57 498 259 73 87 72 46 61 86 38 63
internal_value=0.00016332 0.00958326 -0.00221571 -0.00788151 0.000286402 0.00227868 0.00553201 0.00387958 0.0165262 0.00939795 0.0104235 0.00554174 0.0183158 -0.00851788 -0.00131892 0.00681564 -0.00647278 0.00113845 0.0241921 -0.00437106 -0.00096383 -0.014026 -0.000107304 0.0185796 0.023373 0.0172931 0.0297925 -0.0122998 -0.00094493 0.00678542
internal_weight=898.336 180.648 717.687 51.2868 575.672 470.188 315.987 296.201 129.362 79.1809 130.815 96.1225 39.4073 105.485 165.386 63.9064 101.48 59.7346 17.5909 154.201 123.748 74.858 24.1109 46.1671 34.6925 21.2488 28.2316 142.015 37.547 30.0364
internal_count=4355 841 3514 249 2790 2262 1511 1419 592 367 622 458 185 528 797 303 494 289 85 751 601 381 122 212 164 103 133 724 187 149
is_linear=0
shrinkage=0.03


Tree=17
num_leaves=31
num_cat=0
split_feature=46 48 46 5 9 42 17 1 37 3 17 51 11 8 10 27 1 10 34 5 27 0 33 44 1 11 9 33 9 20
split_gain=21.0866 23.0668 13.4853 13.0616 10.7382 10.5335 9.76092 9.27538 8.97535 8.55385 8.55373 13.7137 8.66748 8.50311 9.19816 8.39304 17.3608 7.8835 7.5467 7.42639 9.85123 6.98075 6.90956 9.51143 9.0753 6.44836 9.8016 6.37078 7.51844 6.30667
threshold=1.5399549007415774 0.37019245326519018 1.7443563342094424 0.26531636714935308 0.22736185789108279 0.73162749409675609 0.22502114623785022 0.10942822694778444 100.50000000000001 0.11124862357974054 0.25165948271751409 34.500000000000007 0.30129441618919378 0.22508277744054797 0.22738043963909152 0.032617561519145973 0.08838874846696855 0.27020621299743658 81.500000000000014 0.26180927455425268 0.038225928321480758 95.059127807617202 630.00000000000011 0.19266534596681598 0.07634975761175157 0.20885375887155536 0.22452560067176822 92.500000000000014 0.25284127891063696 0.30319452285766607
decision_type=2 2 2 2 2 2 2 2 2 2 2 2 2 2 2 2 2 2 2 2 2 2 2 2 2 2 2 2 2 2
left_child=3 -2 -3 4 6 7 8 10 22 -9 11 12 18 14 21 16 27 -16 -6 20 -12 -10 -1 -24 -25 -8 -27 -13 -29 -17
right_child=1 2 -4 -5 5 -7 25 9 13 -11 19 15 -14 -15 17 29 -18 -19 -20 -21 -22 -23 23 24 -26 26 -28 28 -30 -31
leaf_value=-0.0092015762875614204 0.015960532850357308 -0.01624128550550261 0.018848243634475761 -0.01105719553283425 0.034197918961734942 -0.020982356142466789 -0.027637083938481483 -0.017052135154502771 -0.00052788706085633321 0.014336966197114238 -0.0096894542616172176 0.046236268895683406 -0.0030449903012566789 -0.0081963847837998125 0.034691564727766314 -0.021746245086649438 -0.017577206819913902 0.00042042558019186654 0 0.02812268757268117 0.017827907088230021 0.026495209399195158 0.025449906894022514 -0.032972460421675287 0.0054087937242174458 0.003559555216006492 -0.020626399069980733 0.032131008843242582 -0.0080249718279706683 0.0074782462678297437
leaf_weight=120.25643303990364 130.02118228375912 38.947193920612335 12.136450141668318 121.82659950852394 40.566253259778023 12.528360337018965 19.085520654916763 24.757182583212852 58.582179307937622 10.288368001580237 46.573210746049881 8.8470411151647586 8.4448806196451169 31.915894359350204 18.28338231146336 14.189376935362818 10.56774966418743 8.9627505391836149 6.8179995864629737 6.7950367778539649 14.531254842877386 9.0579275190830213 12.759802728891371 6.6444338411092785 19.285046681761742 31.936116293072701 27.021511420607567 7.9355867654085142 7.2163511365652084 11.015528425574301
leaf_count=594 592 194 55 614 193 62 95 122 284 50 229 42 41 156 86 69 52 43 32 33 70 43 61 32 94 156 136 38 35 52
internal_value=0.000161669 0.00928022 -0.00767409 -0.00215018 -0.000308036 0.00473471 -0.00351941 0.00630465 -0.00092939 -0.00765348 0.00900559 0.0139355 0.0244981 0.00499524 0.00948722 0.00380405 0.0132606 0.023885 0.0293994 0.000510145 -0.0029397 0.0034023 -0.00566694 0.00523687 -0.00522989 -0.0128518 -0.00765949 0.0270597 0.0136004 -0.00911878
internal_weight=897.797 181.105 51.0836 716.692 594.865 231.074 363.791 218.546 285.748 35.0456 183.5 115.601 55.8291 126.802 94.8862 59.7716 34.5667 27.2461 47.3843 67.8995 61.1045 67.6401 158.946 38.6893 25.9295 78.0431 58.9576 23.999 15.1519 25.2049
internal_count=4355 841 249 3514 2900 1120 1780 1058 1393 172 886 554 266 612 456 288 167 129 225 332 299 327 781 187 126 387 292 115 73 121
is_linear=0
shrinkage=0.03


Tree=18
num_leaves=31
num_cat=0
split_feature=46 48 47 46 5 10 5 4 46 44 47 19 39 4 39 16 29 3 0 9 0 17 10 37 9 9 4 19 39 47
split_gain=19.8029 21.5806 18.8784 12.7679 11.2726 11.4626 11.1856 10.9882 10.8337 12.831 10.003 9.22012 8.78722 8.59685 8.81361 8.40535 8.38481 8.64616 8.64326 8.5228 8.12696 10.249 8.03739 8.28606 7.72816 7.65902 7.3851 7.34581 7.24983 6.86536
threshold=1.5399549007415774 0.37019245326519018 0.34082834422588354 1.7443563342094424 0.26531636714935308 0.22677415609359744 0.19174701720476153 0.028414137661457065 1.4423482418060305 0.23370293527841571 0.33723719418048864 0.36095653474330908 79.950000762939467 0.023635348305106166 85.350002288818374 0.021923788823187355 1.2650923728942873 0.090370226651430144 91.722026824951186 0.22736185789108279 91.438838958740249 0.21296744793653491 0.20158164948225024 100.50000000000001 0.22452560067176822 0.28012739121913915 0.027991800568997863 0.338965654373169 81.149997711181655 0.3473446667194367
decision_type=2 2 2 2 2 2 2 2 2 2 2 2 2 2 2 2 2 2 2 2 2 2 2 2 2 2 2 2 2 2
left_child=2 10 4 -3 5 12 7 -7 11 26 -2 16 22 -6 15 -15 18 19 -8 24 -12 29 23 27 -18 -17 -10 -1 -14 -22
right_child=1 3 -4 -5 13 6 8 -9 9 -11 20 -13 28 14 -16 25 17 -19 -20 -21 21 -23 -24 -25 -26 -27 -28 -29 -30 -31
leaf_value=-0.014037943434599064 0.025719333364055449 -0.015876337542040018 -0.011889268165933203 0.018227504423668387 -0.023173323119895794 0.040655380280510973 0.02148524747825829 0.009096938493927691 0.0034504228818649143 -0.0096241021994604575 -0.018984614265048064 -0.030476217024231745 0.032346065003417211 0.030562001536679227 -0.030385804799561676 -0.01560453748317786 0.012744744738380005 -0.0088920336369189782 -0.0098876458167689116 0.026812331754237081 0.0090705204842625071 0.0022210555222071647 -0.013562806329009082 0.010427691986430775 -0.023888450038784672 0.0067636086903813883 0.031243421923940688 0.01011106418414477 0.0027537638102901559 0.03868432968226982
leaf_weight=41.16073289513588 50.856546863913536 38.674363330006599 140.85081642866135 12.20623457431793 26.663859680294991 14.686278060078619 8.0695055425167066 29.780427291989326 12.66957215964794 13.806582286953924 7.7135861963033667 7.7947259247303 7.5220180302858344 6.5532754510641089 8.3470667302608472 23.765756696462631 15.98604638874531 17.312388852238655 61.559852540493011 25.66477170586586 14.248144507408144 42.821109712123871 73.55584354698658 37.383942097425461 6.4552155733108512 30.055581629276276 28.73189240694046 14.616976276040075 62.796966969966888 15.074106201529501
leaf_count=202 225 194 724 55 137 68 39 139 60 66 35 38 36 32 42 119 77 84 306 121 65 200 359 179 32 149 134 71 300 67
internal_value=0.000158037 0.00897936 -0.00208722 -0.00747229 0.000327989 0.00220798 0.00678224 0.0202179 0.00367169 0.0148305 0.0154027 -0.000703822 -0.00247458 -0.00903298 -0.00327137 0.000886895 0.00121494 0.00886802 -0.00597781 0.015341 0.00857724 0.0117639 -0.00622103 -0.000325927 0.00157369 -0.00319055 0.0230556 -0.00761647 0.00634944 0.0251177
internal_weight=897.384 181.594 715.79 50.8806 574.939 479.554 242.517 44.4667 198.051 55.208 130.713 142.843 237.036 95.3855 68.7217 60.3746 135.048 65.4184 69.6294 48.106 79.8569 72.1434 166.717 93.1617 22.4413 53.8213 41.4015 55.7777 70.319 29.3223
internal_count=4355 841 3514 249 2790 2311 1164 207 957 260 592 697 1147 479 342 300 659 314 345 230 367 332 811 452 109 268 194 273 336 132
is_linear=0
shrinkage=0.03


Tree=19
num_leaves=31
num_cat=0
split_feature=46 47 47 5 46 43 47 47 47 2 43 47 46 45 41 47 15 40 29 2 14 19 30 51 13 43 2 41 14 49
split_gain=18.6314 19.1228 17.8898 10.672 10.0857 14.3398 13.7266 11.5887 11.2029 9.91327 9.753 8.70491 9.20909 8.78106 12.3989 10.3937 9.71111 8.4686 8.40775 9.598 8.17116 7.78139 7.72706 7.28432 7.53793 8.36461 6.97153 6.83488 6.69922 6.48714
threshold=1.5399549007415774 0.33723719418048864 0.34082834422588354 0.26531636714935308 1.4050518274307253 0.40165320038795477 0.31479251384735113 0.31842809915542608 0.32341894507408148 0.092778906226158156 0.41365440189838415 0.36822970211505895 1.6751971244812014 0.3602998703718186 12.250000000000002 0.34248715639114385 0.044464215636253364 59.649999618530281 1.2480443120002749 0.082702249288558974 0.38075013458728796 0.27735801041126257 2.5000000000000004 36.500000000000007 8.5000000000000018 0.39434327185153967 0.087364021688699736 16.250000000000004 0.42395651340484625 0.30961319804191595
decision_type=2 2 2 2 2 2 2 2 2 2 2 2 2 2 2 2 2 2 2 2 2 2 2 2 2 2 2 2 2 2
left_child=2 -2 3 4 7 -6 -7 9 10 26 -8 12 13 15 16 -3 -15 -12 -9 21 -14 -20 -22 24 -23 -26 -1 -4 -5 -10
right_child=1 11 27 28 5 6 8 18 29 -11 17 -13 20 14 -16 -17 -18 -19 19 -21 22 23 -24 -25 25 -27 -28 -29 -30 -31
leaf_value=0.003487151682339817 0.023914164212230606 -0.0065827407994189097 -0.013523477791314789 -0.001905196174740408 0.026021906858959346 -0.0224182493177911 -0.0029968269471435838 -0.019822106241038365 0.030087663997737071 0.026436814120432951 0.0075533892184771086 -0.022556442865427639 -0.0067902994624951113 -0.019360582184428564 0.016461041379662457 0.03415189855402595 0.015912801084202861 0.047985998561109147 0.031982852521155285 -0.018930342601264537 0.043104200469052951 -0.0083404352682184234 0.0098138867693034551 -0.010769531957354282 0.038184614667197338 -0.0030809800613086362 -0.02405494100820187 0.010530431011545698 -0.018003624606806431 0.0013543686149576793
leaf_weight=100.82941415905952 51.89920511841774 9.7669690698385256 129.28805387020111 55.024177432060242 29.112481087446213 15.560927316546438 9.0466764122247714 38.510660439729691 6.4482051432132712 15.197629526257513 7.8669497966766384 10.420784398913382 8.7132897078990919 40.688785791397095 15.568353489041327 11.359044998884199 7.6116774678230277 12.703376874327658 6.3382889032363883 24.106363639235497 11.6393960416317 11.524033054709436 14.310832753777502 30.601297870278358 10.17135599255562 6.9801807403564444 7.9992010295391074 10.779577195644377 39.963192999362946 146.78719687461853
leaf_count=488 228 45 669 274 139 74 43 194 30 73 36 58 39 197 73 52 35 58 30 118 50 55 64 148 48 34 39 55 205 704
internal_value=0.000155445 0.00869993 -0.00202677 0.000319684 0.00214501 0.00671264 0.00375566 -0.0019791 0.00610106 0.00453371 0.0226814 0.00248216 0.00484402 -0.000501684 -0.00607921 0.0158053 -0.0135614 0.0336595 -0.00827624 -0.00314008 0.0176403 0.00283568 0.0258465 -0.000734941 0.00992504 0.0220635 0.00124848 -0.0116001 -0.00881077 0.00276044
internal_weight=896.818 181.978 714.839 574.772 479.784 227.526 198.413 252.258 182.852 124.026 29.617 130.079 119.658 84.9948 63.8688 21.126 48.3005 20.5703 128.232 89.7215 34.6635 65.6152 25.9502 59.2769 28.6756 17.1515 108.829 140.068 94.9874 153.235
internal_count=4355 841 3514 2790 2311 1084 945 1227 871 600 137 613 555 402 305 97 232 94 627 433 153 315 114 285 137 82 527 724 479 734
is_linear=0
shrinkage=0.03


Tree=20
num_leaves=31
num_cat=0
split_feature=46 47 47 37 43 46 26 23 41 45 30 33 34 12 44 20 9 39 49 43 20 24 46 42 47 18 44 7 18 47
split_gain=14.7856 17.4103 13.9332 10.8523 10.1783 18.5654 13.3736 12.9036 9.50144 9.24761 9.91299 8.6879 8.38046 8.58256 8.27846 8.40099 7.89612 6.73396 6.57751 8.16565 6.23247 6.19494 6.17199 12.3039 9.8102 7.59133 7.41531 8.23697 7.19281 7.05263
threshold=1.4833853244781496 0.33260272443294531 0.36822970211505895 100.50000000000001 0.44434647262096411 1.6634785532951357 0.062090383842587478 0.37980769574642187 9.4499998092651385 0.39663070440292364 2.5000000000000004 32.500000000000007 68.500000000000014 0.57979625463485729 0.21295192837715152 0.29282394051551824 0.18878407031297686 88.049999237060561 0.33408872783184057 0.40551906824111944 0.27930971980094915 0.58333334326744091 1.4103508591651919 0.69966387748718273 0.31479251384735113 0.2786682546138764 0.19308342039585116 0.035785431042313583 0.21862908452749255 0.31842809915542608
decision_type=2 2 2 2 2 2 2 2 2 2 2 2 2 2 2 2 2 2 2 2 2 2 2 2 2 2 2 2 2 2
left_child=1 22 4 18 6 11 -2 12 20 -7 -11 16 -8 -14 21 -16 -6 -13 -3 -20 -5 -10 26 -24 -25 28 29 -28 -26 -1
right_child=2 3 -4 8 5 9 7 -9 14 10 -12 17 13 -15 15 -17 -18 -19 19 -21 -22 -23 23 24 25 -27 27 -29 -30 -31
leaf_value=0.0065291709620758998 0.031328193582155862 -0.021492401501988771 -0.025032307347171563 0.012227291177767042 0.026321619827500888 0.027191112475176884 0.020441837934250279 -0.02575703755670837 0.036059588383319928 0.022935149429100417 -0.016308229702313496 -0.01096574075389224 -0.013696435678442252 0.019606496100756397 -0.030801032956446983 0.012516451774594638 -0.00094175395689435188 0.01805443223257807 0.0097165946537302143 -0.016698739453519917 -0.014345446798512412 -0.00076535851324092117 0.023477666775129451 -0.025233642257613917 -0.001567007068959968 -0.017143762174568925 -0.001309162210499737 -0.01775073074798483 0.016712569897519833 -0.0070412322874638068
leaf_weight=106.41787104308605 27.654739171266556 75.036602735519409 12.399378940463064 8.7575211375951749 12.671340972185133 31.516271308064461 38.611488461494446 8.5237434357404691 11.456144809722902 9.659439757466318 11.682695448398588 88.280331626534462 17.313448116183284 10.233825862407683 5.9332472532987586 8.6679120063781721 31.259934037923813 6.8958701640367499 16.3556789457798 25.993480116128922 44.568863153457642 5.9586681872606269 27.087220713496208 10.419135600328444 37.233642891049385 11.784226149320601 69.7583968937397 44.613630369305611 38.735982432961464 49.731259271502495
leaf_count=518 125 391 69 45 58 141 177 41 57 41 52 420 81 46 30 44 149 32 84 136 229 30 129 51 175 59 342 217 184 244
internal_value=-0.000434093 -0.00317896 0.00491038 -0.0103051 0.00625749 0.0021496 0.0138532 0.00703406 -0.00210329 0.0171152 0.00161773 -0.00360793 0.0116017 -0.00101842 0.0105947 -0.00583567 0.00729939 -0.00868166 -0.0161872 -0.00647346 -0.00980919 0.0240207 0.000484181 0.00596613 0.000931321 0.00430413 -0.00206124 -0.00783387 0.00783008 0.00218034
internal_weight=905.212 598.509 306.703 202.728 294.303 191.966 102.337 74.6825 85.3424 52.8584 21.3421 139.107 66.1588 27.5473 32.016 14.6012 43.9313 95.1762 117.386 42.3492 53.3264 17.4148 395.781 125.26 98.173 87.7539 270.521 114.372 75.9696 156.149
internal_count=4397 2965 1432 1046 1363 893 470 345 435 234 93 659 304 127 161 74 207 452 611 220 274 87 1919 598 469 418 1321 559 359 762
is_linear=0
shrinkage=0.03


Tree=21
num_leaves=31
num_cat=0
split_feature=46 47 48 37 46 0 43 4 26 48 17 30 49 4 33 37 22 44 41 47 43 12 13 46 46 19 46 47 41 16
split_gain=13.9459 16.4898 14.9999 11.9115 13.2058 14.356 13.171 11.8 11.6729 11.073 10.9336 10.5222 10.3102 10.1519 13.0497 9.9083 9.50629 9.49957 9.09391 8.88962 8.59421 8.53058 8.40578 8.37377 8.33293 7.62292 10.172 9.32988 12.5639 10.4496
threshold=1.4833853244781496 0.33260272443294531 0.37019245326519018 104.50000000000001 1.6198580861091616 95.733989715576186 0.45235644280910497 0.054727885872125633 0.06371870264410974 0.30220277607440954 0.27861452102661138 4.5000000000000009 0.33175435662269598 0.03061605524271727 352.50000000000006 100.50000000000001 0.064583335071802153 0.21215574443340304 9.4499998092651385 0.36409540474414831 0.44097773730754858 0.63299319148063671 10.500000000000002 1.6634785532951357 1.4039165377616885 0.31222674250602728 1.4103508591651919 0.31506919860839849 10.550000190734865 0.030191794969141487
decision_type=2 2 2 2 2 2 2 2 2 2 2 2 2 2 2 2 2 2 2 2 2 2 2 2 2 2 2 2 2 2
left_child=1 9 3 4 5 11 12 15 -4 -1 13 20 21 -6 -15 -3 -13 18 24 23 -2 -5 -18 -10 -17 26 27 28 -11 -30
right_child=2 7 8 6 10 -7 -8 -9 19 25 -12 16 -14 14 -16 17 22 -19 -20 -21 -22 -23 -24 -25 -26 -27 -28 -29 29 -31
leaf_value=-0.016032456322949886 0.0096867791426860986 -0.017512145905454343 -0.030322977204233735 0.00042277783136035447 -0.0055869798139967187 -0.021643648862948839 -0.0032234770252084766 0.020661312421532897 -0.0085983959478439318 -0.0095309701935122147 0.049808797763022473 0.033351454464026306 0.044214136952428214 -0.0024597265689316849 0.049310641527728863 -0.019783963348910982 0.024000332310121105 -0.012515266548101785 0.024511297011466621 -0.017733434189760942 -0.0095151323571642764 0.038154395405922838 -0.0097562210931176566 0.023767048137757617 0.018675288910642459 0.0066637566159149344 0.007341235844078438 -0.01305389820062456 0.00098176782906407383 0.043783490778892799
leaf_weight=32.511187121272087 33.587725311517715 110.92231579124928 15.385046496987341 15.46149653196335 16.393772140145302 22.06597737967968 15.956298038363455 9.7644188255071622 12.031897723674776 27.047606855630875 7.5246422886848441 16.375210836529732 19.229527607560158 7.5244172960519817 9.0344897359609586 12.493166893720629 10.311533659696581 45.9959796667099 15.3887432962656 15.994209602475165 52.276328831911087 7.3684346079826346 15.0988462716341 15.362756580114363 7.1450878083705893 167.68541949987411 67.284858748316765 81.460807591676712 11.038425087928774 8.7970949709415418
leaf_count=163 153 583 77 72 73 106 73 49 60 133 33 75 87 33 39 65 46 237 76 83 251 33 70 68 36 801 323 403 54 42
internal_value=-0.000421925 -0.00309216 0.00476392 0.00799159 0.00430219 0.00014123 0.0197833 -0.0100508 -0.00874743 0.000466506 0.0192819 0.00405767 0.0284185 0.0110053 0.0269003 -0.0117199 0.0162182 -0.003655 0.00796272 -0.000552496 -0.00196154 0.0137538 0.00427547 0.00969693 -0.00549157 0.00198699 -0.00202763 -0.00696968 0.00362234 0.0212267
internal_weight=904.518 597.535 306.983 248.209 190.193 149.716 58.0158 201.71 58.7739 395.825 40.4773 127.65 42.0595 32.9527 16.5589 191.945 41.7856 81.023 35.027 43.3889 85.8641 22.8299 25.4104 27.3947 19.6383 363.314 195.629 128.344 46.8831 19.8355
internal_count=4397 2965 1432 1144 879 701 265 1046 288 1919 178 595 192 145 72 997 191 414 177 211 404 105 116 128 101 1756 955 632 229 96
is_linear=0
shrinkage=0.03


Tree=22
num_leaves=31
num_cat=0
split_feature=46 47 48 26 4 48 30 46 0 9 17 23 43 15 50 18 47 46 36 41 17 22 46 20 42 5 49 42 34 14
split_gain=13.1717 15.6157 14.1827 11.2016 11.1575 10.5031 9.46946 14.0525 10.1833 11.0951 9.90105 9.29747 9.06504 8.74372 8.46388 12.9518 8.43078 7.85889 7.68994 8.95223 7.47547 7.4551 8.81151 7.06767 6.85562 6.81609 6.78265 8.76667 7.80952 6.0866
threshold=1.4833853244781496 0.33260272443294531 0.37019245326519018 0.06371870264410974 0.054727885872125633 0.30220277607440954 4.5000000000000009 1.6821942329406741 95.629039764404311 0.29908245801925665 0.2178347706794739 0.36931818723678594 0.44052034616470342 0.026069984771311287 0.033445836976170547 0.24074773490428927 0.36409540474414831 1.6634785532951357 101.00000000000001 9.6500000953674334 0.26633501052856451 0.054093567654490478 1.5399549007415774 0.29591755568981176 0.71120098233222973 0.17512489110231402 0.33645822107791906 0.69428747892379772 76.500000000000014 0.42331904172897344
decision_type=2 2 2 2 2 2 2 2 2 2 2 2 2 2 2 2 2 2 2 2 2 2 2 2 2 2 2 2 2 2
left_child=1 5 6 -4 18 -1 7 11 9 10 29 12 14 21 15 -2 17 -5 26 -20 -12 -14 -23 -24 -21 -16 -3 -28 -29 -8
right_child=2 4 3 16 -6 -7 8 -9 -10 -11 20 -13 13 -15 25 -17 -18 -19 19 24 -22 22 23 -25 -26 -27 27 28 -30 -31
leaf_value=-0.015676908954710824 0.0053815434398800368 -0.021581890039607168 -0.029842709771914524 -0.0083898229277262759 0.019931168675687588 0.0019285591044264534 0.01242562727555958 0.029579791061810582 -0.0073839300757728077 0.050274546698432468 -0.0069173385818745133 -0.018258626934195651 -0.009064971725756368 -0.010085772966934716 0.02680081405593444 0.05491758871893912 -0.017367362931747458 0.022949727622588699 -0.011904097391810146 0.017601360419043349 0.027598906121998668 -0.0088641651832323271 0.049594739868525625 0.0096242002496169498 -0.011114590996202104 -0.0057094881356876594 0.021100703771022127 -0.026915429797112696 0.010613858822664279 0.03970428081845901
leaf_weight=32.277336716651917 10.330589205026628 75.479468539357185 15.182831421494482 11.986638292670252 9.8537004292011243 363.53705380856991 16.139287725090984 15.889188349246977 13.299711674451826 9.0652089565992338 20.851662427186969 19.179206401109695 12.474996998906134 50.646743789315224 6.9785073399543789 8.3269812762737256 15.86446040868759 15.46657422184944 55.728442013263702 20.824760630726818 6.6122094690799704 6.7506042420864132 7.7032730877399471 8.6605499982833845 10.491228148341177 20.304236814379692 7.8338686227798489 13.643026217818262 6.8298878669738761 15.432359740138052
leaf_count=163 46 401 77 60 49 1756 72 67 62 40 96 93 59 240 31 37 83 68 290 103 30 34 35 40 54 94 40 73 36 68
internal_value=-0.000404715 -0.00300401 0.0046318 -0.00854418 -0.00979866 0.000453223 0.00775961 0.00362199 0.0160954 0.020743 0.0154214 0.000710851 0.00359108 -0.0021452 0.0142071 0.0292351 -0.000540268 0.00939956 -0.0114375 -0.00475755 0.00201776 0.00908073 0.0189061 0.0302993 0.00788852 0.0032067 -0.0169267 -0.0041498 -0.0144143 0.0266152
internal_weight=903.645 596.499 307.146 58.5005 200.684 395.814 248.645 167.245 81.4004 68.1007 59.0355 151.356 132.176 86.2362 45.9403 18.6576 43.3177 27.4532 190.831 87.0444 27.4639 35.5894 23.1144 16.3638 31.316 27.2827 103.786 28.3068 20.4729 31.5716
internal_count=4397 2965 1432 288 1046 1919 1144 776 368 306 266 709 616 408 208 83 211 128 997 447 126 168 109 75 157 125 550 149 109 140
is_linear=0
shrinkage=0.03


Tree=23
num_leaves=31
num_cat=0
split_feature=37 47 46 48 7 48 1 20 48 46 45 1 19 2 6 15 4 16 46 45 26 36 4 9 2 15 47 23 4 19
split_gain=12.6754 11.4243 16.0469 14.7438 13.4906 12.8926 10.7977 10.4767 9.02617 13.6017 12.7857 8.81755 13.0638 8.68034 8.52448 10.6677 8.36007 7.41482 7.34479 12.6995 7.89006 7.88037 8.19175 8.19404 7.9433 7.50873 7.15665 6.94051 6.79323 8.3158
threshold=105.50000000000001 0.33302892744541174 1.6634785532951357 0.38863115012645727 0.075986377894878401 0.30387786030769354 0.032345248386263854 0.28575819730758673 0.36552916467189794 1.4987838864326479 0.35619245469570165 0.10153551399707796 0.32237823307514196 0.05669353902339936 0.13819628953933719 0.025010425597429279 0.027991800568997863 0.031575083732604987 1.4103508591651919 0.32362215220928198 0.044319385662674911 101.00000000000001 0.02518438640981913 0.23290422558784488 0.059657495468854911 0.035375881940126426 0.31662940979003912 0.35504202544689184 0.031010683625936512 0.33757980167865759
decision_type=2 2 2 2 2 2 2 2 2 2 2 2 2 2 2 2 2 2 2 2 2 2 2 2 2 2 2 2 2 2
left_child=1 5 4 -4 -3 -1 -7 -6 9 13 -11 12 18 -2 -13 -16 -14 -12 19 21 -20 22 -8 -24 -23 27 -25 -22 -18 -30
right_child=8 2 3 -5 7 6 11 -9 -10 10 17 14 16 -15 15 -17 28 -19 20 -21 25 24 23 26 -26 -27 -28 -29 29 -31
leaf_value=-0.015725762258502862 0.017215872274545487 -0.010853325287337016 0.015637637266534554 -0.025955797499648905 -0.011127975635501327 0.030797047818257477 -0.012324149876047833 0.030608977758421071 -0.015416145513487516 0.035865352864027637 -0.016749798608184818 -0.011086820624141073 0.030142557909774034 -0.0029267332089027752 -0.011491763836130198 0.037248154121709488 -0.01440880556204175 0.018631287628381017 0.026278089544837364 -0.015508415295362952 0.0126642201622328 -0.025129316001977868 0.003720926709859382 0.049530590396464402 0.0063064405278563879 -0.013114745204877432 0.0076478179778949129 -0.011382359974130988 -0.0020603176268681809 0.025153588502435143
leaf_weight=35.464764833450317 26.140783801674843 259.82498775422573 45.127314388751984 8.2419305145740491 8.3872458487749117 11.13918626308441 8.6171218156814557 12.25430119037628 13.151935175061224 26.928347915410995 8.0965704470872897 67.516103699803352 22.875844717025757 65.267376840114594 7.1859409213066083 7.2098864316940308 8.865206226706503 11.8976574242115 14.792279481887816 50.316001519560814 52.850983381271362 12.193226069211962 16.094088718295101 9.4098333418369275 15.210708916187285 18.865450724959373 6.4710011780261985 12.616851195693014 17.418443754315376 22.317327857017517
leaf_count=178 126 1328 200 45 43 52 43 60 66 120 37 330 106 318 35 33 42 54 68 248 245 60 78 44 74 88 32 60 82 102
internal_value=-0.000387991 -0.00198783 -0.00611684 0.00882743 -0.00898714 0.00131745 0.00294073 0.0138502 0.00749745 0.00978176 0.0227366 0.00201935 0.00448491 0.00294136 -0.00660814 0.0136551 0.0155167 0.00411705 0.000797206 -0.00422682 0.00679097 0.00420344 0.0124862 0.0193889 -0.00802019 0.00308741 0.0340174 0.00790591 0.00813332 0.0134296
internal_weight=902.749 751.266 333.836 53.3692 280.467 417.43 381.965 20.6415 151.483 138.331 46.9226 370.826 288.914 91.4082 81.9119 14.3958 71.4768 19.9942 217.438 118.312 99.1256 67.996 40.592 31.9749 27.4039 84.3333 15.8808 65.4678 48.601 39.7358
internal_count=4397 3676 1676 245 1431 2000 1822 103 721 655 211 1770 1372 444 398 68 332 91 1040 579 461 331 197 154 134 393 76 305 226 184
is_linear=0
shrinkage=0.03


Tree=24
num_leaves=31
num_cat=0
split_feature=46 47 47 4 47 46 45 37 47 44 41 41 46 8 33 33 51 7 46 37 26 8 40 49 10 50 50 29 15 1
split_gain=11.9522 14.1873 12.2391 10.4175 9.14211 9.73744 10.307 9.04645 8.8674 8.79403 8.13783 7.9406 7.92436 7.24531 7.08424 8.17589 6.74649 6.71349 8.13505 7.11104 6.70657 6.67847 11.8499 8.91512 7.90744 9.14758 8.9485 8.61957 9.73145 8.20118
threshold=1.4833853244781496 0.33260272443294531 0.33635227382183081 0.054727885872125633 0.37206733226776129 1.6634785532951357 0.35959173738956457 100.50000000000001 0.32694636285305029 0.21215574443340304 9.6500000953674334 9.4499998092651385 1.4039165377616885 0.20040983706712726 935.00000000000011 50.000000000000007 48.500000000000007 0.05684510990977288 1.5294082164764407 105.50000000000001 0.079770915210247054 0.20695704966783526 48.649999618530281 0.31293147802352911 0.22600805014371875 0.035778664052486427 0.029794894158840183 1.320067882537842 0.034834537655115135 0.080934602767229094
decision_type=2 2 2 2 2 2 2 2 2 2 2 2 2 2 2 2 2 2 2 2 2 2 2 2 2 2 2 2 2 2
left_child=1 21 8 7 5 6 17 -3 -2 11 -8 12 -9 -12 15 -10 -7 18 -4 -20 -17 22 -1 -24 -23 26 -26 28 29 -28
right_child=2 3 4 -5 -6 16 10 9 14 -11 13 -13 -14 -15 -16 20 -18 -19 19 -21 -22 24 23 -25 25 -27 27 -29 -30 -31
leaf_value=0.031667286678965428 0.0026198434349647042 -0.016591883052346428 -0.0071657380518305855 0.019226891383972225 -0.030264819522799039 0.0073891691620736272 -0.02003257539856439 -0.019033615027353526 0.029855024610433094 -0.011880565236705389 0.019137606016235608 0.023131705471838016 0.018573970721895861 -0.0093155214661855262 0.033274864152460892 0.014481882554756508 0.036851522010058972 0.025940716463630609 -0.0011877957656596667 0.032141953038421399 -0.014850085579157105 -0.0095217305113206915 0.029869079635123471 9.695984787556253e-05 -0.0075150654389176874 -0.006577420425180289 0.00082956428614314138 0.025897164603744294 -0.015605593978940053 0.027969270141273848
leaf_weight=13.536851882934569 48.420727133750916 108.55819767713547 37.170002594590187 9.9389609545469266 7.6358295232057563 39.469118610024452 37.473103359341621 12.256808266043665 13.51640611886978 45.40498560667038 10.993581935763357 15.626981824636458 7.1540199518203726 23.523845076560974 21.934023723006248 15.099640727043154 7.7994441837072364 11.033858567476271 11.275431722402574 10.464674010872839 11.425476014614103 88.245677083730698 8.9560144245624524 100.93150143325329 27.804548501968384 75.875648185610771 23.643582910299301 25.920826315879822 14.215547204017637 16.628194496035576
leaf_count=64 216 583 184 49 45 175 185 65 61 237 51 76 36 114 94 68 35 51 53 48 52 432 42 483 136 373 116 122 70 81
internal_value=-0.000373898 -0.00285648 0.00442031 -0.00937048 -6.88847e-05 0.00129458 -0.00263808 -0.0109755 0.0123669 -0.00326707 -0.0105444 0.00787334 -0.00486861 0 0.0197957 0.0117447 0.0129444 0.00551234 0.00129194 0.0154976 0.00171239 0.000429568 0.00619334 0.00278445 -0.00219024 0.00134857 0.00692913 0.0119732 0.00497489 0.012478
internal_weight=901.934 594.698 307.235 198.94 196.839 189.203 141.934 189.001 110.396 80.4428 71.9905 35.0378 19.4108 34.5174 61.9755 40.0415 47.2686 69.944 58.9101 21.7401 26.5251 395.758 123.424 109.888 272.334 184.088 108.213 80.4082 54.4873 40.2718
internal_count=4397 2965 1432 1046 941 896 686 997 491 414 350 177 101 165 275 181 210 336 285 101 120 1919 589 525 1330 898 525 389 267 197
is_linear=0
shrinkage=0.03


Tree=25
num_leaves=31
num_cat=0
split_feature=48 43 23 26 31 1 22 22 28 28 49 18 17 2 33 26 16 28 47 42 23 48 29 44 12 48 44 14 18 0
split_gain=9.5439 16.0996 8.85421 8.05863 6.89325 13.4802 9.75412 9.45414 8.99549 12.2652 8.60211 8.5725 10.6171 10.1586 8.29318 10.213 9.402 8.41231 7.14065 9.81822 10.6583 7.84782 7.48445 6.92482 8.24875 10.7315 6.94008 7.02933 6.76872 9.55397
threshold=0.38863115012645727 0.5042562484741212 0.23669467866420749 0.084983661770820632 1.0000000180025095e-35 0.096658553928136839 1.0000000180025095e-35 0.15192308276891711 0.22319512814283374 0.2069281339645386 0.31244874000549322 0.18073856085538867 0.17678456008434298 0.095120266079902663 597.50000000000011 0.088263522833585753 0.026429840363562111 0.16837611049413684 0.32683563232421881 0.72600203752517711 0.23303167521953586 0.31321799755096441 1.2522661685943606 0.19659874588251117 0.56294015049934398 0.32295358180999761 0.22422044724226001 0.47622023522853857 0.21862908452749255 92.185680389404311
decision_type=2 2 2 2 2 2 2 2 2 2 2 2 2 2 2 2 2 2 2 2 2 2 2 2 2 2 2 2 2 2
left_child=1 4 -3 -4 7 6 18 11 9 14 -8 -1 13 -13 15 -9 -17 -16 21 20 22 -6 -20 24 25 -12 -25 -28 29 -14
right_child=-2 2 3 -5 5 -7 10 8 -10 -11 23 12 28 -15 17 16 -18 -19 19 -21 -22 -23 -24 26 -26 -27 27 -29 -30 -31
leaf_value=-0.013176260252223543 -0.025974826126354902 0.035511257172498055 -0.016387921871525858 0.025134954728857274 0.00092828212034395464 -0.0062151422708637879 0.028473242153539559 -0.020750613872222459 -0.003468343715966079 0.042438728639865912 -0.01857453262719129 0.0052583769834882868 0.0013577549613061133 0.043744285041768249 0.041863386710561362 -0.011313153978540184 0.033264156568685123 0 -0.006675150221696376 0.026606024505342919 -0.016533343888935334 0.034910460497022171 0.035031680379533907 -0.013707203421528981 0.034917781161519487 0.021194727492885482 -0.0025275799955399346 0.027448300282965511 -0.0013734401344531882 -0.019282776851248105
leaf_weight=70.811958432197571 11.079611718654631 17.149980202317241 7.6905810981988889 7.1593943983316422 8.2296864390373212 82.827388882637024 9.5184644311666471 13.562514677643778 45.073045462369919 10.316445261240004 11.007205545902258 42.248768478631973 32.93075866997242 6.3414366394281378 8.8632626831531542 6.9238599091768256 8.5381526350975019 7.6825209259986869 6.26874987781048 16.292583242058754 17.723054111003876 24.601640269160271 7.9222521781921387 38.139839321374893 8.7046082168817502 11.421148061752318 31.611682265996933 7.9862372428178778 264.52762985229492 50.120237559080124
leaf_count=343 63 73 35 32 40 407 45 67 224 49 54 202 159 30 41 33 41 37 32 75 91 115 38 188 41 56 148 38 1317 247
internal_value=0.000507589 0.000870917 0.0214302 0.00385902 7.10715e-05 0.0038966 0.00811382 -0.00183101 0.00644637 0.0143894 0.00256575 -0.00363371 -0.0018954 0.0110922 0.00723234 -0.00248285 0.0137368 0.0235304 0.0160707 0.00839467 -0.00138279 0.0267159 0.0172827 4.84985e-05 0.0117978 0.00165332 -0.00472797 0.00400829 -0.00374193 -0.0111619
internal_weight=893.275 882.195 32 14.85 850.195 282.255 199.427 567.941 100.96 55.8868 118.389 466.981 396.169 48.5902 45.5703 29.0245 15.462 16.5458 81.038 48.2066 31.9141 32.8313 14.191 108.871 31.133 22.4284 77.7378 39.5979 347.579 83.051
internal_count=4361 4298 140 67 4158 1368 961 2790 492 268 570 2298 1955 232 219 141 74 78 391 236 161 155 70 525 151 110 374 186 1723 406
is_linear=0
shrinkage=0.03


Tree=26
num_leaves=31
num_cat=0
split_feature=46 48 44 46 46 45 11 10 21 15 4 9 48 48 10 26 26 46 48 26 29 18 10 28 28 27 14 0 10 18
split_gain=19.4503 13.166 9.37078 13.5068 10.1871 13.4061 12.5394 11.6297 11.2195 10.2049 10.8556 9.47205 10.0411 11.7225 9.4212 9.11913 9.05513 8.65663 17.7494 8.22512 8.06821 8.03097 7.89671 7.61739 8.44148 7.5303 7.49328 7.13523 6.93382 10.5247
threshold=1.5399549007415774 0.38863115012645727 0.19659874588251117 1.3768342733383181 1.4050518274307253 0.33304165303707128 0.30129441618919378 0.22738043963909152 0.2538971900939942 0.033595865592360503 0.021786972880363468 0.2885397076606751 0.34255683422088629 0.31711079180240637 0.22461830824613574 0.10297273471951486 0.10719073191285135 1.7119956612586977 0.37019245326519018 0.084983661770820632 1.0881633758544924 0.31774814426898962 0.26327538490295416 0.22504612058401111 0.29422195255756384 0.04496325924992562 0.3429520726203919 95.781974792480483 0.16887504607439044 0.17939129471778872
decision_type=2 2 2 2 2 2 2 2 2 2 2 2 2 2 2 2 2 2 2 2 2 2 2 2 2 2 2 2 2 2
left_child=2 17 3 16 -4 8 7 14 9 10 -6 12 13 -9 -7 -16 20 18 23 -19 -1 -22 -18 28 -25 -14 -8 -15 -2 -30
right_child=1 -3 4 -5 5 6 26 11 -10 -11 -12 -13 25 27 15 -17 22 19 -20 -21 21 -23 -24 24 -26 -27 -28 -29 29 -31
leaf_value=-0.014553396574297396 0.039643746729341782 -0.025312101596967344 -0.011434943326259195 0.020368322687532595 -0.0036241591718618603 -0.0027720451476307699 0.0060691822202989104 -0.020814012107957521 -0.011423755940164997 0.00044092338994326319 0.040685124148522711 -0.020326719581717383 -0.0087242944012043688 0.023267602809007755 -0.028264226635520147 0.010837891041266302 -0.028566802761324457 0.010174658241635973 -0.014766362025461366 0.043619301613792023 0.0034167770011414868 0.032857261959572046 0.006147986539636531 -0.0027046573028558199 0.025421942257377969 0.02380680122740406 -0.023228698814239408 -0.0066244994345000955 -0.014191526944839581 0.019863965906513532
leaf_weight=20.161085665225983 11.714009761810301 8.4857217222452146 124.28892579674721 34.39803084731102 6.2227829247713116 106.90936481952667 9.181250259280203 6.4385853409767142 13.42815341055393 16.46871791779995 20.190458327531815 10.646151438355444 36.143613591790199 53.161765784025192 26.927683994174004 6.0157585591077796 15.756566420197489 15.035230010747911 24.571585699915886 12.34725798666477 133.96168449521065 7.9454831033945075 8.5333859324455243 40.246712684631348 11.525215700268744 6.7388561666011801 39.960096836090088 7.7552439570426932 8.9680029600858671 48.835342034697533
leaf_count=105 50 49 635 167 30 524 46 31 68 79 96 53 185 251 136 30 78 65 123 52 655 39 42 186 53 32 206 38 40 217
internal_value=0.000499943 0.00923226 -0.001739 0.00337993 -0.00404819 -0.00151263 -0.00397023 -0.0013166 0.0118188 0.0192257 0.03044 0.00546704 0.00813188 0.0152788 -0.00718799 -0.0209707 0.000144226 0.0110685 0.00803655 0.0263138 0.00274175 0.00529405 -0.0165509 0.0127514 0.00389141 -0.00315193 -0.0177131 0.0193923 0.0191796 0.0144034
internal_weight=892.963 181.729 711.234 220.756 490.477 366.188 309.878 260.737 56.3101 42.882 26.4132 120.884 110.238 67.3556 139.853 32.9434 186.358 173.243 145.861 27.3825 162.068 141.907 24.29 121.289 51.7719 42.8825 49.1413 60.917 69.5174 57.8033
internal_count=4361 835 3526 1086 2440 1805 1532 1280 273 205 126 590 537 320 690 166 919 786 669 117 799 694 120 546 239 217 252 289 307 257
is_linear=0
shrinkage=0.03


Tree=27
num_leaves=31
num_cat=0
split_feature=42 47 0 2 10 51 27 11 9 2 10 36 41 11 30 39 19 29 15 44 29 28 11 10 49 49 30 0 15 38
split_gain=8.09361 11.5141 8.01365 8.4308 11.211 11.1002 10.6607 10.2622 9.98592 9.29349 9.2835 9.1851 8.81308 8.9888 10.6789 8.47395 8.138 8.08582 7.89315 7.73838 9.61165 7.88418 7.71591 6.98316 12.7554 9.47003 9.19204 17.041 14.9341 13.7063
threshold=0.74204194545745861 0.36179104447364813 95.75873184204103 0.095120266079902663 0.22886461019515994 36.500000000000007 0.016552377492189411 0.2740843147039414 0.31921301782131201 0.10631959512829782 0.25971509516239172 89.000000000000014 8.6500000953674334 0.25210967659950262 4.5000000000000009 82.750000000000014 0.3140216618776322 1.1827875375747683 0.025654188357293609 0.23692341893911364 1.0459992885589602 0.27591805160045629 0.30511975288391119 0.2240092679858208 0.33937032520771032 0.31541875004768377 2.5000000000000004 95.195629119873061 0.031353425234556205 0.45000000298023229
decision_type=2 2 2 2 2 2 2 2 2 2 2 2 2 2 2 2 2 2 2 2 2 2 2 2 2 2 2 2 2 2
left_child=2 -2 3 4 23 18 10 11 16 -7 -6 -8 -13 14 -14 -15 17 22 -5 20 -4 -22 -9 26 25 -25 27 -1 -28 -30
right_child=1 -3 19 5 6 9 7 8 -10 -11 -12 12 13 15 -16 -17 -18 -19 -20 -21 21 -23 -24 24 -26 -27 28 -29 29 -31
leaf_value=-0.013808270960828565 0.012109591951641532 -0.01110450106192739 -0.027729135455048307 0.0042754492575758241 0.0069013662229719863 0.011551356908469207 -0.016507201633206538 0.016357725331297101 0.012485679205027403 -0.022808734016335711 -0.021755304412049491 0.0038818518366597462 0.0012016347174832055 0.042329185270625874 0.02760101177528821 0.0060121633939882449 0.0053933759737667553 -0.025043008105426222 0.031006630428393172 -0.023477684556987601 -0.0068189311066840542 0.013791452187230189 -0.01712379931199819 0.0092925815033379749 0.014416651536698636 -0.025767249041052671 -0.0057939358247056996 0.033260691363306588 0.0046627735777515656 0.037702827047669099
leaf_weight=80.727844879031181 98.427790939807892 22.941152095794678 11.912993729114531 17.455214753746986 15.850613325834273 14.284916475415232 10.086112990975378 10.919020265340807 30.846293970942497 12.223945423960684 25.324667856097221 70.609604969620705 37.118233904242516 19.740845501422886 21.156273305416107 8.6749273836612684 28.137980982661247 27.825090274214745 23.771287724375725 22.575164258480072 46.775248318910599 24.679185822606087 11.890536099672316 7.6610864549875251 10.936876326799391 42.142796561121941 77.469680219888687 6.5996088832616797 38.383199989795685 15.306833714246748
leaf_count=400 444 121 64 84 76 71 50 54 152 61 128 346 179 94 98 40 139 138 114 114 231 125 61 36 55 215 380 32 187 72
internal_value=0.000485782 0.00765452 -0.000649087 0.000573493 -0.00056799 0.0105247 0.00327451 0.00540123 -0.00171634 -0.00449164 -0.0107861 0.0100538 0.0118599 0.0182227 0.0111151 0.0318744 -0.00738326 -0.0144793 0.0200935 -0.00827247 -0.00390778 0.000370952 -0.00101921 -0.00494793 -0.013866 -0.0202679 -0.00240994 -0.00989785 0.0026014 0.014627
internal_weight=892.455 121.369 771.086 665.143 597.408 67.7354 318.18 277.005 109.619 26.5089 41.1753 167.386 157.3 86.6903 58.2745 28.4158 78.7726 50.6346 41.2265 105.943 83.3674 71.4544 22.8096 279.228 60.7408 49.8039 218.487 87.3275 131.16 53.69
internal_count=4361 565 3796 3262 2932 330 1555 1351 544 132 204 807 757 411 277 134 392 253 198 534 420 356 115 1377 306 251 1071 432 639 259
is_linear=0
shrinkage=0.03


Tree=28
num_leaves=31
num_cat=0
split_feature=47 42 50 8 1 1 33 11 2 11 39 18 16 45 27 40 14 16 8 8 33 2 40 9 42 8 28 5 26 34
split_gain=7.67894 12.6001 7.65428 9.53257 6.86795 19.4198 8.91429 8.85873 7.49733 6.46901 7.74447 8.79568 6.39136 6.53886 7.589 6.32026 8.07818 6.30591 5.95009 5.91342 5.50982 7.68506 9.82924 7.95617 8.05039 7.89017 6.66799 6.40166 10.4957 7.65909
threshold=0.36822970211505895 0.76888149976730358 0.033033836632967002 0.36749699711799627 0.079185716807842269 0.090263344347476973 530.00000000000011 0.33339345455169683 0.070346590131521239 0.29639688134193426 80.350002288818374 0.24350973218679431 0.040768431499600417 0.35590337216854101 0.03376318886876107 64.049999237060561 0.41923312842845922 0.026151765137910846 0.24252360314130786 0.21443899720907214 472.50000000000006 0.095120266079902663 42.750000000000007 0.23290422558784488 0.73570433259010326 0.30322305858135229 0.16837611049413684 0.21054875105619433 0.072127342224121108 83.500000000000014
decision_type=2 2 2 2 2 2 2 2 2 2 2 2 2 2 2 2 2 2 2 2 2 2 2 2 2 2 2 2 2 2
left_child=1 2 3 4 7 6 8 12 -6 10 -7 17 13 -1 -15 16 -3 -12 -14 -8 21 22 -4 24 -24 -25 -26 28 -22 -30
