tree
version=v4
num_class=1
num_tree_per_iteration=1
label_index=0
max_feature_idx=51
objective=binary sigmoid:1
feature_names=away_p_avg_velo away_p_bb_rate_vs_L away_p_bb_rate_vs_R away_p_career_bb_rate away_p_career_hr_rate away_p_career_k_rate away_p_fi_bb_rate away_p_fi_hr_rate away_p_fi_k_rate away_p_fi_k_rate_vs_L away_p_fi_k_rate_vs_R away_p_fi_platoon_k_rate away_p_fi_runs_per_start away_p_fi_starts away_p_gb_rate away_p_hr_rate_vs_L away_p_hr_rate_vs_R away_p_k_rate_vs_L away_p_k_rate_vs_R away_p_obpa_vs_L away_p_obpa_vs_R away_p_platoon_k_rate away_p_recent_fi_bb_rate away_p_recent_fi_k_rate away_p_recent_fi_runs away_p_rest_days away_p_season_bb_rate away_p_season_hr_rate away_p_season_k_rate away_p_whip_approx ctx_day_of_week ctx_is_weekend ctx_month env_elevation_ft env_humidity env_is_dome env_park_factor_hr env_park_factor_runs env_precipitation env_temp_max env_temp_min env_wind_mph home_lineup_pa_prob_4 home_lineup_pa_prob_5 home_lineup_pa_prob_6 home_lineup_top3_obp home_lineup_weighted_score home_platoon_lineup_obp home_platoon_lineup_woba ump_career_strike_rate ump_consistency ump_games_count
feature_infos=[85.976272583007812:101.17353057861328] [0:0.60000002384185791] [0:0.5] [0:0.75] [0:0.15000000596046448] [0:0.52631580829620361] [0:0.5] [0:0.40000000596046448] [0:1] [0:1] [0:1] [0:1] [0:9] [0:73] [0:1] [0:0.3333333432674408] [0:0.28571429848670959] [0:0.75] [0:0.54545456171035767] [0:0.8888888955116272] [0:0.8571428656578064] [0:0.47179487347602844] [0:0.5] [0:1] [0:4.3333334922790527] [1:30] [0:0.75] [0:0.25] [0:0.72222220897674561] [0:9] [0:6] [0:1] [3:10] [5:5200] [5:100] [0:1] [84:115] [92:115] [0:114] [32.200000762939453:106.59999847412109] [23.700000762939453:81.400001525878906] [0:32.900001525878906] [0.59820467233657837:0.8198811411857605] [0.28244972229003906:0.58602631092071533] [0.11514447629451752:0.38075867295265198] [0.26165050268173218:0.4341529905796051] [1.0412454605102539:1.9963531494140625] [0.23417313396930695:0.42900693416595459] [0.22380846738815308:0.44898843765258789] [0.21770000457763672:0.4512999951839447] [0:0.074000000953674316] [0:74]
tree_sizes=3366 3418 3422 3416 3406 3440 3439 3431 3426 3445 3427 3447 3421 3442 3449 3427 3429 3440 3439 3441 3434 3420 3438 3435 3424 3434 3444 3425 3431 3436 3425 3429 3453 3439 3409 3433 3455 3443 3454 3456 3447 3444 3451 3443 3460 3441 3437 3439 3436 3451 3432 3451 3457 3447 3425 3446 3432 3448 3447 3451 3446 3404 3434 3437 3456 3441 3446 3452 3436 3447 3450 3449 3434 3444 3445 3455 3432 3399 3440 3449 3451 3443 3436 3419 3441 3431 3449 3435 3441 3412 3440 3436 3443 3418 3443 3436 3444 3435 3450 3419 3456 3434 3454 3445 3448 3442

Tree=0
num_leaves=31
num_cat=0
split_feature=46 47 47 29 1 46 47 46 37 43 16 37 20 1 5 47 17 4 6 13 46 42 46 33 50 3 3 4 37 47
split_gain=30.5566 31.6207 26.112 17.9495 16.8149 16.5123 14.9425 27.0164 12.6628 12.3394 11.8269 12.6163 10.7465 10.731 10.515 10.3738 9.927 9.12767 10.7868 9.06584 8.81938 12.0343 9.81334 8.64069 11.7431 8.18696 10.6403 8.16263 8.05816 8.83786
threshold=1.4976439476013186 0.3367632925510407 0.33506292104721075 1.0844993591308596 0.096181880682706847 1.4233254790306094 0.36826056241989141 1.6769319772720339 98.000000000000014 0.40138840675354009 0.027689227834343914 104.50000000000001 0.318828895688057 0.084725823253393187 0.15166687220335009 0.34545271098613745 0.16495946794748309 0.030314518138766292 0.1278108283877373 16.500000000000004 1.5323813557624819 0.72806844115257274 1.5184067487716677 22.500000000000004 0.033051578328013427 0.064465288072824492 0.090629722923040404 0.024379995651543144 103.50000000000001 0.32719671726226812
decision_type=2 2 2 2 2 2 2 2 2 2 2 2 2 2 2 2 2 2 2 2 2 2 2 2 2 2 2 2 2 2
left_child=1 3 8 5 16 -1 7 14 13 15 -6 17 25 -2 -4 27 19 -12 -19 -5 22 -22 -10 24 -16 -9 -27 -3 29 -18
right_child=2 9 6 4 10 -7 -8 12 20 -11 11 -13 -14 -15 23 -17 28 18 -20 -21 21 -23 -24 -25 -26 26 -28 -29 -30 -31
leaf_value=-0.90043220232075594 -0.85259214767309111 -0.83763980268227567 -0.84727810669655623 -0.836901811016175 -0.89161919604849238 -0.8639534266681157 -0.90210902905174384 -0.86555578404833977 -0.84754216262324999 -0.89506031790710427 -0.86317365078819186 -0.85094957886140166 -0.87872862164783128 -0.89545453342167103 -0.84585017315933797 -0.89203417501716709 -0.86235665845947962 -0.89481423477009603 -0.85424134570365939 -0.8746026260298605 -0.81022593030921108 -0.84996076112948815 -0.88871283587286054 -0.8836690615126267 -0.87905264871603361 -0.8054471446554774 -0.85770593596826594 -0.87450936379961242 -0.88002837114643639 -0.87660916463889615
leaf_weight=39.030326306819916 10.172797814011576 6.2282435595989254 9.7575815767049772 15.778217017650606 52.940070256590843 14.740176424384115 13.079311475157736 6.6434597969055238 16.608649492263797 114.59968149662018 18.892338797450066 16.608649492263794 6.2282435595989218 8.9271491020917875 14.117352068424223 22.629284933209419 127.47138485312462 33.217298984527588 6.2282435595989218 8.9271491020917875 11.626054644584654 20.760811865329742 6.6434597969055167 83.250855579972267 25.535798594355583 9.7575815767049807 6.6434597969055167 22.006460577249527 51.486813426017761 55.846583917737007
leaf_count=188 49 30 47 76 255 71 63 32 80 552 91 80 30 43 68 109 614 160 30 43 56 100 32 401 123 47 32 106 248 269
internal_value=-0.874863 -0.878498 -0.866051 -0.8743 -0.872032 -0.890376 -0.872449 -0.869895 -0.851329 -0.88964 -0.880901 -0.873237 -0.844322 -0.872695 -0.875718 -0.877258 -0.867652 -0.879864 -0.888003 -0.849901 -0.8442 -0.834124 -0.859426 -0.878198 -0.86683 -0.835214 -0.824289 -0.865308 -0.869627 -0.866689
internal_weight=856.383 606.631 249.753 441.167 387.397 53.7705 175.014 161.934 74.7389 165.464 127.887 74.9465 29.2727 19.0999 132.662 50.864 259.51 58.3379 39.4455 24.7054 55.639 32.3869 23.2521 122.904 39.6532 23.0445 16.401 28.2347 234.805 183.318
internal_count=4125 2922 1203 2125 1866 259 843 780 360 797 616 361 141 92 639 245 1250 281 190 119 268 156 112 592 191 111 79 136 1131 883
is_linear=0
shrinkage=1


Tree=1
num_leaves=31
num_cat=0
split_feature=46 48 47 46 47 29 1 46 33 30 43 46 1 5 14 50 46 44 47 17 27 47 36 15 4 12 9 17 17 3
split_gain=28.7794 32.9778 30.0254 17.3129 16.4427 15.9796 15.3261 13.7551 13.1788 11.2945 12.6964 10.846 10.0774 9.93101 10.9768 10.0333 9.18715 8.74964 9.70609 8.51639 8.43585 8.33695 10.6802 9.95085 8.74201 8.01423 7.46654 8.90868 6.83784 6.72788
threshold=1.4976439476013186 0.37155675888061529 0.34039017558097845 1.6769319772720339 0.33506292104721075 1.0992871522903445 0.096181880682706847 1.4158041477203371 530.00000000000011 5.5000000000000009 0.44095471501350408 1.7456517219543459 0.058637361973524101 0.20131497085094455 0.38724157214164739 0.038467768579721458 1.5323813557624819 0.20526920258998874 0.34545271098613745 0.27857923507690435 0.05410283990204335 0.32719671726226812 109.00000000000001 0.013371647801250221 0.045850327238440521 0.55470088124275219 0.22923301905393603 0.24817897379398349 0.17038438469171527 0.087391119450330748
decision_type=2 2 2 2 2 2 2 2 2 2 2 2 2 2 2 2 2 2 2 2 2 2 2 2 2 2 2 2 2 2
left_child=2 3 5 4 9 7 21 -1 13 10 16 -3 -9 14 -6 19 -2 18 -4 -15 -8 22 -7 -23 29 -24 -12 -28 -16 -25
right_child=1 11 17 -5 8 6 20 12 -10 -11 26 -13 -14 15 28 -17 -18 -19 -20 -21 -22 23 25 24 -26 -27 27 -29 -30 -31
leaf_value=-0.022426485002125893 0.015203758423994631 -0.021085720903273354 0.016933265766867271 0.03981986396004452 -0.0032319921036262655 0.014058294092904242 -0.0075031639609840928 0.029495213208659277 -0.011037365369041161 0.048313570249115451 -0.010050707862689221 0.015034472277827428 -0.010115804275795439 0.0022543425824923043 0.010806274152492789 -0.019392216312276875 0.051573460553893141 -0.021688890161745931 -0.015106453159374339 0.033860026118433896 0.020954960989429391 0.026938871697431831 -0.01624312306871532 -0.010569490394300747 0.019391381409956363 0.013266250169059957 0.039954185482321242 -0.0058596817926788638 0.049463541812672131 0.012346294014393138
leaf_weight=45.087465301156044 16.292623728513721 36.098083570599556 12.288228973746298 20.553079903125763 8.5185380578041094 144.07831260561943 130.84957028925419 8.7313804924488085 34.799437537789345 11.960090294480322 16.907593891024593 8.552651032805441 13.307514443993567 30.739701673388481 7.075322017073634 12.631385594606398 10.831359043717383 82.791991576552391 22.68005234003067 9.353835776448248 9.111875191330908 9.960930868983267 20.119716495275497 69.045549511909485 12.259311154484747 12.652423352003096 7.1159171015024167 6.7010960131883621 12.484535813331602 12.873670443892477
leaf_count=219 78 174 59 98 41 690 632 42 168 57 81 41 64 148 34 61 51 402 110 45 44 48 97 333 59 61 34 32 60 62
internal_value=0.000644216 0.00917541 -0.00289169 0.0142406 0.0111986 0.000396208 0.00257508 -0.0130828 0.0041693 0.0225947 0.0165212 -0.0139564 0.00611128 0.0107915 0.0248808 0.00293701 0.0310979 -0.0164202 -0.00364789 0.010309 -0.00550431 0.00661 0.0105573 -0.000115712 -0.00324591 -0.00475047 0.00303092 0.0187378 0.0367589 -0.0068447
internal_weight=856.453 250.615 605.838 205.965 185.411 488.078 420.951 67.1264 115.603 69.8087 57.8486 44.6507 22.0389 80.8033 28.0784 52.7249 27.124 117.76 34.9683 40.0935 139.961 280.99 176.85 104.139 94.1785 32.7721 30.7246 13.817 19.5599 81.9192
internal_count=4125 1203 2922 988 890 2351 2026 325 557 333 276 215 106 389 135 254 129 571 169 193 676 1350 848 502 454 158 147 66 94 395
is_linear=0
shrinkage=0.03


Tree=2
num_leaves=31
num_cat=0
split_feature=46 47 47 47 46 1 19 45 37 8 1 47 37 16 11 1 49 4 46 42 46 47 2 37 49 27 2 17 1 26
split_gain=27.1239 28.5402 22.5763 13.9461 24.1919 12.8986 17.4914 11.9357 11.4361 10.5525 10.0142 9.60486 8.63085 10.8146 8.55048 8.51881 8.39822 7.80521 7.79993 9.91691 8.98749 7.66959 9.71497 7.5772 10.7673 11.6238 7.53516 11.1317 10.2669 7.20512
threshold=1.4976439476013186 0.3367632925510407 0.33506292104721075 0.36826056241989141 1.6769319772720339 0.1000625789165497 0.28820538520812994 0.33036178350448614 98.000000000000014 0.16186827421188357 0.084725823253393187 0.32719671726226812 105.50000000000001 0.027689227834343914 0.22222831845283511 0.066048480570316329 0.31944906711578375 0.045495130121707923 1.5323813557624819 0.72806844115257274 1.5184067487716677 0.34545271098613745 0.081110242754220976 105.50000000000001 0.33112591505050665 0.028821638785302642 0.0639312118291855 0.19050437211990359 0.066700372844934477 0.090695373713970198
decision_type=2 2 2 2 2 2 2 2 2 2 2 2 2 2 2 2 2 2 2 2 2 2 2 2 2 2 2 2 2 2
left_child=1 5 8 4 9 6 26 16 10 -4 -2 15 -7 -14 -13 -8 -3 -9 20 -20 -10 22 -18 -11 -25 -26 -1 -28 -29 -16
right_child=2 7 3 -5 -6 12 11 17 18 23 -12 14 13 -15 29 -17 21 -19 19 -21 -22 -23 -24 24 25 -27 27 28 -30 -31
leaf_value=-0.012306038240376085 0.021412796520038271 0.025010550601912304 0.019680107379740571 -0.025956441549676558 0.029307903783856105 -0.010969941001369953 0.02834473671360906 -0.02135612224242691 0.026076183145666707 -0.0087635655098425354 -0.019857518863773082 -0.013397930139939309 -0.015944886551760629 0.03202848778395867 0.0012051549543501377 0.0097817309600586495 0.016596935851307667 0.0050686411943495465 0.05964133018924405 0.024000068901969877 -0.013180517966306019 -0.021589669627140765 -0.021422317501060793 -0.0090318699259602613 -0.0032418425016902245 0.044766574861465083 -0.025845655151096051 0.025413546738447926 -0.003709844917283617 0.03116502902121902
leaf_weight=62.155794128775597 10.348088726401331 8.0634552985429746 19.393896713852882 12.882152915000914 29.815594911575317 96.120131179690361 27.003292411565781 102.6086136251688 16.939975619316105 79.665227085351944 8.9110166877508146 26.322544500231743 6.37410083413124 9.18838322162628 30.867915362119675 123.84836900234222 16.905405163764957 10.663602605462073 12.1467038244009 21.103261798620224 6.6412480920553199 17.208507508039474 8.139643192291258 16.423324897885323 7.7252472788095501 9.4122700393199903 8.761454835534094 18.992264971137047 23.296608611941338 8.51456171274185
leaf_count=300 49 39 93 63 141 466 129 502 80 385 43 127 31 44 149 593 81 52 56 100 32 84 39 79 37 45 42 91 112 41
internal_value=0.000632787 -0.00280757 0.00889656 0.00291927 0.00536328 0.00116201 0.00414886 -0.0134706 0.0224327 -0.000187774 0.00220573 0.00913252 -0.00760244 0.0125126 -0.00042183 0.0132793 -0.0012384 -0.0188327 0.0291047 0.0384253 0.0148728 -0.00674472 0.00383499 -0.00374647 0.00802847 0.0240571 -0.00536794 0.00312479 0.00961997 0.00833102
internal_weight=856.443 605.035 251.408 175.318 162.436 441.445 329.763 163.589 76.0903 132.62 19.2591 216.557 111.683 15.5625 65.705 150.852 50.317 113.272 56.8312 33.25 23.5812 42.2536 25.045 113.226 33.5608 17.1375 113.206 51.0503 42.2889 39.3825
internal_count=4125 2922 1203 843 780 2125 1584 797 360 639 92 1039 541 75 317 722 243 554 268 156 112 204 120 546 161 82 545 245 203 190
is_linear=0
shrinkage=0.03


Tree=3
num_leaves=31
num_cat=0
split_feature=46 48 47 46 29 47 1 46 8 42 46 51 1 46 6 43 40 40 19 40 46 10 8 42 46 11 16 40 26 1
split_gain=25.5282 30.3654 27.2485 15.1966 14.8474 13.9595 13.6619 13.1338 12.6558 10.9992 10.0703 9.80286 9.3507 7.99154 11.1623 7.76304 8.72467 7.71667 11.9646 10.1601 9.75524 13.7439 12.6651 8.71555 13.5719 11.1579 9.01764 8.71264 14.4041 10.1494
threshold=1.4976439476013186 0.37155675888061529 0.34039017558097845 1.6769319772720339 1.0992871522903445 0.33506292104721075 0.096181880682706847 1.4158041477203371 0.16186827421188357 0.72693991661071788 1.7456517219543459 16.500000000000004 0.058637361973524101 1.5395153164863589 0.067491646856069579 0.38477033376693731 61.45000076293946 50.850000381469734 0.33352123200893408 62.850000381469734 1.2900933027267458 0.22677415609359744 0.17658870667219165 0.67602506279945385 1.3352843523025515 0.22293759882450107 0.027689227834343914 69.250000000000014 0.074480090290308013 0.085010122507810607
decision_type=2 2 2 2 2 2 2 2 2 2 2 2 2 2 2 2 2 2 2 2 2 2 2 2 2 2 2 2 2 2
left_child=2 3 4 5 7 9 17 -1 -7 13 -3 -10 -9 14 -2 16 -4 20 23 -20 -6 22 -22 24 25 -19 -27 28 -25 -29
right_child=1 10 15 -5 6 8 -8 12 11 -11 -12 -13 -14 -15 -16 -17 -18 18 19 -21 21 -23 -24 27 -26 26 -28 29 -30 -31
leaf_value=-0.021880610387899596 0.043346086722899892 -0.020621622566118353 -0.015585575808100865 0.037098663026737241 -0.014205778485885182 0.02748411783311467 -0.0051784193281427787 0.028367530349065723 -0.013609798609247544 0.0095130628441220978 0.014080571105905612 0.0063572398793353101 -0.0097172935575506672 0.053833307210197565 0.001192483619168825 -0.01893084358791176 0.024994830077680257 -0.019737122499267536 0.0021390230884873857 0.034119977170818418 0.034176747318849461 0.039617433514495849 -0.012350094703472213 0.0034347791669947238 0.049045028992950178 -0.0077134949319438749 0.033665376256867968 0.001889568652644093 -0.017407922376818336 0.036718582288878088
leaf_weight=44.566367298364639 9.8433752954006213 35.74977234005928 9.6555100083351153 21.063403636217117 6.8814531862735739 16.627135530114174 139.2601014226675 8.837746277451517 31.710722744464874 38.010960057377815 8.6523625701665861 67.402593001723289 13.215865373611448 11.013617306947706 12.092789471149443 98.926792770624161 7.6281066089868537 10.045351311564447 16.585134640336037 19.045867696404457 7.331963092088702 20.270549833774567 13.337467595934866 64.29439041018486 6.9505307078361502 7.1134483516216305 11.312040984630583 36.290272369980812 54.109587043523788 8.5789004117250425
leaf_count=219 46 174 47 98 33 79 676 42 153 180 41 325 64 50 57 487 37 48 79 91 35 97 64 308 33 34 54 174 259 41
internal_value=0.000617703 0.00861765 -0.00272716 0.0134296 0.00038859 0.0105679 0.00248012 -0.0126603 0.00406142 0.0209556 -0.0136652 -8.82466e-05 0.0060482 0.0334424 0.0212385 -0.0157163 0.00262999 0.0062704 0.00398185 0.0197396 0.0171423 0.0226604 0.00490047 0.00106388 0.0143415 0.00444178 0.0180385 -0.00187727 -0.00614361 0.00923684
internal_weight=856.404 252.167 604.237 207.765 488.027 186.701 421.407 66.62 115.74 70.9607 44.4021 99.1133 22.0536 32.9498 21.9362 116.21 17.2836 282.147 234.326 35.631 47.8214 40.94 20.6694 198.695 35.4214 28.4708 18.4255 163.273 118.404 44.8692
internal_count=4125 1203 2922 988 2351 890 2026 325 557 333 215 478 106 153 103 571 84 1350 1121 170 229 196 99 951 169 136 88 782 567 215
is_linear=0
shrinkage=0.03


Tree=4
num_leaves=31
num_cat=0
split_feature=48 1 43 47 19 1 39 40 0 8 6 44 16 26 1 9 1 9 51 41 8 39 51 37 40 41 43 20 39 0
split_gain=19.52 17.1437 17.7306 15.1564 14.9604 12.482 11.7874 10.8301 15.1095 10.7327 10.7226 11.03 11.4984 10.5688 10.0432 9.41881 11.6692 11.6076 11.9362 11.6395 9.35711 9.88938 9.18738 8.73153 8.52195 8.48754 9.40067 8.41788 8.19679 10.7791
threshold=0.37155675888061529 0.1015341840684414 0.50506135821342479 0.33492460846900945 0.28820538520812994 0.066048480570316329 86.950000762939467 69.350002288818374 94.832454681396499 0.14620443433523181 0.15410428494215014 0.23461011052131656 0.032126858830451972 0.06371870264410974 0.073026027530431761 0.22736185789108279 0.068712376058101668 0.21545092761516574 16.500000000000004 6.6499998569488534 0.28487817943096166 82.750000000000014 18.500000000000004 103.50000000000001 47.850000381469734 3.2500000000000004 0.42449191212654119 0.29459121823310858 74.850002288818374 95.42602920532228
decision_type=2 2 2 2 2 2 2 2 2 2 2 2 2 2 2 2 2 2 2 2 2 2 2 2 2 2 2 2 2 2
left_child=1 2 3 4 7 22 9 14 -9 25 -3 12 -12 -2 28 17 -17 18 19 -7 -18 -22 -6 -11 -25 -5 -27 -15 29 -1
right_child=13 10 -4 6 5 15 -8 8 -10 23 11 -13 -14 27 -16 16 20 -19 -20 -21 21 -23 -24 24 -26 26 -28 -29 -30 -31
leaf_value=0 -0.037303241114467284 -0.0091915900007219272 0.040541450103095365 -0.011693071502064977 0.049037547007574525 0.04511635314751767 0.031692545625037961 0.028422541421898578 -0.012284933822512013 -0.010030813572332374 -0.023324532806482532 0.042205551499708206 0.021315257782406533 0.012427795838284355 -0.021831312860752596 -0.02023334926851806 0.028884531169049418 -0.0094064357107858619 0.0028355362782242306 0.0016466274979986112 -0.0033816562572999876 0.036695605700727371 0.016902634459160581 0.026532812540886994 -0.0020619659747040863 2.5545060268394144e-05 0.047883682042357378 -0.017027880041801238 -0.012868582954902594 0.035605818666400037
leaf_weight=35.856230840086937 15.02330696582794 157.19370049238205 10.849737539887427 6.2431498169899013 10.828664541244505 13.079738363623621 7.6486626863479605 21.011845633387566 12.29413717985153 144.11168913543224 9.2496908158063942 6.5261779129505149 9.5235566645860654 11.777680680155752 25.74543733894825 6.2830159068107596 42.141382038593292 42.633822575211525 65.510065689682961 9.3946685343980771 22.195328593254093 6.3030076473951331 32.166148796677589 10.858207821846007 43.987660929560661 6.3597527742385855 8.0290231853723508 27.024702250957489 27.67799200117588 8.7298334985971433
leaf_count=172 74 764 50 30 51 62 37 100 59 703 45 31 46 57 124 30 200 204 312 45 106 30 152 52 213 31 38 132 133 42
internal_value=0.000607966 0.00179083 0.00417105 0.00345534 0.00710028 0.0113858 -0.00266733 -0.00108905 0.0134325 -0.00400918 -0.00626542 0.011517 -0.000670448 -0.0167098 -0.0061248 0.00824924 0.0165139 0.00328218 0.00948406 0.0278534 0.0200401 0.00637492 0.0259609 -0.00616991 0.00394601 0.0160798 0.0282044 -0.00796191 -0.000286974 0.00760145
internal_weight=856.258 802.432 619.939 609.089 381.851 250.536 227.238 131.315 33.306 219.589 182.493 25.2994 18.7732 53.8257 98.0095 207.541 76.9227 130.618 87.9845 22.4744 70.6397 28.4983 42.9948 198.958 54.8459 20.6319 14.3888 38.8024 72.2641 44.5861
internal_count=4125 3862 2976 2926 1822 1192 1104 630 159 1067 886 122 91 263 471 989 366 623 419 107 336 136 203 968 265 99 69 189 347 214
is_linear=0
shrinkage=0.03


Tree=5
num_leaves=31
num_cat=0
split_feature=46 48 47 46 48 46 16 19 45 48 42 49 19 26 19 9 50 21 40 30 18 47 43 15 48 21 19 15 15 47
split_gain=37.672 27.7784 20.1824 16.8724 32.8481 15.7287 11.1594 10.4932 9.82168 11.8922 14.8726 12.1963 9.58224 11.8884 8.68696 11.0572 13.5124 9.02768 8.42486 8.71813 8.38962 8.34212 8.32506 8.24887 8.28687 9.54417 7.9146 8.0377 7.4382 7.42535
threshold=1.5395153164863589 0.38875064253807073 0.33492460846900945 1.7456517219543459 0.37155675888061529 1.4400511384010317 0.017201659269630912 0.23229136317968371 0.35424900054931646 0.34097759425640112 0.71208515763282787 0.33299247920513159 0.34919455647468572 0.10007587447762491 0.33352123200893408 0.22998257726430896 0.035452565178275115 0.17164693772792819 60.750000000000007 1.5000000000000002 0.21561428159475329 0.31971591711044317 0.41674022376537329 0.026091008447110656 0.31889688968658453 0.24009533226490024 0.36847554147243505 0.027138571254909042 0.013722167350351812 0.3363881409168244
decision_type=2 2 2 2 2 2 2 2 2 2 2 2 2 2 2 2 2 2 2 2 2 2 2 2 2 2 2 2 2 2
left_child=2 3 5 4 12 14 -4 -8 9 10 20 22 13 29 15 17 23 -1 -12 -20 -7 -22 -11 28 -25 -26 27 -16 -17 -2
right_child=1 -3 6 -5 -6 8 7 -9 -10 11 18 -13 -14 -15 26 16 -18 -19 19 -21 21 -23 -24 24 25 -27 -28 -29 -30 -31
leaf_value=-0.031589598313870954 0.029717539208798521 -0.034820299652986886 -0.032155437146616783 0.046458707177705512 -0.016646317206675993 0.011418205044735423 0.023770258621560365 -0.0097436205919698357 -0.0122051096704494 -0.0054900311861631503 -0.0088849556117152981 -0.028277777182554451 0.038426149243823197 -0.012018668810900376 -0.0030445130499110714 0.018699152018052889 -0.010065896772932365 -0.0083668608985213097 -0.0077281551442134541 0.028750416224061711 0.015468499473539996 0.057387120458586655 0.036170561499486546 0.035738072840985277 0.028727853260425908 -0.0055900666369118378 -0.0094017289361456174 0.021068480711542201 -0.012627242503390583 0.011694376391352254
leaf_weight=16.634625285863876 34.166098326444626 9.6630870848894101 18.728884130716324 13.406949624419211 28.034561008214951 11.352517753839491 7.8003340512514105 210.5244422107935 15.113524809479712 9.8380797058343941 17.137246876955032 10.266948238015173 18.621849820017815 12.133163571357725 19.099388971924782 8.9595155715942401 56.790752753615379 118.68600985407829 7.9587382078170803 17.950231313705444 7.3917743712663677 14.347228512167929 6.3352204710245124 14.03621059656143 10.897258922457697 18.055266633629799 20.188966855406761 33.022286936640739 20.645367443561554 56.462928116321564
leaf_count=80 158 48 92 62 138 54 38 1033 72 47 82 49 88 58 92 43 274 571 38 85 35 68 30 67 52 87 97 158 100 270
internal_value=-0.000234595 0.0122654 -0.00336681 0.0152644 0.0121652 0.000334261 -0.0104439 -0.00843647 0.00973174 0.013065 0.0190248 -0.00411026 0.0189133 0.0150267 -0.00296214 -0.00548029 0.000784796 -0.0114434 0.00707084 0.0176184 0.0338672 0.0445069 0.0118974 0.00931522 0.0175642 0.00780443 0.00618453 0.0123133 -0.00279651 0.0187554
internal_weight=864.249 172.489 691.761 162.826 149.419 454.707 237.054 218.325 117.692 102.578 76.1377 26.4402 121.384 102.762 337.016 264.705 129.384 135.321 43.0462 25.909 33.0915 21.739 16.1733 72.5936 42.9887 28.9525 72.3106 52.1217 29.6049 90.629
internal_count=4166 822 3344 774 712 2181 1163 1071 560 488 362 126 574 486 1621 1274 623 651 205 123 157 103 77 349 206 139 347 250 143 428
is_linear=0
shrinkage=0.03


Tree=6
num_leaves=31
num_cat=0
split_feature=46 47 28 47 46 46 29 47 41 10 9 43 16 19 26 50 10 12 47 10 20 19 17 26 41 47 46 29 18 17
split_gain=35.3698 24.9241 21.9634 19.1285 15.0811 14.8039 17.4238 13.7158 12.3649 10.9204 13.837 12.2434 10.7763 9.90484 8.78622 8.62529 10.6604 10.0108 8.58223 8.29836 8.2512 8.12396 8.105 9.52427 8.18944 7.77453 7.76422 8.91871 7.61055 9.37779
threshold=1.5395153164863589 0.36826056241989141 0.17655051499605182 0.33492460846900945 1.7136490941047671 1.4400511384010317 1.1522259116172793 0.3369461596012116 6.2500000000000009 0.22508277744054797 0.25376921892166143 0.4354334175586701 0.017201659269630912 0.23229136317968371 0.081015586853027358 0.0345701351761818 0.29428105056285864 0.56030303239822399 0.33135206997394567 0.26418928802013403 0.30608330667018896 0.27490086853504186 0.27857923507690435 0.066715046763420119 5.3500001430511483 0.35588951408863073 1.3266502022743227 1.3000887632369997 0.18073856085538867 0.18833392113447192
decision_type=2 2 2 2 2 2 2 2 2 2 2 2 2 2 2 2 2 2 2 2 2 2 2 2 2 2 2 2 2 2
left_child=3 2 25 5 7 6 -1 18 22 20 11 -11 -5 -14 -6 16 17 -9 -4 -12 -7 -10 23 26 -25 -2 -8 -28 -23 -30
right_child=1 -3 4 12 14 9 8 15 21 10 19 -13 13 -15 -16 -17 -18 -19 -20 -21 -22 28 -24 24 -26 -27 27 -29 29 -31
leaf_value=-0.016084173119516532 0.044894109561074681 -0.028520311210504079 0.0077664071342089334 -0.031665157011155867 0.0083620980709055558 -0.013798232046164064 -0.007379606686791408 0.03496728613635839 0.013515386165404453 0.036245647499745494 0.018787914901640248 -0.0026916475030812292 0.022932667096592006 -0.0094928805576230783 0.050217980264088864 -0.010789000492825936 -0.015905436684261132 -0.0046387763395616 0.039365193607978827 -0.015386959471137114 0.0096545004067718036 -0.023167889068173571 0.027353347317552009 -0.0054307687362750434 0.02023387166707627 0.010435922120027686 0.0068184595610085502 0.045445387720414808 0.011290169911669657 -0.0093195055395256521
leaf_weight=69.99972727894783 24.438453048467636 11.84799489378929 20.015110015869141 18.467752575874329 8.3224207162857073 23.254366725683212 7.0706502348184612 14.200006633996965 17.336845844984055 32.317140609025955 10.265851512551309 9.0373318642377836 7.8779899328947058 209.64255836606026 10.595695525407789 44.009872332215309 9.7104082852601987 8.7938005775213224 12.488849177956579 13.783014103770254 29.437310114502907 22.880160197615623 15.437138855457304 63.808817476034164 12.520725786685942 8.7842046469449979 10.701824039220812 10.988091841340063 25.296245485544205 80.532506138086319
leaf_count=343 113 60 92 92 38 111 34 68 83 152 48 43 38 1033 49 213 47 42 58 66 140 110 74 306 60 42 51 52 121 387
internal_value=-0.000224643 0.0118554 0.0149867 -0.00326908 0.0091847 0.000328926 -0.00287668 0.00474341 0.000633033 0.009425 0.0175184 0.0278385 -0.0101797 -0.00821208 0.0332244 -0.00220544 0.00927831 0.0201957 0.0207648 -0.000571035 -0.00073215 -0.00521523 0.00771645 0.00458713 -0.000994252 0.0363982 0.018986 0.0275934 -0.00783452 -0.00431956
internal_weight=863.863 173.207 161.359 690.656 128.136 454.668 336.573 109.218 266.573 118.095 65.4033 41.3545 235.988 217.521 18.9181 76.7141 32.7042 22.9938 32.504 24.0489 52.6917 146.046 120.527 105.09 76.3295 33.2227 28.7606 21.6899 128.709 105.829
internal_count=4166 822 762 3344 607 2181 1621 520 1278 560 309 195 1163 1071 87 370 157 110 150 114 251 701 577 503 366 155 137 103 618 508
is_linear=0
shrinkage=0.03


Tree=7
num_leaves=31
num_cat=0
split_feature=46 48 28 47 46 46 29 48 7 10 21 50 7 30 48 21 18 33 9 9 49 10 46 26 16 19 15 37 20 21
split_gain=33.2788 25.5238 22.8341 18.1282 16.7433 13.8974 16.5543 13.0997 10.7568 10.2635 13.6881 11.4571 12.8043 10.2185 9.40445 9.25846 12.0656 8.8853 8.53481 11.2974 8.3799 10.2031 8.14867 7.80162 7.56715 7.9502 7.49356 8.19997 7.95803 9.47046
threshold=1.5395153164863589 0.38875064253807073 0.17655051499605182 0.33492460846900945 1.739053547382355 1.4400511384010317 1.1522259116172793 0.3700233399868012 0.03757633455097676 0.23324697464704516 0.26456134021282202 0.036244036629796035 0.020101009868085388 5.5000000000000009 0.37155675888061529 0.18770530074834826 0.21717774122953418 530.00000000000011 0.22998257726430896 0.20241747051477435 0.33736304938793188 0.22197084128856662 1.6649382114410403 0.081015586853027358 0.015777396038174633 0.23815757036209109 0.046054027974605567 100.50000000000001 0.27958689630031591 0.19647196680307391
decision_type=2 2 2 2 2 2 2 2 2 2 2 2 2 2 2 2 2 2 2 2 2 2 2 2 2 2 2 2 2 2
left_child=3 2 14 5 7 6 -1 13 24 15 11 17 -13 -4 -2 -7 -17 -11 19 -8 21 -18 -9 -6 -5 -26 27 28 -10 -30
right_child=1 -3 4 8 23 9 18 22 26 10 -12 12 -14 -15 -16 16 20 -19 -20 -21 -22 -23 -24 -25 25 -27 -28 -29 29 -31
leaf_value=-0.015717026326304489 0.043648488173469266 -0.034171155353365075 0.0053247168946944845 -0.036014100012869893 0.011799378367310842 0.01721299208603097 0.0035930097282288894 -0.02866961856700195 -0.030700244036509283 0.055375238252430695 -0.0054290733681330522 -0.024627364522891382 0.025536947162736429 0.032444922654886153 0.0039345662726605396 -0.027567180904128099 0.036996162935404024 0.018119410415968748 0.0069965996199806311 -0.012466605373289292 -0.021386480656793067 -0.0062032240019622292 0.0045646051258278926 0.058065899421110428 0.01770014151548072 -0.013997933370674885 -0.024237434383513799 0.01362233111956538 -0.021847971285295368 0.011822583942461379
leaf_weight=69.516625463962555 27.009072229266167 9.4391424804925901 76.964149996638298 12.880767732858656 6.6395309865474683 18.587692588567734 84.114899054169655 14.017529115080835 8.4434803724288923 13.341032996773722 16.173361748456955 6.3133263140916851 11.330038100481032 14.134648561477659 7.0045234113931647 15.694090753793715 8.8778433650732094 12.278428524732588 109.99170418083668 72.481391534209251 6.6853994727134696 9.2184216231107694 11.350493580102919 7.2884794473648071 6.6468394994735709 133.59980463981628 9.9491844028234464 31.556831806898117 10.263764277100565 21.597170233726501
leaf_count=343 123 48 363 65 30 88 403 70 42 62 77 30 53 66 34 75 42 57 525 350 32 44 55 33 32 662 49 155 51 107
internal_value=-0.000212553 0.0114772 0.0142978 -0.0031743 0.00843205 0.000323563 -0.00278991 0.00454177 -0.00992169 0.00911642 0.0178083 0.0264556 0.00714804 0.0098555 0.0358589 0.000193883 -0.00781222 0.0389277 0.000621551 -0.00386269 0.00522431 0.0157389 -0.0141335 0.0383788 -0.0145897 -0.0123703 -0.00109564 0.00237643 -0.006509 0.000595435
internal_weight=863.39 173.848 164.408 689.542 130.395 454.604 336.105 116.467 234.938 118.5 59.4362 43.2628 17.6434 91.0988 34.0136 59.0634 40.4758 25.6195 266.588 156.596 24.7817 18.0963 25.368 13.928 153.127 140.247 81.8104 71.8612 40.3044 31.8609
internal_count=4166 822 774 3344 617 2181 1621 554 1163 560 279 202 83 429 157 281 193 119 1278 753 118 86 125 63 759 694 404 355 200 158
is_linear=0
shrinkage=0.03


Tree=8
num_leaves=31
num_cat=0
split_feature=46 48 28 47 46 46 29 48 41 10 21 30 45 48 17 26 41 14 46 29 3 46 29 26 21 18 10 36 38 2
split_gain=31.3176 24.2559 21.0981 17.2003 15.6491 13.0816 15.7116 12.3727 11.6625 9.67293 12.3978 9.49882 8.7484 8.61638 8.56903 8.78931 8.20354 8.08868 7.8267 7.50343 8.10968 7.19041 9.64133 7.15049 6.99238 10.4476 7.4843 10.4417 6.60605 7.25545
threshold=1.5395153164863589 0.38875064253807073 0.17655051499605182 0.33492460846900945 1.739053547382355 1.4400511384010317 1.1522259116172793 0.3700233399868012 6.1499998569488534 0.22508277744054797 0.26456134021282202 5.5000000000000009 0.34905891120433813 0.37155675888061529 0.27857923507690435 0.066715046763420119 5.3500001430511483 0.42232289910316473 1.6649382114410403 1.2028026580810549 0.070667594671249404 1.3266502022743227 1.3000887632369997 0.081015586853027358 0.18770530074834826 0.21717774122953418 0.22467839717864993 103.50000000000001 8.3499999046325701 0.061366945505142219
decision_type=2 2 2 2 2 2 2 2 2 2 2 2 2 2 2 2 2 2 2 2 2 2 2 2 2 2 2 2 2 2
left_child=3 2 13 5 7 6 -1 11 14 24 12 -4 -11 -2 15 21 -17 -12 -9 20 -10 -8 -23 -6 -7 -26 27 -27 29 -21
right_child=1 -3 4 -5 23 9 8 18 19 10 17 -13 -14 -15 -16 16 -18 -19 -20 28 -22 22 -24 -25 25 26 -28 -29 -30 -31
leaf_value=-0.015357421981448021 0.04178209906198882 -0.033733716648552459 0.0051564068427258679 -0.0096783562406559699 0.011451887759340975 0.014681143863828554 -0.0071833023821974177 -0.028210205381296757 0.027812390708521612 0.031122931779486138 0.01245324599939124 0.031180766359689843 0.0018884351452798118 0.003825715500489291 0.02791860834211744 -0.0053026478766476943 0.021966508331924532 -0.026952557756069577 0.0044309532658681023 -0.019751131648859385 -0.010277432429112198 0.0049223429458996422 0.04499732610187035 0.055588982990046103 -0.027498698831090036 -0.0094031793080174616 -0.017224163625351882 0.03977395104895351 0.012085068067973447 -0.0041402967260548082
leaf_weight=69.040783643722534 27.407471790909767 9.2899272292852384 77.122239157557487 233.92740193009377 6.6657054871320707 16.78983998298645 7.0460508912801769 13.837460055947306 11.068095162510874 36.655432552099228 9.4780185669660586 14.304358556866644 12.522887974977492 7.015978902578353 15.215503275394438 63.684183090925217 10.725365310907362 7.5100599080324164 11.371908128261564 41.610365360975266 7.8461840450763694 10.518996372818949 10.970708176493643 7.4272024184465408 14.03918334841728 6.5482634603977221 7.870111569762229 7.4414883852005005 12.907754048705099 75.050147131085396
leaf_count=343 123 48 363 1163 30 79 34 70 53 169 45 66 59 34 72 306 51 36 55 200 38 50 51 33 68 31 38 35 62 361
internal_value=-0.000206013 0.0111091 0.0138284 -0.00308714 0.00817611 0.00031552 -0.00271168 0.00440157 0.000602163 0.00882909 0.0163788 0.00953764 0.0238945 0.0344148 0.00760598 0.0043496 -0.00111302 -0.00541373 -0.0138213 -0.00497497 0.0122137 0.0182001 0.0265388 0.0369542 -0.000752285 -0.00821334 0.00476789 0.0175636 -0.00756996 -0.00984165
internal_weight=862.909 174.442 165.152 688.467 130.729 454.539 335.684 116.636 266.643 118.855 66.1664 91.4266 49.1783 34.4235 118.161 102.945 74.4095 16.9881 25.2094 148.483 18.9143 28.5358 21.4897 14.0929 52.6889 35.899 21.8599 13.9898 129.568 116.661
internal_count=4166 822 774 3344 617 2181 1621 554 1278 560 309 429 228 157 564 492 357 81 125 714 91 135 101 63 251 172 104 66 623 561
is_linear=0
shrinkage=0.03


Tree=9
num_leaves=31
num_cat=0
split_feature=48 45 48 29 45 10 49 39 40 1 10 5 13 7 10 49 29 3 6 6 30 29 15 30 6 34 40 13 39 16
split_gain=17.1125 26.6917 16.8855 11.7172 12.1314 9.43242 8.75599 8.40832 9.03389 6.95545 7.74923 11.1984 12.7538 12.5714 9.19293 9.87103 8.46447 8.03363 7.86831 7.89422 8.70338 9.06001 8.9586 8.77728 9.25406 7.43919 7.06743 6.99664 12.9801 8.1036
threshold=0.38875064253807073 0.38720926642417913 0.37155675888061529 1.1207196116447451 0.36226391792297369 0.23040345311164859 0.30892583727836614 80.850002288818374 70.649997711181655 0.026480327360332016 0.22508277744054797 0.19069059193134311 2.5000000000000004 0.021220307797193531 0.22467839717864993 0.33994355797767645 1.6672683358192446 0.087024141103029265 0.16035714000463488 0.094466317445039763 2.5000000000000004 1.2193234562873843 0.031353425234556205 5.5000000000000009 0.051917422562837608 63.500000000000007 64.750000000000014 38.500000000000007 82.350002288818374 0.028034709393978122
decision_type=2 2 2 2 2 2 2 2 2 2 2 2 2 2 2 2 2 2 2 2 2 2 2 2 2 2 2 2 2 2
left_child=1 2 3 6 9 -3 -1 -8 -9 -5 14 12 -12 -14 16 -16 18 -18 19 20 21 -11 -22 24 -24 -19 -15 29 -29 -13
right_child=-2 5 -4 4 -6 -7 7 8 -10 10 11 27 13 26 15 -17 17 25 -20 -21 22 -23 23 -25 -26 -27 -28 28 -30 -31
leaf_value=0.024029081077838195 -0.03480553295611858 0.04320883039124989 -0.022103596065672741 0.02712736456917527 0.014244218189705327 0.010382973900504671 -0.013125773257771334 -0.0055885069126261795 0.0342178817734076 0.017964631714381368 -0.011048837862737537 -0.0097575752764618145 0.049689014389578852 -0.0043633308125993918 -0.021919485330318463 0.013616234128185346 0.041350980890333754 -0.01403888583111809 0.02231534267621528 -0.013569000398949546 -0.0033011811349185119 -0.014974279766104092 -0.001011672934159857 -0.0050593383797939472 0.038966118440069607 0.024647303303494152 0.027940609994206052 0.0034949073191616795 0.039795623164675054 0.0025852366744335406
leaf_weight=6.3783716112375251 11.669489473104475 15.152213245630263 31.03695872426033 7.6601942330598822 62.505109995603561 17.331069275736809 106.76216354966164 15.731580644845964 6.4342285245656958 8.0914684832096082 10.582432255148886 73.793190076947212 11.686595514416693 11.874421253800394 38.474686577916145 7.7922677546739569 6.5684600323438671 8.9359079748392123 9.336751773953436 58.762445583939552 40.704248264431953 44.342158988118172 7.2637202441692379 10.561485797166823 16.408687770366669 7.1407485902309409 10.908338457345961 56.925654858350754 9.5857303887605649 131.90113326907158
leaf_count=31 61 69 157 36 293 80 527 77 30 39 50 358 55 57 189 38 31 43 45 285 197 215 35 51 79 34 51 273 45 635
internal_value=-0.000195376 0.000317977 -0.000753769 0.00011316 0.00178532 0.0265729 -0.00788509 -0.00964829 0.00687992 0.000439419 3.94082e-05 0.00319852 0.0168824 0.0255695 -0.00374362 -0.0157414 -0.00113157 0.0158224 -0.00317384 -0.00457285 -0.000337451 -0.00962205 0.00618032 0.0172702 0.0270946 0.00349357 0.0115651 0.000874767 0.00926082 -0.0018613
internal_weight=862.302 850.632 818.149 787.112 651.806 32.4833 135.306 128.928 22.1658 589.301 581.641 317.257 45.0518 34.4694 264.383 46.267 218.116 22.6451 195.471 186.134 127.372 52.4336 74.9381 34.2339 23.6724 16.0767 22.7828 272.206 66.5114 205.694
internal_count=4166 4105 3956 3799 3134 149 665 634 107 2841 2805 1524 213 163 1281 227 1054 108 946 901 616 254 362 165 114 77 108 1311 318 993
is_linear=0
shrinkage=0.03


Tree=10
num_leaves=31
num_cat=0
split_feature=46 47 48 46 48 16 21 43 10 39 18 26 8 14 2 9 11 46 46 2 51 42 1 42 2 30 14 4 15 37
split_gain=33.3336 22.0401 18.2144 17.9731 18.4214 12.6709 11.8222 10.8331 10.715 11.5519 12.6419 10.3845 9.91631 10.0478 9.77024 12.5328 9.28391 8.79146 8.75995 8.82895 8.6712 7.9643 7.69769 11.331 7.54521 16.3357 9.43314 7.48049 7.55238 7.36999
threshold=1.4976439476013186 0.34039017558097845 0.38875064253807073 1.739053547382355 0.37155675888061529 0.028133961372077469 0.27317047119140631 0.4354334175586701 0.22588399052619937 67.850002288818374 0.28811612725257879 0.067722812294960036 0.30309887230396276 0.42841614782810217 0.060523865744471557 0.14616342633962634 0.30524286627769476 1.4158041477203371 1.5781662464141848 0.082098938524723067 5.5000000000000009 0.71340247988700878 0.076891962438821806 0.68593364953994762 0.07324154302477838 2.5000000000000004 0.3830364346504212 0.034351745620369918 0.018105401657521728 105.50000000000001
decision_type=2 2 2 2 2 2 2 2 2 2 2 2 2 2 2 2 2 2 2 2 2 2 2 2 2 2 2 2 2 2
left_child=1 5 3 4 7 17 8 29 14 22 -11 12 13 -9 15 -7 -14 -1 19 -13 -16 24 -10 -24 25 -22 -26 28 -20 -2
right_child=2 -3 -4 -5 -6 6 -8 11 9 10 -12 18 16 -15 20 -17 -18 -19 27 -21 21 -23 23 -25 26 -27 -28 -29 -30 -31
leaf_value=-0.012020088445864099 0.015821045126042009 -0.01560110564794254 -0.030172922601037294 0.040542309035198683 -0.013628857636565756 0.025478296863730956 -0.012367856084248306 0.01038332190657988 0.042147511319727778 0.008631658579101753 -0.030100729925156087 -0.013816048816200273 -0.024266480970487947 0.04032077724605955 0.034806416042794587 -0.01591300018893831 0.02118582106639497 0.0015350852951257711 0.025477997339121029 0.0094913993821668496 -0.0090657176739935025 -0.018054381914528923 -0.011669040631054332 0.029871230087160756 0.023793523372568025 0.036840744228974008 -0.01147216796092255 0.025553189974678463 -0.010736621012115297 0.043404528582925962
leaf_weight=118.76116999983788 29.936440825462341 113.1107696890831 9.2114120721816999 16.105077624320984 28.624443754553795 6.6500346213579169 39.620768859982491 21.403951734304428 13.911573454737661 89.953359991312027 7.2844354957342139 37.671441346406937 7.6369560211896879 20.170600473880768 7.2766888737678519 48.688016891479492 6.6064693927764893 66.632092073559761 6.5059348046779659 22.573910906910896 11.131194412708284 13.049358129501341 9.1482196152210253 13.595182433724402 8.1678192615509015 16.156058117747307 25.713232725858688 19.789797767996788 15.735449537634848 12.953738048672674
leaf_count=580 137 572 49 71 144 32 193 100 66 429 35 180 36 94 35 238 31 322 30 107 54 63 44 65 39 78 125 91 73 61
internal_value=9.89546e-05 -0.00371275 0.0091874 0.0107854 0.0085249 -0.000971263 0.0027309 0.0117393 0.00498351 0.0109847 0.00543794 0.00800195 0.0182918 0.0255491 -0.000914924 -0.0105484 -0.00307931 -0.00715809 0.00224894 -0.00504589 0.00565699 0.00235433 0.025124 0.0133113 0.00695274 0.0184028 -0.00248914 0.0126141 0.000432591 0.0249851
internal_weight=863.776 608.85 254.926 245.714 229.609 495.739 310.346 200.985 270.725 133.893 97.2378 158.095 55.818 41.5746 136.832 55.3381 14.2434 185.393 102.277 60.2454 81.4944 74.2177 36.655 22.7434 61.1683 27.2873 33.8811 42.0312 22.2414 42.8902
internal_count=4174 2970 1204 1155 1084 2398 1496 940 1303 639 464 742 261 194 664 270 67 902 481 287 394 359 175 109 296 132 164 194 103 198
is_linear=0
shrinkage=0.03


Tree=11
num_leaves=31
num_cat=0
split_feature=46 47 48 46 48 48 21 4 22 43 34 37 26 47 46 45 32 48 46 2 22 34 50 14 28 12 14 9 4 29
split_gain=31.3828 20.9552 17.3324 16.6903 17.3497 12.1566 11.2899 13.8932 10.2094 10.0635 11.9161 9.75103 9.68783 8.97967 10.7814 10.4879 10.4919 9.62619 8.24402 8.35569 7.94136 7.77277 7.44354 7.46647 8.93791 7.41548 11.2829 7.41409 7.87212 7.0839
threshold=1.4976439476013186 0.34039017558097845 0.38875064253807073 1.739053547382355 0.37155675888061529 0.30220277607440954 0.27317047119140631 0.0460240375250578 0.064583335071802153 0.4354334175586701 52.500000000000007 105.50000000000001 0.067722812294960036 0.31842809915542608 1.4052636623382571 0.33193895220756536 6.5000000000000009 0.34078550338745123 1.5781662464141848 0.082098938524723067 0.093073595315217986 45.500000000000007 0.036559108644723899 0.47324837744235998 0.24274006485939029 0.70659971237182628 0.41332408785820013 0.16331581771373752 0.036271970719099052 1.0716899037361147
decision_type=2 2 2 2 2 2 2 2 2 2 2 2 2 2 2 2 2 2 2 2 2 2 2 2 2 2 2 2 2 2
left_child=1 5 3 4 9 -1 7 13 -6 10 11 -2 29 25 -15 16 -16 22 19 20 -14 -9 23 24 -17 27 -27 -7 -29 -11
right_child=2 -3 -4 -5 8 6 -8 21 -10 12 -12 -13 18 14 15 17 -18 -19 -20 -21 -22 -23 -24 -25 -26 26 -28 28 -30 -31
leaf_value=-0.017983988232727517 0.021867882087409342 -0.01524671819572973 -0.029765842095104262 0.03895710746254466 -0.033217466674788525 0.022791437960380714 -0.011349383969660344 -0.0042864927101014918 0.0021606275324437068 -0.00030020459796639237 0.0074062270422697802 0.065179398105885966 -0.024886729630958844 -0.0094790708736744878 0.0024873348750717667 -0.0038052082488113734 0.041550039494562499 -0.015318057156851413 0.012211922375823775 0.0091856973059386247 0.0025901964717259789 0.025024454972059698 -0.0075356727668533345 0.030999313950827959 0.029439187207133056 0.046113151951501667 0.0022254358895849552 0.0044793193889431041 -0.019786846116180385 0.023822520075345348
leaf_weight=34.007797881960869 14.385523512959482 112.30329132080078 9.0730438381433469 16.295292392373085 11.984515592455866 13.866434410214422 62.958049923181534 10.25752818584442 16.463898196816444 14.548620432615278 21.272351458668709 7.6061833351850501 21.65285325050354 116.66916988790035 13.888476297259333 28.677230075001717 10.497281551361082 29.762746572494507 42.205603793263435 22.657404094934464 15.809436872601507 32.933388352394104 28.548243373632431 12.071725755929945 8.6533561348915082 9.2289361953735369 11.257051736116408 58.042781874537468 14.108099505305288 41.628979951143265
leaf_count=165 65 572 49 71 61 67 309 49 83 68 98 35 104 569 67 138 50 146 194 107 76 155 138 57 41 44 54 281 68 193
internal_value=0.000101222 -0.00360636 0.00890271 0.0104465 0.0082622 -0.000939308 0.000349856 0.0022259 -0.0133141 0.0113624 0.024068 0.0390965 0.00775584 0.000247721 -0.00286893 0.0029852 0.020336 -0.00108007 0.00218937 -0.00490686 -0.0134863 0.0180899 0.00446238 0.0114374 0.00442881 0.00750045 0.0232927 0.00349766 -0.000450714 0.0176531
internal_weight=863.315 607.732 255.584 246.511 230.215 495.428 461.42 398.462 28.4484 201.767 43.2641 21.9917 158.503 355.272 248.768 132.099 24.3858 107.713 102.325 60.1197 37.4623 43.1909 77.9506 49.4023 37.3306 106.503 20.486 86.0173 72.1509 56.1776
internal_count=4174 2970 1204 1155 1084 2398 2233 1924 144 940 198 100 742 1720 1206 637 117 520 481 287 180 204 374 236 179 514 98 416 349 261
is_linear=0
shrinkage=0.03


Tree=12
num_leaves=31
num_cat=0
split_feature=46 47 48 46 48 16 18 48 48 51 0 2 36 20 29 29 46 34 2 50 42 46 9 49 47 8 0 19 18 21
split_gain=29.5201 19.9278 16.4947 15.5294 16.3646 11.8236 10.9456 10.9382 10.4491 11.7383 10.0646 10.5013 10.4552 9.5412 8.95574 16.406 8.12221 9.67522 8.56744 7.72395 7.54295 7.95751 8.87171 8.07002 7.80673 7.35743 7.12809 7.12714 7.06674 7.50507
threshold=1.4976439476013186 0.34039017558097845 0.38875064253807073 1.739053547382355 0.37155675888061529 0.028133961372077469 0.28811612725257879 0.30220277607440954 0.33674159646034246 11.500000000000002 93.469047546386733 0.050765326246619231 93.500000000000014 0.28141087293624883 1.3000887632369997 1.4269695878028872 1.4158041477203371 57.500000000000007 0.088742591440677657 0.036244036629796035 0.71993601322174083 1.406312167644501 0.11167800426483156 0.32308436930179601 0.30885104835033422 0.18161705881357196 92.376976013183608 0.23502510786056521 0.22116465121507647 0.23811925202608111
decision_type=2 2 2 2 2 2 2 2 2 2 2 2 2 2 2 2 2 2 2 2 2 2 2 2 2 2 2 2 2 2
left_child=1 5 3 4 10 16 7 -7 20 -10 13 -12 -13 -2 -15 -16 17 18 26 28 21 22 -9 -24 -25 -14 -1 -3 -18 -30
right_child=2 27 -4 -5 -6 6 -8 8 9 -11 11 12 25 14 15 -17 19 -19 -20 -21 -22 -23 23 24 -26 -27 -28 -29 29 -31
leaf_value=0.009761343683151744 0 0.013198359180799861 -0.029368237247739508 0.037474700796621095 -0.013022318967238537 -0.01714418667968691 -0.014329809633712427 0.037027380418302613 0.021606081767460383 -0.0097289923460964853 0.022208180191348695 -0.026664386233346483 0.024395176295342984 0.034534505617620677 -0.0082932953868926039 0.028057703369188385 -0.005871675523440493 -0.021202724570371832 0.020097988265844753 -0.010994962114561954 -0.011124999421831632 0.020968922028307017 0.017894489380658452 0.019579074675702298 -0.0037609647004383218 -0.00072071659763694475 -0.014571220405321652 -0.016856310252078108 0.035117414633311736 0.0024026556377852253
leaf_weight=13.589593693614004 21.118132561445236 6.836825653910636 8.9356294572353345 16.468528121709824 28.280206486582756 18.564544171094894 29.764161109924316 7.372868299484252 12.247367337346075 56.38528399169445 22.254990756511688 10.904392749071119 11.715215265750883 32.594974771142006 18.114942222833633 26.504431411623955 15.734945625066755 51.741688549518585 10.245745122432707 26.172554060816765 13.713188871741293 53.325777381658554 30.840697377920151 14.588087528944014 73.680944323539734 59.303588733077049 42.325630411505699 104.67260801792145 12.189542174339296 12.606956943869589
leaf_count=66 98 34 49 71 144 90 146 35 59 274 103 52 53 150 85 122 76 255 50 127 66 252 148 70 356 277 209 538 58 61
internal_value=0.000103294 -0.00350125 0.00862411 0.0101159 0.00800395 -0.000906161 0.00266389 0.00451549 0.00611435 -0.00388578 0.0109972 0.00441399 -0.000611351 0.0178419 0.0226732 0.0134085 -0.00690057 -0.0116031 -0.00386946 0.00143791 0.00967037 0.0113174 0.00710392 0.00494632 0.000255721 0.00368276 -0.0085635 -0.0148993 0.00957379 0.0192807
internal_weight=862.794 606.599 256.195 247.259 230.791 495.09 310.483 280.719 262.154 68.6327 202.511 104.178 81.9232 98.3325 77.2143 44.6194 184.607 117.903 66.161 66.704 193.522 179.808 126.483 119.11 88.269 71.0188 55.9152 111.509 40.5314 24.7965
internal_count=4174 2970 1204 1155 1084 2398 1496 1350 1260 333 940 485 382 455 357 207 902 580 325 322 927 861 609 574 426 330 275 572 195 119
is_linear=0
shrinkage=0.03


Tree=13
num_leaves=31
num_cat=0
split_feature=37 47 43 1 8 4 50 14 39 40 47 48 16 6 7 25 37 42 49 47 45 16 40 9 6 40 20 6 14 7
split_gain=16.3489 12.7038 18.6857 12.0813 11.1956 9.35234 9.23006 8.03058 7.61471 8.62053 8.58504 9.76626 8.94072 10.2842 9.71994 8.11956 7.51754 7.36423 7.28097 8.57842 12.0454 10.933 8.48673 8.00415 7.96296 7.75286 7.27665 7.19953 8.49079 7.18529
threshold=105.50000000000001 0.36826056241989141 0.50197938084602367 0.032345248386263854 0.36402158439159399 0.032956935465335853 0.039259329438209541 0.41888353228569036 83.950000762939467 65.450000762939467 0.33506292104721075 0.30094116926193243 0.026691963896155361 0.036641305312514312 0.016997303813695911 10.500000000000002 98.000000000000014 0.71284106373786937 0.33937032520771032 0.33842611312866216 0.3396784663200379 0.02993062045425177 50.850000381469734 0.31660671532154089 0.091704893857240691 55.850000381469734 0.30707232654094702 0.079402167350053801 0.42644652724266058 0.08179993182420732
decision_type=2 2 2 2 2 2 2 2 2 2 2 2 2 2 2 2 2 2 2 2 2 2 2 2 2 2 2 2 2 2
left_child=1 2 3 5 6 -1 8 -4 10 -10 11 -5 13 -13 26 27 -17 -16 19 20 22 -22 -2 -21 25 -20 -15 -14 -29 -12
right_child=18 -3 7 4 -6 -7 -8 -9 9 -11 29 12 15 14 17 16 -18 -19 24 23 21 -23 -24 -25 -26 -27 -28 28 -30 -31
leaf_value=0.00090409408118999638 0.020921475462260475 -0.027130577510936685 0.0029610051551794215 -0.018042901366248337 -0.017263674408977355 0.041265767034478665 -0.0095491674269539382 0.035110246687041144 0.034881375055135375 0.0041335092827489072 -0.0082812108667163625 -0.032223236690156629 0.010596647756230353 0.022563613694399264 -0.014419375190207952 0.034456777958645664 0.0042529815962305843 0.013010752237187976 0.008978586519371206 -0.010248983640067877 0.044234939073916908 0.005213004864135431 -0.0055489322597981018 0.02098905901024533 -0.0010936908273606312 0.050661896538464056 -0.0080002904187939997 0.0048485260786150959 -0.01612061668532655 0.019438399844172817
leaf_weight=10.95243386924267 15.124193131923674 16.329895928502083 12.110039144754412 19.668396502733231 44.276282623410225 8.9953454881906492 111.48245802521706 16.606037318706512 9.9670142829418165 34.581951290369034 151.78557024896145 9.5416272729635221 77.85579539835453 20.163994237780575 40.292391836643219 16.173292934894565 13.835550069808958 10.300881713628767 7.3038995712995591 36.810859695076942 14.944258645176889 11.5287888944149 32.652410909533501 8.1810442507266981 7.9487812817096701 9.9595751017332059 9.766315817832945 49.760230883955956 25.419114023447037 7.9438802599906913
leaf_count=53 72 88 54 97 218 42 542 75 48 164 757 47 370 96 196 77 66 48 35 180 68 54 158 40 38 47 47 236 122 39
internal_value=0.000103129 -0.00175133 -0.0011206 -0.00214789 -0.0028654 0.0202776 -0.00178874 0.0221588 -2.94976e-05 0.0116605 -0.00120685 0.0018418 0.0033399 -0.00435578 -0.000680478 0.00713774 0.021166 -0.00866155 0.00927713 0.00605358 0.012262 0.0281041 0.00305694 -0.00420338 0.0236532 0.0345657 0.0126058 0.00425765 -0.00234027 -0.00678093
internal_weight=862.262 717.808 701.479 672.763 652.815 19.9478 608.538 28.7161 497.056 44.549 452.507 292.778 273.109 90.0652 80.5236 183.044 30.0088 50.5933 144.454 119.242 74.2497 26.473 47.7766 44.9919 25.2123 17.2635 29.9303 153.035 75.1793 159.729
internal_count=4174 3482 3394 3265 3170 95 2952 129 2410 212 2198 1402 1305 434 387 871 143 244 692 572 352 122 230 220 120 82 143 728 358 796
is_linear=0
shrinkage=0.03


Tree=14
num_leaves=31
num_cat=0
split_feature=46 33 16 44 46 25 43 50 3 10 8 46 13 28 10 20 10 0 4 1 27 19 1 8 14 16 33 28 6 13
split_gain=27.3272 13.2578 9.6849 13.4018 14.6985 9.04847 8.90867 10.2264 10.178 10.007 9.18074 8.56679 9.68528 8.51008 9.13996 8.43217 8.13827 7.80807 7.66777 7.54934 8.86875 9.98552 10.7282 7.61432 7.56993 7.37731 10.2589 9.16931 7.31214 7.09887
threshold=1.4976439476013186 817.50000000000011 0.027787429280579094 0.21283560991287234 1.4158041477203371 5.5000000000000009 0.38633382320404058 0.037602603435516364 0.090629722923040404 0.20325741171836856 0.21064432710409167 1.3487425446510317 41.500000000000007 0.14966513961553576 0.22738043963909152 0.31082575023174291 0.39871795475482946 91.812168121337905 0.044126920402050025 0.029530679807066921 0.031590828672051437 0.28820538520812994 0.10102051496505739 0.33004279434680944 0.52397373318672191 0.024468681775033477 530.00000000000011 0.21020917594432834 0.10420059412717821 22.500000000000004
decision_type=2 2 2 2 2 2 2 2 2 2 2 2 2 2 2 2 2 2 2 2 2 2 2 2 2 2 2 2 2 2
left_child=2 16 19 4 6 -3 7 8 9 -4 -9 -8 -13 -5 17 -6 -2 -15 -19 -1 21 -21 23 24 25 27 -27 29 -16 -23
right_child=1 5 3 13 15 -7 11 10 -10 -11 -12 12 -14 14 28 -17 -18 18 -20 20 -22 22 -24 -25 -26 26 -28 -29 -30 -31
leaf_value=0.021988667673296651 0.0065661787505541776 0.0025959010294260673 -0.0060719549783372975 0.014261416017686813 0.0063566339631859177 0.032100326398377246 -0.02793041104574406 0.013413054706508188 -0.0091676365590078156 0.023181361831824392 -0.019446080635330376 0.0026530319093232041 -0.021294607702202342 0.0024973805680179729 -0.0078578745106970913 0.033983965836886579 -0.018331395971612274 -0.028982484918353708 0.0042687061071283259 -0.018392759596263849 -0.019575499829555035 0.020776235640228666 -0.013163747235478172 -0.023264608308625593 -0.0079841842597187813 -0.023948477696960853 0.022448578502801884 0.034929331101244437 0.015947275830885375 -0.019183837780613961
leaf_weight=6.1536766141653052 201.30469055473804 13.808337911963461 12.674391880631445 13.004776760935782 21.207400694489479 30.119504183530807 12.919373348355291 10.912288248538973 15.66755437850952 50.577803134918213 20.68232424557209 69.394501462578773 18.381700098514557 12.079463392496107 50.804768264293671 19.021797224879265 11.568370997905729 40.972273036837578 6.9636195451021186 39.727478608489037 56.136691376566887 8.1319630146026594 41.001484394073486 6.3491075336933127 16.939159616827965 8.2192423194646818 7.0180187821388236 20.042013868689537 13.965009227395056 6.1233074367046347
leaf_count=30 950 63 62 64 102 136 64 52 76 243 101 339 90 60 249 91 55 206 34 199 278 39 207 32 83 41 34 97 67 30
internal_value=0.000106105 0.0082888 -0.00337222 -0.000536094 0.00357828 0.0231235 0.000370928 0.00623198 0.0119722 0.017293 -0.0079877 -0.00604491 -0.00252846 -0.00802651 -0.0104561 0.0199636 0.00512675 -0.0187953 -0.0241329 -0.00845364 -0.00945427 -0.00564164 -0.0010567 0.00582559 0.00892993 0.0147872 -0.00241997 0.0223263 -0.00253801 0.00338083
internal_weight=861.872 256.801 605.071 389.229 251.439 43.9278 211.21 110.514 78.9197 63.2522 31.5946 100.696 87.7762 137.79 124.785 40.2292 212.873 60.0154 47.9359 215.842 209.688 153.552 113.824 72.8228 66.4737 49.5345 15.2373 34.2973 64.7698 14.2553
internal_count=4174 1204 2970 1900 1220 199 1027 534 381 305 153 493 429 680 616 193 1005 300 240 1070 1040 762 563 356 324 241 75 166 316 69
is_linear=0
shrinkage=0.03


Tree=15
num_leaves=31
num_cat=0
split_feature=46 8 44 28 11 11 8 4 39 49 33 28 5 46 1 11 41 20 1 14 29 14 0 4 36 28 11 10 7 23
split_gain=25.2212 11.7298 11.0413 8.79089 12.7348 15.1782 10.5378 9.23932 8.71224 8.17513 7.95012 7.88498 8.03475 7.86034 10.0503 8.73708 7.606 8.16753 7.57708 6.79547 10.7109 7.85467 6.77598 9.65875 6.73385 7.09687 7.904 7.60975 7.0808 7.25141
threshold=1.4976439476013186 0.38501602411270147 0.230090506374836 0.21729293465614322 0.2219071835279465 0.23999281227588656 0.28094530105590826 0.02381811942905188 75.350002288818374 0.32883484661579138 597.50000000000011 0.13063795119524005 0.21431857347488406 1.5611872076988222 0.084725823253393187 0.18967870622873309 5.3500001430511483 0.30333761870861059 0.085010122507810607 0.42594702541828161 1.4064444899559023 0.48542401194572454 93.579174041748061 0.030969421379268173 92.500000000000014 0.30172057449817663 0.29457321763038641 0.26418928802013403 0.052263194695115096 0.26969698071479803
decision_type=2 2 2 2 2 2 2 2 2 2 2 2 2 2 2 2 2 2 2 2 2 2 2 2 2 2 2 2 2 2
left_child=3 2 22 9 -5 6 8 -7 16 10 11 -1 -13 15 -15 -4 -6 -18 -17 -16 21 -21 -2 -24 -9 26 28 -27 29 -26
right_child=1 -3 13 4 5 7 -8 24 -10 -11 -12 12 -14 14 19 18 17 -19 -20 20 -22 -23 23 -25 25 27 -28 -29 -30 -31
leaf_value=0.025325807182079323 0.03816217396841786 -0.01855060814639909 0.018072249358631505 -0.018092556231255375 -0.013292820607426621 -0.0192688990873351 -0.020282553386573279 0.0071231189940472008 0.039501829149375819 -0.0034873698312248673 0.015627350286612579 -0.0090435208919309729 0.015399046322883945 0.003987259694258994 0.0097875570187507498 0.0036498312375516755 -0.0017205335024069429 0.036735630653260486 -0.016520998050846867 0.058165582846340026 0.0078944956500621843 0.014292100089926291 0.031413348948719957 -0.015252543804184088 0.0030389217108572949 -0.015660819797320879 -0.021457861171755292 0.019474480223151628 0.01805812917983014 -0.020180105763294275
leaf_weight=8.8768531829118711 17.465534418821338 12.991573661565779 18.01375512778759 65.501878961920738 8.8892826884984988 41.495297059416771 6.723623275756835 39.512650355696678 11.178655624389647 170.41670352220535 50.597206622362137 51.076368898153305 14.772444322705267 70.102695524692535 29.184460088610649 38.638862431049347 8.9708646684885043 9.7261770069599134 28.109795689582825 11.957174584269529 12.480142802000044 6.4116491973400107 7.3592792451381666 6.7372986525297165 23.720554247498512 7.4874819517135647 36.379028126597404 15.251876354217528 10.087856963276861 23.055062025785446
leaf_count=43 79 62 84 326 44 209 34 195 54 834 244 251 72 328 136 182 44 47 135 55 59 30 33 31 116 37 180 75 49 114
internal_value=0.000447185 0.00825307 0.00974128 -0.00291306 -0.00645247 -0.00324052 0.0121932 -0.00685562 0.0182321 0.000777114 0.00656962 0.000291396 -0.00338934 0.00722478 0.011827 8.59771e-05 0.00848032 0.0190576 -0.00494102 0.0207418 0.0304251 0.0444575 0.0260814 0.00947761 -0.00343147 -0.00707017 -0.010724 0.00766979 -0.00357884 -0.00855687
internal_weight=863.172 259.452 246.461 603.72 307.98 242.478 45.4886 196.99 38.765 295.74 125.323 74.7257 65.8488 214.899 130.136 84.7624 27.5863 18.697 66.7487 60.0334 30.849 18.3688 31.5621 14.0966 155.495 115.982 93.2425 22.7394 56.8635 46.7756
internal_count=4182 1214 1152 2968 1524 1198 223 975 189 1444 610 366 323 1009 608 401 135 91 317 280 144 85 143 64 766 571 459 112 279 230
is_linear=0
shrinkage=0.03


Tree=16
num_leaves=31
num_cat=0
split_feature=46 47 48 26 15 33 46 46 0 4 34 4 44 30 45 21 36 17 17 36 19 34 34 29 26 29 47 48 11 13
split_gain=23.754 16.1584 13.7127 13.8577 10.5042 9.45532 12.3498 9.15037 14.4098 8.85149 8.76723 10.4942 8.75772 8.11154 7.95009 7.85545 7.81634 10.8836 10.2282 7.71683 7.65216 11.8144 8.42439 7.31648 8.65011 7.10562 7.04888 12.9918 6.97702 6.71595
threshold=1.4976439476013186 0.33302892744541174 0.3700233399868012 0.06371870264410974 0.026985316537320617 352.50000000000006 1.4490201473236086 1.55197149515152 93.469047546386733 0.054207595065236099 70.500000000000014 0.027344963513314727 0.25159102678298956 1.5000000000000002 0.32505773007869726 0.22942973673343661 102.50000000000001 0.25416804850101476 0.19128975272178653 93.500000000000014 0.34248287975788122 52.500000000000007 61.500000000000007 1.2590938806533816 0.067924026399850859 1.1705313920974734 0.32706011831760412 0.32588726282119757 0.22367120534181598 25.500000000000004
decision_type=2 2 2 2 2 2 2 2 2 2 2 2 2 2 2 2 2 2 2 2 2 2 2 2 2 2 2 2 2 2
left_child=1 4 7 -4 25 6 -6 8 20 14 19 -12 13 -10 15 28 17 18 -5 -9 21 -2 -23 -7 -25 -1 27 -26 -3 -15
right_child=2 9 3 16 5 23 -8 10 12 -11 11 -13 -14 29 -16 -17 -18 -19 -20 -21 -22 22 -24 24 26 -27 -28 -29 -30 -31
leaf_value=-0.015548598770643506 0.037021109799580627 -0.00072586247611602212 -0.029134628778902608 -0.0011308984576155381 0.0060329485870898028 -0.0098336912100680431 0.031422239593443251 -0.012457106559868182 -0.019249996067462811 0.017781483603181006 0.063011788938162588 0.017244690036602155 -0.033847350945068647 -0.00029556657154637071 -0.013709585488986192 -0.014991645810058277 -0.011281466558935282 -0.016333863576722785 0.045947867392467631 0.016052347388945148 -0.0080312679988751041 -0.021610542859843176 0.018710925997748696 0.019659520671099232 -0.0052911061606176462 -0.0013173700052347091 -0.021787723543618191 0.030138985252754106 0.034315978944892717 0.03142046619881142
leaf_weight=43.285158947110176 20.782609179615974 11.881906524300577 14.793837845325468 6.6207889467477861 89.904935672879219 49.545215487480164 20.641831487417221 8.7707816511392576 13.440632760524748 9.181092903017996 6.876575946807864 13.574027523398398 7.61941173672676 22.728949666023258 163.36132456362247 13.007791534066198 16.333812728524208 6.2861989587545386 9.6764220893383008 78.803147852420807 8.7072385698556882 6.431224629282954 11.533684715628622 23.40141449868679 36.32165789604187 111.7563887834549 11.333949238061903 11.415499702095984 7.8192598670721045 7.1153496950864783
leaf_count=217 95 60 76 33 434 243 96 40 64 45 31 61 37 106 837 65 83 31 45 355 41 30 53 110 175 538 55 54 39 33
internal_value=0.000438474 -0.0028293 0.00800021 -0.00540603 0.000699961 0.00459477 0.0110264 0.0115056 0.00479198 -0.00964357 0.0175048 0.034924 -0.00622784 -0.000677602 -0.0110191 0.00238189 0.00408039 0.0152619 0.0277756 0.0130717 0.0165284 0.0221483 0.00381884 -0.000821972 0.00462678 -0.0053743 -0.0015317 0.00359516 0.0140954 0.00799093
internal_weight=862.952 602.857 260.095 53.7111 397.606 242.565 110.547 206.384 98.3591 205.251 108.025 20.4506 50.9043 43.2849 196.07 32.709 38.9172 22.5834 16.2972 87.5739 47.4548 38.7475 17.9649 132.018 82.4725 155.042 59.0711 47.7372 19.7012 29.8443
internal_count=4182 2968 1214 268 1922 1167 530 946 459 1046 487 92 240 203 1001 164 192 109 78 395 219 178 83 637 394 755 284 229 99 139
is_linear=0
shrinkage=0.03


Tree=17
num_leaves=31
num_cat=0
split_feature=46 48 26 9 11 17 10 0 46 6 40 51 1 2 36 32 34 18 11 36 17 17 17 33 43 10 38 26 51 10
split_gain=22.3379 12.8809 13.2662 8.91725 10.8453 9.35341 9.09432 8.59291 14.5725 10.4275 9.07467 8.38157 8.0905 7.96447 8.42628 8.20177 7.46606 10.271 7.40593 7.36887 10.2293 9.47225 7.35841 7.28612 7.3289 7.52197 6.86641 6.67256 8.08938 8.70409
threshold=1.4976439476013186 0.3700233399868012 0.06371870264410974 0.22998257726430896 0.26411956548690801 0.22626085579395297 0.22738043963909152 93.469047546386733 1.5541149377822878 0.069057226181030287 53.850000381469734 16.500000000000004 0.1015341840684414 0.09983216226100923 90.500000000000014 4.5000000000000009 77.500000000000014 0.18197625875473025 0.21350378543138507 102.50000000000001 0.25416804850101476 0.19128975272178653 0.20975568145513537 630.00000000000011 0.36751131713390356 0.20538127422332766 0.15000000223517421 0.055286506190896041 19.500000000000004 0.23040345311164859
decision_type=2 2 2 2 2 2 2 2 2 2 2 2 2 2 2 2 2 2 2 2 2 2 2 2 2 2 2 2 2 2
left_child=3 7 -3 5 22 16 -6 10 9 11 -2 -9 -12 14 -8 -16 23 -18 -7 20 21 -4 26 24 25 -1 -5 -25 29 -29
right_child=1 2 19 4 6 18 13 8 -10 -11 12 -13 -14 -15 15 -17 17 -19 -20 -21 -22 -23 -24 27 -26 -27 -28 28 -30 -31
leaf_value=-0.014762937085695791 0.00059912535837114498 -0.028680400172913477 -0.0011018908752063034 0.0090338368524368294 -0.021326635010745058 -0.028549455280981233 0.014943115727080056 -0.013914693410811904 0.015766660251803663 -0.017757204964303702 0.027083379817609676 0.021514948679802602 0.0016639625783803689 0.022930093313010581 0.012129214000994346 -0.011064476599375209 -0.015905516162502454 0.018394459385359194 -0.0087863617847344557 -0.011016345901768837 -0.016004409410557998 0.044081460868880061 0.003997307589017788 0.02350878955196992 -0.010794450037451948 0.021566497428485987 0.040575139369368331 0.040684129050185661 -0.0087315794811261074 -0.0066360860769037085
leaf_weight=7.2566517144441631 22.258228942751884 14.596137270331381 6.6176051646471086 16.723843947052959 22.026408687233925 23.240650981664658 18.100071340799332 8.6617510914802569 56.256602093577385 29.144030958414078 61.547089859843254 15.151816651225088 14.067440271377562 10.587721496820448 15.794987320899962 75.519791901111603 9.8911245316266996 27.820739343762398 64.484375506639481 16.250443041324615 6.2443585395812979 9.8235601186752302 88.49188919365406 11.388944923877714 141.06636774539948 12.761994853615759 9.8704821765422803 6.3519717901945096 34.416682928800583 6.1259438246488571
leaf_count=36 101 76 33 82 111 117 89 41 254 139 277 70 64 51 78 375 49 136 319 83 31 45 432 55 699 62 47 31 169 30
internal_value=0.000428097 0.00774971 -0.00527318 -0.00274712 0.00147421 -0.00589439 -0.00405439 0.0111325 0.00525374 -0.00597151 0.0175578 0.00852619 0.0224573 -0.000721632 -0.00321086 -0.00694842 -0.00297537 0.00918098 -0.0143018 0.00396249 0.0147678 0.0267886 0.00828619 -0.00510416 -0.00838216 0.00825008 0.0218409 0.00391889 -0.00119895 0.0185726
internal_weight=862.54 260.619 53.5321 601.921 257.115 344.805 142.029 207.087 109.214 52.9576 97.8728 23.8136 75.6145 120.003 109.415 91.3148 257.08 37.7119 87.725 38.936 22.6855 16.4412 115.086 219.369 161.085 20.0186 26.5943 58.2835 46.8946 12.4779
internal_count=4182 1214 268 2968 1265 1703 704 946 504 250 442 111 341 593 542 453 1267 185 436 192 109 78 561 1082 797 98 129 285 230 61
is_linear=0
shrinkage=0.03


Tree=18
num_leaves=31
num_cat=0
split_feature=46 47 47 11 51 48 47 29 4 4 25 14 39 17 45 46 17 47 3 1 17 2 46 48 26 3 19 11 11 0
split_gain=20.9817 15.2086 12.1183 10.0989 9.49154 9.0695 8.80917 8.68383 8.79934 8.38047 7.98103 7.85146 7.82552 7.55921 7.46303 7.75027 8.08002 7.27511 6.86332 6.74767 9.08893 8.12169 6.71188 9.46747 7.99187 6.60933 6.91671 6.38279 6.26337 5.99314
threshold=1.4976439476013186 0.33302892744541174 0.33506292104721075 0.22500093281269076 10.500000000000002 0.30094116926193243 0.3305638730525971 1.1584585905075075 0.02518438640981913 0.054207595065236099 22.500000000000004 0.37214058637619024 71.450000762939467 0.1929903253912926 0.32505773007869726 1.3791412711143496 0.2450702637434006 0.3267305195331574 0.088909056037664427 0.10102051496505739 0.1596823334693909 0.049524812027812011 1.5541149377822878 0.3700233399868012 0.064132660627365126 0.08462791889905931 0.31499235332012182 0.14667670428752902 0.22367120534181598 91.955223083496108
decision_type=2 2 2 2 2 2 2 2 2 2 2 2 2 2 2 2 2 2 2 2 2 2 2 2 2 2 2 2 2 2
left_child=1 5 4 11 -2 25 -6 8 -7 14 22 -4 -13 -14 15 16 28 -10 -15 20 27 -22 -5 -24 -25 -1 -27 -9 -3 -16
right_child=2 9 3 10 6 7 -8 19 17 -11 -12 12 13 18 29 -17 -18 -19 -20 -21 21 -23 23 24 -26 26 -28 -29 -30 -31
leaf_value=-0.029022733332293427 0.0043883734462265593 -0.0085336005117554632 -0.007617556881572762 -0.015238761671431194 0.011946755487906994 -0.021566600456240453 0.038346368735877587 0.00082768335238131712 0.0070231840045349376 0.017299209369006148 0.027519244133054916 0.031283955284802656 -0.0041260125662680698 0.034431906864489409 -0.0023445185581249146 0.029881833555283437 -0.025799962976535196 -0.016366116038274602 -0.00032551905837426915 -0.0034949681015078384 -0.0089816008824388244 0.0074943472562424961 0.010360311669581483 -0.033335896081316332 0.00034302625380866616 0.0209635431058246 -0.019944105097833221 0.034553670667400359 0.026199449649974327 -0.016346427618835559
leaf_weight=14.25706695020199 32.487043380737305 9.4790542870760017 14.974237084388731 35.847379073500633 24.063011676073074 23.900833114981651 23.549104809761047 7.4096947163343456 38.561983272433281 9.2351509630680066 6.2537459135055533 19.709069550037384 21.211354047060013 12.11118106544018 35.923328191041946 6.2479786872863761 9.4938308149576169 16.159766167402267 8.2123044431209546 72.44925631582737 31.207962885499001 164.4317552447319 37.424678206443787 9.4692686200141925 15.811892509460447 6.3068011254072172 6.5771440267562866 15.879499822854994 7.5146100223064414 126.0409175157547
leaf_count=71 144 48 70 174 107 121 104 35 192 45 29 92 100 56 185 31 48 81 38 356 149 780 171 51 78 31 33 73 37 652
internal_value=0.000417379 -0.00266561 0.00750288 0.00315584 0.0171487 0.000754183 0.0255552 0.00200139 -0.00678217 -0.00930381 -0.00287348 0.011396 0.0161166 0.00831788 -0.0106553 0.002312 -0.00498723 -2.66976e-05 0.0209602 0.00439168 0.00701242 0.00482621 -0.00507419 0.000861085 -0.0130031 -0.015662 4.01243e-05 0.024361 0.00734448 -0.0132835
internal_weight=862.201 601.077 261.124 181.025 80.0992 397.142 47.6121 370.001 78.6226 203.935 104.807 76.2181 61.2439 41.5348 194.7 32.7355 26.4875 54.7217 20.3235 291.378 218.929 195.64 98.5532 62.7058 25.2812 27.141 12.8839 23.2892 16.9937 161.964
internal_count=4182 2968 1214 859 355 1922 211 1787 394 1046 503 356 286 194 1001 164 133 273 94 1393 1037 929 474 300 129 135 64 108 85 837
is_linear=0
shrinkage=0.03


Tree=19
num_leaves=31
num_cat=0
split_feature=46 47 47 8 15 49 46 44 46 18 47 51 50 16 21 27 29 47 18 29 37 19 47 51 29 18 19 5 41 47
split_gain=19.7651 14.3749 11.3482 10.0706 9.68264 11.3871 11.9502 8.69038 9.74696 11.3631 9.35653 9.1469 8.48505 8.44485 8.35866 12.2173 7.87571 7.87434 7.6251 8.64042 8.71552 7.3906 7.0409 7.03247 7.01437 6.93244 6.73242 7.07815 7.05621 8.73873
threshold=1.4976439476013186 0.33302892744541174 0.36826056241989141 0.38501602411270147 0.026985316537320617 0.32655961811542517 1.3541145920753481 0.230090506374836 1.5611872076988222 0.17103157937526706 0.33506292104721075 8.5000000000000018 0.033688519150018699 0.048041492700576789 0.22997554391622546 0.031590828672051437 1.3952893614768984 0.32589171826839453 0.18251483142375949 1.2817705273628237 93.500000000000014 0.32714903354644781 0.32696996629238134 21.500000000000004 1.1705313920974734 0.25562080740928655 0.23048986494541171 0.29484626650810247 6.9500000476837167 0.35681290924549108
decision_type=2 2 2 2 2 2 2 2 2 2 2 2 2 2 2 2 2 2 2 2 2 2 2 2 2 2 2 2 2 2
left_child=1 4 3 7 13 6 25 22 10 23 -9 -11 21 24 -13 -16 -15 -8 -7 -20 -21 -12 -2 -10 -1 -6 -3 28 -28 -30
right_child=2 26 -4 -5 5 18 17 8 9 11 12 14 -14 16 15 -17 -18 -19 19 20 -22 -23 -24 -25 -26 -27 27 -29 29 -31
leaf_value=-0.01806873545919941 0.0032611636898241246 0.013305426851460075 -0.02019142557775867 -0.016992201057799722 -0.014508674945972912 -0.014577950370994524 0.02987570131996211 0.013877898222979473 0.010234895533361188 0.0011205132974745609 0.017810385667678275 0.032118253352481585 -0.016474331259142647 0.031851918978030892 0.027105670862311734 -0.0038197604000255346 -0.0073790772510474896 0.0066426435897619486 -0.0056862319614043163 0.034266069644023865 0.0052081779570388497 -0.017782393762574785 0.034021215798881829 -0.028537270586257792 -0.003187899148503647 0.019320460491348355 -0.014129422132902185 -0.029967187212903746 0.001053610458951381 -0.031364528902181062
leaf_weight=39.817473664879799 10.06777758896351 10.566064938902853 11.934721097350119 12.145577400922773 16.649562269449238 26.368260070681572 34.273078188300133 27.529805168509483 7.1104771643877012 26.557944223284721 15.848977342247965 36.206962689757347 33.804003909230232 9.1238390207290667 22.875794023275375 21.613947421312332 7.7894265204668036 22.34486235678196 59.996670290827751 9.9614375382661802 66.31717911362648 6.6701332777738562 21.263627499341965 7.9796665161848068 97.637195140123367 6.8969522416591635 95.209633812308311 14.488914117217062 75.442373663187027 7.2936486303806296
leaf_count=203 44 52 66 58 81 128 161 124 31 118 75 164 163 43 105 101 37 108 293 47 316 32 95 38 472 33 493 76 386 39
internal_value=0.000406658 -0.0025913 0.00727387 0.00866804 0.000728099 0.00445954 0.0136375 0.0100521 0.00772789 0.0130929 -0.000144314 0.0165184 -0.00714684 -0.00512242 0.0214918 0.0122949 0.014297 0.021007 -0.000110662 0.00276353 0.00941664 0.00689624 0.02459 -0.0106739 -0.00760874 -0.00415534 -0.00906487 -0.0103634 -0.00860022 -0.00212675
internal_weight=861.786 600.177 261.609 249.675 397.176 242.808 80.1645 237.529 206.198 122.345 83.8529 107.255 56.3231 154.368 80.6967 44.4897 16.9133 56.6179 162.644 136.275 76.2786 22.5191 31.3314 15.0901 137.455 23.5465 203.001 192.435 177.946 82.736
internal_count=4182 2968 1214 1148 1922 1167 383 1090 951 557 394 488 270 755 370 206 80 269 784 656 363 107 139 69 675 114 1046 994 918 425
is_linear=0
shrinkage=0.03


Tree=20
num_leaves=31
num_cat=0
split_feature=46 47 47 37 40 47 46 14 37 12 50 24 17 37 36 42 46 12 46 45 50 30 30 18 37 28 50 44 46 26
split_gain=21.9099 19.0566 13.388 9.17707 8.72694 8.52459 9.59749 16.2863 9.24333 9.13922 13.5989 7.63693 7.61118 7.30059 11.2188 7.58118 7.02076 7.16978 6.95015 9.61843 6.75711 7.00659 6.58243 7.09675 6.27897 9.10334 6.31632 6.20105 8.5054 5.85749
threshold=1.4810034632682803 0.33656024932861334 0.3325676172971726 98.000000000000014 72.049999237060561 0.36826056241989141 1.6584140062332156 0.35781282186508184 103.50000000000001 0.47655677795410162 0.033725691959261901 1.1666666865348818 0.24673620611429217 100.50000000000001 102.50000000000001 0.68307870626449596 1.419710159301758 0.92403846979141246 1.4387796521186831 0.32532829046249395 0.039119496941566474 2.5000000000000004 2.5000000000000004 0.24100220948457721 98.000000000000014 0.2736345529556275 0.0345701351761818 0.21224284172058108 1.4108052849769595 0.077793788164854064
decision_type=2 2 2 2 2 2 2 2 2 2 2 2 2 2 2 2 2 2 2 2 2 2 2 2 2 2 2 2 2 2
left_child=2 3 4 -2 11 6 8 -8 24 -10 -11 -1 -6 15 -15 -4 -17 -18 19 -13 21 -9 23 -5 25 26 -3 28 -16 -12
right_child=1 5 13 22 12 -7 7 20 9 10 29 18 -14 14 27 16 17 -19 -20 -21 -22 -23 -24 -25 -26 -27 -28 -29 -30 -31
leaf_value=-0.0033810816292700781 0.0011285146025602675 0.022314686815407124 0.0054162295015864493 -0.00052937736770057044 0.03226600452260836 -0.022139753597767698 -0.019025991595204784 0.046517886073921273 -0.0065086904101711376 0.042383973680563722 -0.017261601296695298 0.017591530651830681 -0.0071026829187804032 0.025473956908743937 -0.008484671406847109 -0.026419670210810358 -0.014917730110788993 0.014986854824782807 0.034711529754012274 -0.014800904751761363 -0.0033076696394849889 0.015162122174220465 0.027261020863431958 0.027787401309539096 -0.015945055258888865 -0.02647311807691706 -0.0043126787876805375 -0.015528405302107593 0.024387458114662301 0.015645582152187018
leaf_weight=317.49882265925407 29.919380828738213 13.877815470099451 13.297076940536497 21.866813480854034 11.844265833497049 13.377507910132406 9.7464580535888654 11.819955602288248 22.538819164037704 11.546919643878939 7.5590685904026058 18.386300981044773 6.1822849810123435 9.5297568291425687 20.379288375377659 48.18931619822979 42.790031999349594 7.7520806491374961 7.4573272317647925 13.371368318796156 6.6528780460357657 16.278302475810051 51.074655443429947 11.408001124858854 44.111685022711754 7.7778004556894293 16.652904331684113 38.752053588628769 9.5916749238967878 10.278384298086165
leaf_count=1546 137 67 67 98 56 74 44 51 109 53 36 87 30 49 103 250 224 40 34 64 31 73 225 51 213 39 82 201 48 48
internal_value=-0.00057193 0.00587308 -0.00407478 0.0155175 -0.000771966 8.1342e-05 0.00186571 0.0137822 -0.00214289 0.00766762 0.018447 -0.00182682 0.0190218 -0.0105335 -0.00341494 -0.0154183 -0.0182655 -0.0101001 0.0104909 0.00387163 0.0233005 0.0295493 0.0205308 0.00966252 -0.00835914 0.000521178 0.00806713 -0.00775036 0.00243479 0.00144466
internal_weight=871.509 306.487 565.022 114.269 374.74 192.218 178.841 44.4976 134.343 51.9232 29.3844 356.714 18.0266 190.281 78.2528 112.029 98.7314 50.5421 39.215 31.7577 34.7511 28.0983 84.3495 33.2748 82.4202 38.3085 30.5307 68.723 29.971 17.8375
internal_count=4230 1431 2799 511 1817 920 846 199 647 246 137 1731 86 982 401 581 514 264 185 151 155 124 374 149 401 188 149 352 151 84
is_linear=0
shrinkage=0.03


Tree=21
num_leaves=31
num_cat=0
split_feature=46 47 5 47 45 46 50 48 46 37 14 12 37 45 48 47 51 19 50 11 14 22 26 10 18 5 49 48 48 47
split_gain=20.6379 17.8682 13.2751 10.4906 10.2253 17.3283 9.56994 10.9521 11.9779 16.688 15.3416 10.9403 8.5349 8.53056 8.24505 10.461 13.4239 8.79333 12.4622 8.03969 8.01349 7.97636 7.92293 7.80911 12.1328 9.1894 8.61864 7.97754 12.0629 12.8309
threshold=1.4810034632682803 0.33506292104721075 0.26513388752937322 0.32688465714454656 0.33193895220756536 1.4108052849769595 0.039259329438209541 0.38875064253807073 1.6534398794174197 103.50000000000001 0.35781282186508184 0.47655677795410162 99.500000000000014 0.32289339601993566 0.30094116926193243 0.31842809915542608 23.500000000000004 0.31541983783245092 0.035940466448664672 0.21031654626131061 0.41381561756134039 0.060661764815449722 0.075281467288732543 0.24478425830602649 0.2668053805828095 0.21489126235246661 0.34818333387374883 0.33797080814838415 0.32191453874111181 0.33099478483200079
decision_type=2 2 2 2 2 2 2 2 2 2 2 2 2 2 2 2 2 2 2 2 2 2 2 2 2 2 2 2 2 2
left_child=2 3 4 21 5 13 7 8 9 12 -10 -11 -3 14 -1 17 22 19 20 -16 -19 -2 -17 25 27 26 -6 28 -25 -30
right_child=1 6 -4 -5 23 -7 -8 -9 10 11 -12 -13 -14 -15 15 16 -18 18 -20 -21 -22 -23 -24 24 -26 -27 -28 -29 29 -31
leaf_value=-0.015008895686210166 0.020083717010722705 0.0031502691555697041 -0.013982105156373976 0.024247706721936293 -0.0086026344697709006 0.020117804114211945 -0.011861200109397792 -0.030096430387887903 -0.018009571158768452 -0.00201009770083382 0.028518379881746131 0.027322474363040809 -0.01785272512016119 -0.0087487781823331508 -0.021190899569213356 -0.010205487627851501 -0.017029313500713093 0.061611143765884786 0.0056163046162892426 0.010738709376915824 0.016959727683895646 -0.0050032000315061442 0.021724740663850512 -0.013726930913369125 -0.0222354122101521 -0.022901099464185455 0.025785527876375215 -0.0067165372961284012 0.041719551937195294 0
leaf_weight=18.743284404277802 17.785379260778427 30.71457602083683 97.292701944708824 57.390245020389557 70.060582593083382 39.066649734973907 43.137531042098999 7.1113562881946555 7.1352451592683783 19.798838883638382 32.026055321097374 25.427604839205742 38.140566363930702 85.172569796442986 8.1929282397031766 9.8476074188947695 30.682796970009804 8.4580020755529421 16.539955198764801 30.166583135724068 7.7255163937807074 28.132852345705032 19.352393060922623 8.7446332871913892 15.48168423771858 42.426661759614944 6.2401306629180899 22.93322092294693 15.925786688923838 10.800214245915411
leaf_count=94 79 150 495 253 351 187 211 41 32 95 142 117 185 421 40 49 151 39 79 146 37 126 95 42 79 217 31 118 74 54
internal_value=-0.000551797 0.0056967 -0.00395841 0.0157931 -0.00183951 0.00187972 0.000511482 0.00390209 0.00567443 0.000694321 0.0197662 0.0146834 -0.00855136 -0.0012198 0.00308327 0.00577803 -0.00341789 0.0134857 0.0246775 0.00351586 0.0426106 0.00490263 0.0109253 -0.00711941 0.000523828 -0.0118531 -0.00547366 0.00685484 0.015614 0.0254172
internal_weight=870.654 306.8 563.854 103.308 466.561 273.948 203.492 160.354 153.243 114.082 39.1613 45.2264 68.8551 234.882 149.709 130.966 59.8828 71.083 32.7235 38.3595 16.1835 45.9182 29.2 192.613 73.8855 118.727 76.3007 58.4039 35.4706 26.726
internal_count=4230 1431 2799 458 2304 1338 973 762 721 547 174 212 335 1151 730 636 295 341 155 186 76 205 144 966 367 599 382 288 170 128
is_linear=0
shrinkage=0.03


Tree=22
num_leaves=31
num_cat=0
split_feature=46 47 5 47 48 48 18 5 0 48 50 2 49 49 48 50 46 14 7 43 14 4 26 49 29 5 50 23 22 2
split_gain=19.425 16.8404 12.6155 9.72311 10.923 9.31544 8.76785 9.31167 11.4877 9.73142 9.36766 9.37555 9.10226 8.47573 8.29583 8.7406 10.2193 13.7724 8.25793 9.2985 8.04155 7.94722 7.83807 11.8406 8.46533 9.09583 8.16642 7.38056 10.2441 6.64501
threshold=1.4810034632682803 0.33656024932861334 0.26513388752937322 0.33227691054344183 0.30094116926193243 0.31783264875411993 0.18423578143119815 0.21310885250568393 91.791110992431655 0.33526828885078436 0.029873095452785495 0.07602762803435327 0.32938960194587713 0.3433870673179627 0.38875064253807073 0.038467768579721458 1.6534398794174197 0.37513557076454168 0.015915231779217724 0.36597622931003576 0.42644652724266058 0.054934648796916015 0.066613841801881804 0.32112562656402593 1.1904415488243105 0.17041245847940448 0.031649859622120864 0.16228070110082629 0.074175827205181136 0.080698192119598403
decision_type=2 2 2 2 2 2 2 2 2 2 2 2 2 2 2 2 2 2 2 2 2 2 2 2 2 2 2 2 2 2
left_child=2 5 3 4 -1 -2 -6 9 -9 10 20 -12 -13 21 15 16 -3 -18 -10 -20 -8 -5 26 -24 -25 -26 -7 28 -17 -19
right_child=1 14 -4 13 6 22 7 8 18 -11 11 12 -14 -15 -16 27 17 29 19 -21 -22 -23 23 24 25 -27 -28 -29 -30 -31
leaf_value=-0.01748698247518711 -0.012722323751154849 0.00033693865129784937 -0.013654610497429345 -0.011926296422155551 -0.0074220512884095582 0.0080916404164594613 0.018290113243866358 0.024319857699046946 -0.017724908377344206 -0.007789079993508227 0.028703542875707228 -0.012279421270811887 0.024562614859020917 0.013656846872057513 -0.026013160954735798 0.033509099023530303 -0.014433160653986874 0.037783559254389025 0.026016489600420429 -0.0024410046705794449 -0.023964494190639469 0.016958835455242346 0.031041117096957869 0.025096244722020402 0.022417198939418036 -0.011260283725551889 0.037985809239685323 -0.016884981931195954 -0.016684138178340534 0.0057171055604683645
leaf_weight=24.628289729356766 9.5588223338127118 99.93529999256134 96.670927181839943 132.95746214687824 57.498280674219131 13.320002213120459 6.4169339686632139 14.654914781451224 25.616382926702499 17.130748674273491 46.510311350226402 12.139453649520876 10.183433994650839 13.991024345159529 9.3927561342716199 6.4549183398485166 8.0545492321252805 19.527257278561596 10.905611440539358 77.118626922369003 7.9649713039398193 8.2565542012453061 17.782468751072884 10.976039394736288 8.3467696905136091 30.726830527186394 24.494081854820251 33.433630183339119 6.2708622962236404 8.843937546014784
leaf_count=124 43 480 495 692 279 58 30 69 127 81 219 58 48 72 55 30 36 86 52 374 39 40 79 49 37 138 107 164 30 39
internal_value=-0.00053573 0.00551978 -0.00384771 -0.00178507 0.00127603 0.014533 0.00295148 0.00558769 0.000205008 0.0123849 0.0165989 0.0211513 0.0047957 -0.00789287 5.40905e-05 0.00153816 0.0053632 0.0187354 -0.00307673 0.00132048 -0.00505038 -0.0101195 0.0171093 0.0107124 0.00299373 -0.0036489 0.027974 -0.00960385 0.00925263 0.0283738
internal_weight=869.762 307.118 562.644 465.973 310.768 115.205 286.14 228.641 128.296 100.346 83.2151 68.8332 22.3229 155.205 191.913 182.52 136.361 36.4257 113.641 88.0242 14.3819 141.214 105.646 67.8321 50.0496 39.0736 37.8141 46.1594 12.7258 28.3712
internal_count=4230 1431 2799 2304 1500 511 1376 1097 622 475 394 325 106 804 920 865 641 161 553 426 69 732 468 303 224 175 165 224 60 125
is_linear=0
shrinkage=0.03


Tree=23
num_leaves=31
num_cat=0
split_feature=46 47 47 47 48 6 48 13 48 39 1 19 15 20 15 46 37 6 0 51 34 51 37 36 42 4 33 46 9 48
split_gain=18.3188 15.8358 11.8476 9.59689 8.7981 8.679 10.1116 9.09934 8.18155 8.0698 7.74436 12.4136 12.5436 9.1422 8.36018 7.15548 10.4187 7.15342 7.24132 8.08669 7.60456 7.12767 7.05797 10.5556 7.04157 6.99708 9.94141 6.82374 6.70902 6.46666
threshold=1.4810034632682803 0.33506292104721075 0.3325676172971726 0.32688465714454656 0.30220277607440954 0.058274196460843093 0.309063270688057 12.500000000000002 0.38875064253807073 82.250000000000014 0.10668320953845979 0.32808186113834387 0.040941974148154266 0.30136497318744665 0.038481023162603385 1.6584140062332156 103.50000000000001 0.089323710650205626 95.485553741455092 20.500000000000004 44.500000000000007 8.5000000000000018 100.50000000000001 102.50000000000001 0.68307870626449596 0.032135685905814178 530.00000000000011 1.419710159301758 0.23194202780723575 0.32191453874111181
decision_type=2 2 2 2 2 2 2 2 2 2 2 2 2 2 2 2 2 2 2 2 2 2 2 2 2 2 2 2 2 2
left_child=2 3 4 9 -1 28 7 -7 15 -2 11 17 13 -13 -12 16 -3 -8 19 29 -21 -17 24 -24 -4 26 -15 -26 -6 -19
right_child=1 8 22 -5 5 6 10 -9 -10 -11 14 12 -14 25 -16 21 -18 18 -20 20 -22 -23 23 -25 27 -27 -28 -29 -30 -31
leaf_value=-0.015648691076827738 -0.0015845639267495751 -0.0076852500484859941 0.0053258449064752427 0.022842806026086588 -0.014095845408562974 0.0009454402814894912 0.0058624429267611928 0.040203828245682319 -0.025650055140649389 0.029792189763619567 -0.016639451205961622 0.056129892920271769 -0.009513554399861927 -0.021784868804145069 0.014448878393889926 -0.013659517017645381 0.0085670319660290355 -0.0071087519331192285 -0.035860966569200757 0.012296965535414359 -0.01890286557643157 0.017072190114358728 0.025079201520487138 -0.0071139259676528061 -0.025641652510336559 0.035428295232868612 0.026226896751107859 -0.009432564427224073 0.0016187299722942475 0.029851950546219592
leaf_weight=31.143631502985954 38.020787119865417 90.769339576363564 13.3100209236145 57.992499366402626 51.542942643165588 9.5403579771518725 84.21391461789608 11.371523350477217 9.2561830729246122 8.1063807308673841 32.816406562924385 7.1838058531284359 9.9635604619979841 6.5852038413286227 9.2218426316976529 7.3430632650852194 56.874141603708267 6.9899176061153403 6.2488908171653739 8.4805755913257581 27.708660081028938 39.025842055678368 9.5724049508571607 67.904376417398453 47.119833722710609 10.033011749386786 6.9482611864805222 49.864200875163078 45.097061902284622 8.6095578819513303
leaf_count=158 170 445 67 253 252 46 405 54 55 35 163 33 47 31 45 32 267 34 31 41 135 174 49 352 250 46 33 264 222 41
internal_value=-0.000516811 0.00535804 -0.00373959 0.0148119 -0.000639011 0.000762813 0.00375872 0.0232225 0.000459367 0.00441291 0.00184837 0.00452657 0.0189182 0.0281872 -0.00960755 0.00183786 -0.00139906 0.00029376 -0.00772355 -0.00368503 -0.0114171 0.0119882 -0.00986631 -0.0028484 -0.0147127 0.0176703 0.00287031 -0.0175044 -0.0068058 0.0137695
internal_weight=868.858 307.388 561.47 104.12 373.699 342.555 245.915 20.9119 203.269 46.1272 225.004 182.965 40.7138 30.7503 42.0382 194.012 147.643 142.252 58.0376 51.7887 36.1892 46.3689 187.771 77.4768 110.294 23.5665 13.5335 96.984 96.64 15.5995
internal_count=4230 1431 2799 458 1817 1659 1185 100 973 205 1085 877 190 143 208 918 712 687 282 251 176 206 982 401 581 110 64 514 474 75
is_linear=0
shrinkage=0.03


Tree=24
num_leaves=31
num_cat=0
split_feature=46 47 47 40 37 47 46 37 12 50 0 29 8 40 51 4 47 46 12 17 37 36 28 17 12 49 46 44 37 1
split_gain=17.2424 14.9246 11.2454 8.19622 8.19114 7.54326 7.71291 7.68681 8.01523 12.2521 8.26717 7.08799 10.5683 8.15938 9.30127 7.73479 9.53911 7.45899 7.06375 6.9112 6.74899 9.91603 6.66189 10.8228 6.55212 6.97545 6.43496 9.13326 6.76413 6.29401
threshold=1.4810034632682803 0.33656024932861334 0.3325676172971726 72.049999237060561 98.000000000000014 0.36826056241989141 1.6584140062332156 103.50000000000001 0.47655677795410162 0.033725691959261901 93.223152160644545 1.2590938806533816 0.13063795119524005 71.149997711181655 49.500000000000007 0.021590502932667736 0.32793490588665014 1.4387796521186831 0.10912698507308961 0.24673620611429217 100.50000000000001 102.50000000000001 0.23041806370019915 0.18186711519956592 0.92403846979141246 0.32929022610187536 1.5395153164863589 0.23879093676805499 102.50000000000001 0.067477270960807814
decision_type=2 2 2 2 2 2 2 2 2 2 2 2 2 2 2 2 2 2 2 2 2 2 2 2 2 2 2 2 2 2
left_child=2 4 3 11 -2 6 7 -3 -9 -10 -11 15 -13 -14 -15 17 18 -1 -17 -5 24 -22 23 -8 -4 -26 27 28 -6 -18
right_child=1 5 20 19 26 -7 22 8 9 10 -12 12 13 14 -16 16 29 -19 -20 -21 21 -23 -24 -25 25 -27 -28 -29 -30 -31
leaf_value=-0.026608880091557652 0.0001345866998207094 -0.0076639342126763044 -0.017336599266867793 0.030978621180854145 0.0067512040696441804 -0.021209739588798862 -0.0060963592004864087 -0.0063758223549074313 0.039320919862304897 0.021659269310122308 -0.017044666730393874 -0.01897327434919667 0.0014525299785819897 0.031545571302576264 -0.0037376067536923248 0.026930184651635575 8.3118975263475717e-05 0.0085859356065949004 -0.0012093719489637551 -0.006593399055551577 0.024142064254272164 -0.0069269059650997446 -0.0017110853599115845 0.033851523726651123 -0.020699905519593033 0.018300847771666517 0.027414688982668373 -0.013548770538802884 0.03304624138402127 -0.031034362666422247
leaf_weight=25.372163280844692 30.23431096971035 81.481318295001984 94.041284754872322 11.989607319235803 23.120830982923508 12.952148482203482 8.4171434491872805 22.486298739910126 11.83770973980427 8.2355874478817004 9.7407792508602125 18.7296232432127 161.20879501104355 17.487915128469471 10.15265181660652 7.8578439801931372 9.171898618340494 6.228871524333953 84.444351300597191 6.1213296055793753 9.6827584803104383 67.676111474633217 18.083759546279907 18.445108026266098 5.6986802816390982 9.7580751627683622 38.293492794036865 10.223002254962919 14.144637390971182 14.675256595015524
leaf_count=132 137 401 501 56 103 74 38 109 53 38 46 91 772 82 49 39 45 30 417 30 49 352 81 80 30 50 162 47 62 74
internal_value=-0.000499765 0.00519385 -0.00363286 -0.000615138 0.0136364 3.18592e-05 0.001689 -0.00192995 0.00695134 0.0169323 0.00081486 -0.00164392 0.001924 0.00409346 0.0188553 -0.00664592 -0.00297839 -0.0195751 0.00143308 0.0185206 -0.00962052 -0.00276049 0.012301 0.0215107 -0.0143846 0.0034466 0.0183215 0.010544 0.0173738 -0.0194842
internal_weight=867.993 307.696 560.297 373.44 116.016 191.68 178.728 133.782 52.3004 29.8141 17.9764 355.329 207.579 188.849 27.6406 147.75 116.149 31.601 92.3022 18.1109 186.857 77.3589 44.946 26.8623 109.498 15.4568 85.782 47.4885 37.2655 23.8472
internal_count=4230 1431 2799 1817 511 920 846 647 246 137 84 1731 994 903 131 737 575 162 456 86 982 401 199 118 581 80 374 212 165 119
is_linear=0
shrinkage=0.03


Tree=25
num_leaves=31
num_cat=0
split_feature=28 49 49 5 47 44 49 47 36 12 12 7 9 5 22 49 4 18 9 16 27 48 36 45 45 12 12 20 0 31
split_gain=13.1247 8.554 9.41406 9.02148 8.07248 11.4345 7.36558 7.29341 10.7371 8.54588 10.4392 7.40355 6.9305 7.70762 7.66641 7.84307 6.72236 8.69173 8.10502 13.4608 7.9811 7.60204 7.99085 11.0788 7.17406 7.59077 6.49656 6.21706 6.1524 6.11972
threshold=0.22504612058401111 0.31037434935569769 0.31594027578830725 0.19069059193134311 0.3626163005828858 0.2854479849338532 0.30610728263854986 0.3325676172971726 109.00000000000001 0.45534290373325353 0.85960590839385997 0.013029454275965692 0.22998257726430896 0.22361715883016589 0.074175827205181136 0.33230529725551611 0.031882172450423248 0.17500736564397815 0.22241853177547458 0.023652281612157825 0.029292789287865165 0.34412620961666113 104.50000000000001 0.32140895724296575 0.32808339595794683 0.64365079998970043 0.45383523404598242 0.29204298555850988 95.762161254882827 1.0000000180025095e-35
decision_type=2 2 2 2 2 2 2 2 2 2 2 2 2 2 2 2 2 2 2 2 2 2 2 2 2 2 2 2 2 2
left_child=4 6 -3 -4 5 7 -2 12 28 11 -11 -10 16 14 29 -16 17 -1 -19 -20 -18 22 23 -22 -25 -26 -7 -24 -9 -14
right_child=1 2 3 -5 -6 26 -8 8 9 10 -12 -13 13 -15 15 -17 20 18 19 -21 21 -23 27 24 25 -27 -28 -29 -30 -31
leaf_value=-0.018275073916785147 -0.0032169333634517565 -0.024826664371736518 0.030018828483674168 -0.0042625124139206534 -0.014616408814843756 0.003029000795266224 0.033212234299911172 -0.0029059598635438459 0.015332443039722265 0.030919679135309634 -0.0080322681934623871 -0.021769575876558277 -0.0034839485611131032 0.0013366702054184835 0.017197243384611052 0.050176268600175732 -0.010949835352122021 0.0089036860784349678 0.01668809747594107 -0.03754525158054272 0.026613891347630036 -0.016154227905216395 0.0028669756637436095 -0.023562371699155756 0.020123195165579512 -0.014296201332491085 0.039574156427906973 0.037931102634839287 -0.027842195787723904 0.023636042002207314
leaf_weight=22.077524065971375 9.3018653243780154 18.889597520232201 6.0719531178474417 301.23904901742935 19.335241973400116 7.0247088372707394 9.245158299803732 145.00319853425026 7.9807854741811779 22.764092847704891 7.820897936820983 9.5285131931304914 16.402246922254562 30.16011044383049 18.720977261662487 10.858067810535429 14.314554691314695 50.299856826663017 6.2333382815122595 8.9059662073850614 17.574844479560852 6.6277277320623389 6.3360155373811748 9.1225241869688052 13.608777135610582 8.5822566598653776 11.939767301082609 18.008727729320526 8.5438150912523252 12.336024299263956
leaf_count=109 46 94 29 1492 101 31 44 728 39 108 38 46 77 144 87 50 68 240 30 44 83 30 30 44 63 40 51 83 43 57
internal_value=0.000861181 -0.00365201 -0.00479766 -0.00348514 0.00391544 0.00467683 0.0156353 0.00372361 -0.000587628 0.0116291 0.0209728 -0.00486263 0.00693714 0.0137842 0.0200653 0.0305974 0.00353748 -0.0024255 0.00309375 -0.0154722 0.00906185 0.0127584 0.0155776 0.00824487 -0.00252294 0.00670455 0.0269422 0.0293376 -0.00447437 0.00851032
internal_weight=854.858 344.748 326.201 307.311 510.111 490.775 18.547 471.811 201.641 48.0943 30.585 17.5093 270.17 88.4774 58.3173 29.579 181.692 87.5167 65.4392 15.1393 94.1754 79.8609 73.2331 48.8884 31.3136 22.191 18.9645 24.3447 153.547 28.7383
internal_count=4169 1705 1615 1521 2464 2363 90 2281 1002 231 146 85 1279 415 271 137 864 423 314 74 441 373 343 230 147 103 82 113 771 134
is_linear=0
shrinkage=0.03


Tree=26
num_leaves=31
num_cat=0
split_feature=28 19 46 48 10 29 48 48 34 10 51 15 12 50 12 14 21 37 3 19 48 1 29 3 51 33 18 19 8 9
split_gain=12.3552 12.6392 9.22643 9.9507 9.91263 10.6847 10.3479 8.52685 8.85368 8.31146 11.8949 7.93992 7.86279 8.01928 8.52158 7.49461 7.45132 7.27836 7.17385 7.05254 6.59821 6.18432 7.8902 8.29292 7.23238 6.21953 6.34376 6.03321 5.96344 5.83046
threshold=0.22504612058401111 0.23229136317968371 1.5415641069412234 0.34097759425640112 0.22886461019515994 1.1233178377151491 0.32487615942955023 0.37155675888061529 52.500000000000007 0.23874454945325854 20.500000000000004 0.0093677327968180197 0.22318007797002795 0.038213239982724197 0.27178031206130987 0.50028377771377575 0.22837815433740619 103.50000000000001 0.082587528973817839 0.29531182348728185 0.36232185363769537 0.057664597406983382 1.2298235893249514 0.080799013376235976 36.500000000000007 472.50000000000006 0.19639100134372714 0.28902922570705419 0.26794917881488806 0.22202020138502124
decision_type=2 2 2 2 2 2 2 2 2 2 2 2 2 2 2 2 2 2 2 2 2 2 2 2 2 2 2 2 2 2
left_child=1 11 3 4 5 -3 9 28 -9 -6 -11 -1 29 14 27 -15 17 -5 19 -8 -19 -7 24 25 -23 -24 -27 -14 -4 -2
right_child=12 2 7 16 6 21 18 8 -10 10 -12 -13 13 15 -16 -17 -18 20 -20 -21 -22 22 23 -25 -26 26 -28 -29 -30 -31
leaf_value=0.0043301670769770638 0.0012023810708078184 -0.02765304698069028 0.020460738724441235 -0.0077301083390671887 0.026736002402256237 -0.013439914805413367 0.0048828546211124738 -0.018439225849055493 0.01493718022046467 0.018573915457645553 -0.013205315161821312 0.04469102387797376 0.0011468654857037387 -0.0057936271093747028 3.7824088141937362e-05 -0.033987193518416774 -0.019813347032777789 0.018451779712046031 0.0033786125879375888 0.032586979985762113 -0.014754750219685654 0.04013634496393946 -0.020686358042547492 0.0076490018526237493 -0.00056217630334761716 0.015650051127000516 -0.014244011318701545 0.040737482586560923 -0.0025651026950303233 -0.017355224100071405
leaf_weight=7.9087171256542232 20.845764398574829 11.503935068845747 58.191533282399178 63.51617543399334 8.5283815860748273 20.985142946243286 11.798332601785658 14.551214352250101 12.246465042233465 14.065548390150068 34.799316808581352 9.8500891923904401 6.2113974988460523 53.905035525560379 193.65428256988525 9.2803417742252332 27.514307051897049 20.998608186841015 19.853591665625572 31.548517927527428 6.253293350338935 8.5195952206850034 20.518408760428429 65.457916721701622 6.5238090902566901 12.489679187536241 11.127834990620611 7.2519100308418274 11.82504019141197 53.025582939386368
leaf_count=38 101 60 254 325 40 102 57 74 60 66 167 45 32 270 952 48 141 101 95 148 32 41 101 318 32 60 54 34 53 268
internal_value=0.000838507 0.0037983 0.00286875 0.00082448 0.00392906 -0.00103293 0.0103619 0.0111213 -0.0031437 0.00105895 -0.00383868 0.0279857 -0.00354622 -0.0011526 0.00170478 -0.0104229 -0.00642415 -0.00217749 0.0186386 0.0253603 0.0105265 0.00123404 0.00380394 0.000904792 0.0234584 -0.00901216 0.00149752 0.0239179 0.0165694 -0.0121523
internal_weight=854.75 510.575 492.817 396.002 277.72 157.126 120.594 96.8143 26.7977 57.3932 48.8649 17.7588 344.174 270.303 207.118 63.1854 118.282 90.7681 63.2004 43.3469 27.2519 145.622 124.637 109.594 15.0434 44.1359 23.6175 13.4633 70.0166 73.8713
internal_count=4169 2464 2381 1940 1341 768 573 441 134 273 233 83 1705 1336 1018 318 599 458 300 205 133 708 606 533 73 215 114 66 307 369
is_linear=0
shrinkage=0.03


Tree=27
num_leaves=31
num_cat=0
split_feature=39 28 19 49 15 47 51 37 42 41 29 47 34 41 49 8 15 33 15 49 0 19 30 17 29 11 36 8 17 28
split_gain=17.4578 12.1552 8.26022 8.19731 7.8692 7.54843 11.2922 10.4212 11.4444 9.24523 12.8829 9.10837 9.04538 9.19942 7.28038 6.44965 7.97401 6.28842 7.82844 6.26736 5.78363 8.07912 6.08216 8.93368 5.6249 9.64189 6.96304 5.57178 6.91988 6.27944
threshold=87.549999237060561 0.22504612058401111 0.23229136317968371 0.31037434935569769 0.010088288225233557 0.3325676172971726 20.500000000000004 103.50000000000001 0.76248556375503551 8.0500001907348651 1.1392030715942385 0.3626163005828858 68.500000000000014 10.949999809265138 0.31594027578830725 0.11658109351992609 0.049416633322834976 570.00000000000011 0.030318350531160835 0.30610728263854986 95.762161254882827 0.36069922149181372 4.5000000000000009 0.24986659735441211 1.2028026580810549 0.25786171853542333 101.00000000000001 0.1501879692077637 0.1596823334693909 0.15793896466493609
decision_type=2 2 2 2 2 2 2 2 2 2 2 2 2 2 2 2 2 2 2 2 2 2 2 2 2 2 2 2 2 2
left_child=1 2 4 19 -1 6 9 8 20 10 -4 -10 13 -11 -5 -8 27 18 -12 -3 21 22 -7 -24 -2 26 -26 -17 -29 -30
right_child=24 3 5 14 -6 7 15 -9 11 12 17 -13 -14 -15 -16 16 -18 -19 -20 -21 -22 -23 23 -25 25 -27 -28 28 29 -31
leaf_value=-0.0002224882077858801 0.037198355291627551 -0.0035483637407385054 -0.012604978446417713 -0.023764376986777545 0.039907544733620515 -0.014936162445831321 -0.021275371360994118 0.0083017298297679374 0.028317122458133961 -0.0058060659458744456 0.00016413509980163477 -0.010834205655907002 -0.020131956489419098 0.03764172144703995 -0.0045543538198050786 -0.018001047437301486 0.026405297352627741 0.043121269972187279 0.033592042724620866 0.030724778972078252 -0.033029639348984022 0.013631563461918985 0.0065428253236618703 -0.030630964178074857 0.0038871739383436413 -0.014716137040245197 0.038399142331040963 0.022679974470332542 -0.015736079993120704 0.003179096266586974
leaf_weight=7.5111038982868221 11.285727873444555 8.6444263607263583 7.208781123161315 18.052390158176422 9.3283221423625928 77.410331755876541 9.5797981321811658 62.589147642254829 13.337640121579172 8.8797584772110039 11.832038983702661 7.7761889845132819 10.191495954990385 7.1647610813379279 292.66329957544804 11.716779097914694 11.032401174306868 17.07001405954361 12.748704448342322 9.1287943273782712 7.7776644825935355 13.479103147983549 31.096109315752983 6.1060779541730872 10.251211851835256 7.9374817162752143 10.64104789495468 13.091534048318861 17.367214396595955 111.6440469622612
leaf_count=36 54 43 35 91 42 396 47 300 57 42 54 40 49 33 1456 57 51 77 57 43 40 66 159 32 47 38 49 61 84 533
internal_value=0.000815234 -0.000145638 0.00286376 -0.00459722 0.0229147 0.00209358 0.00565503 -0.00195423 -0.00607944 0.0153012 0.022888 0.013992 0.000795506 0.0145779 -0.00574791 0.00143012 0.00287894 0.0292177 0.0181955 0.0146743 -0.00928891 -0.00759107 -0.0101963 -0.000161425 0.0198885 0.0120422 0.0224847 0.00102221 0.00271605 0.000519788
internal_weight=854.543 814.428 485.939 328.489 16.8394 469.1 249.527 219.572 156.983 75.0956 48.8595 21.1138 26.236 16.0445 310.716 174.432 164.852 41.6508 24.5807 17.7732 135.869 128.092 114.613 37.2022 40.1155 28.8297 20.8923 153.82 142.103 129.011
internal_count=4169 3981 2348 1633 78 2270 1180 1090 790 347 223 97 124 75 1547 833 786 188 111 86 693 653 587 191 188 134 96 735 678 617
is_linear=0
shrinkage=0.03


Tree=28
num_leaves=31
num_cat=0
split_feature=39 28 47 44 47 51 37 4 41 34 29 8 44 13 2 2 2 41 16 18 10 29 24 13 28 50 5 45 47 42
split_gain=16.3933 11.4627 7.40275 9.2935 8.10103 14.7972 11.9491 8.95552 8.7132 10.9034 8.98776 7.18728 6.39607 6.36616 12.2588 11.5822 10.178 6.77477 6.19624 5.92721 7.89294 5.89614 6.27837 6.89425 6.1046 5.84522 5.77548 5.76589 8.45913 7.14389
threshold=87.549999237060561 0.22504612058401111 0.3626163005828858 0.2854479849338532 0.3325676172971726 20.500000000000004 103.50000000000001 0.054207595065236099 8.0500001907348651 68.500000000000014 1.1392030715942385 0.11658109351992609 0.23879093676805499 16.500000000000004 0.061999486759305007 0.055040501058101661 0.07577610015869142 6.4500000476837167 0.03907857462763787 0.16391742229461673 0.26071438193321234 1.5351219773292544 0.83333334326744091 30.500000000000004 0.17399355769157412 0.034892708063125617 0.19069059193134311 0.32532829046249395 0.34246005117893225 0.72306069731712352
decision_type=2 2 2 2 2 2 2 2 2 2 2 2 2 2 2 2 2 2 2 2 2 2 2 2 2 2 2 2 2 2
left_child=1 2 3 4 5 8 7 27 10 -10 -1 -7 -12 14 -13 -15 -16 -18 -2 -8 -21 22 23 -17 -25 -24 -3 28 -6 -29
right_child=18 26 -4 -5 6 11 19 -9 9 -11 12 13 -14 15 16 21 17 -19 -20 20 -22 -23 25 24 -26 -27 -28 29 -30 -31
