tree
version=v4
num_class=1
num_tree_per_iteration=1
label_index=0
max_feature_idx=51
objective=binary sigmoid:1
feature_names=away_lineup_pa_prob_4 away_lineup_pa_prob_5 away_lineup_pa_prob_6 away_lineup_top3_obp away_lineup_weighted_score away_platoon_lineup_obp away_platoon_lineup_woba ctx_day_of_week ctx_is_weekend ctx_month env_elevation_ft env_humidity env_is_dome env_park_factor_hr env_park_factor_runs env_precipitation env_temp_max env_temp_min env_wind_mph home_p_avg_velo home_p_bb_rate_vs_L home_p_bb_rate_vs_R home_p_career_bb_rate home_p_career_hr_rate home_p_career_k_rate home_p_fi_bb_rate home_p_fi_hr_rate home_p_fi_k_rate home_p_fi_k_rate_vs_L home_p_fi_k_rate_vs_R home_p_fi_platoon_k_rate home_p_fi_runs_per_start home_p_fi_starts home_p_gb_rate home_p_hr_rate_vs_L home_p_hr_rate_vs_R home_p_k_rate_vs_L home_p_k_rate_vs_R home_p_obpa_vs_L home_p_obpa_vs_R home_p_platoon_k_rate home_p_recent_fi_bb_rate home_p_recent_fi_k_rate home_p_recent_fi_runs home_p_rest_days home_p_season_bb_rate home_p_season_hr_rate home_p_season_k_rate home_p_whip_approx ump_career_strike_rate ump_consistency ump_games_count
feature_infos=[0.58419102430343628:0.81992626190185547] [0.27051681280136108:0.58278882503509521] [0.10928873717784882:0.37930729985237122] [0.25487145781517029:0.43460860848426819] [1.1024714708328247:1.9436707496643066] [0.2376360148191452:0.41776609420776367] [0.23205399513244629:0.43842446804046631] [0:6] [0:1] [3:10] [5:5200] [16:99] [0:1] [84:115] [92:115] [0:114] [35.400001525878906:113] [23.700000762939453:82.800003051757812] [0:46.900001525878906] [86.154335021972656:99.662162780761719] [0:0.5] [0:0.5] [0:0.375] [0:0.1666666716337204] [0:0.66666668653488159] [0:0.5] [0:0.25] [0:1] [0:1] [0:1] [0:1] [0:7] [0:77] [0:1] [0:0.3333333432674408] [0:0.5] [0:0.66666668653488159] [0:0.6428571343421936] [0:1] [0:1] [0:0.53846156597137451] [0:0.5] [0:1] [0:4.3333334922790527] [1:30] [0:0.4285714328289032] [0:0.29411765933036804] [0:0.66666668653488159] [0:9] [0.21770000457763672:0.4512999951839447] [0:0.074000000953674316] [0:76]
tree_sizes=3310 3422 3397 3418 3405 3415 3438 3417 3423 3425 3420 3437 3427 3437 3421 3439 3429 3445 3436 3442 3452 3426 3421 3424 3430 3443 3417 3445 3422 3437 3442 3443 3433 3448 3447 3438 3372 3452 3419 3431 3441 3419 3412 3455 3456 3454 3435 3441 3484 3446 3440 3449 3441 3422 3446 3445 3435 3443 3430 3437 3447 3440 3442 3439 3431 3429 3432 3453 3426 3444 3425 3446 3438 3415 3449 3435 3455 3425 3435 3454 3445 3416 3458 3445 3459 3453 3443 3454 3441 3446 3454 3433 3438 3429 3441 3433 3455 3430 3441 3449 3423 3454

Tree=0
num_leaves=31
num_cat=0
split_feature=47 4 5 51 5 38 5 35 39 51 39 6 4 24 29 30 33 17 35 39 19 19 1 18 26 39 4 16 37 35
split_gain=26.0585 21.8344 21.1275 15.6632 14.6042 16.9055 13.148 12.6668 11.0576 12.9585 10.3888 10.3119 9.35461 9.03637 10.1157 11.2252 9.82425 11.9233 10.8011 9.71213 8.94283 8.78698 8.48738 8.44648 8.59009 8.27956 10.2032 9.54327 7.8847 16.1276
threshold=0.16285602748394015 1.4765876531600954 0.36105354130268102 12.500000000000002 0.33183296024799352 0.33347591757774359 0.36042664945125585 0.036892807111144073 0.29663635790348059 23.500000000000004 0.37996959686279302 0.30682037770748144 1.34441214799881 0.12474899739027025 0.22505410760641101 0.23941671848297122 0.41419735550880438 66.950000762939467 0.030272648669779304 0.32040779292583471 90.766284942626967 92.01239395141603 0.42480149865150457 9.4499998092651385 0.039933554828166969 0.25017882883548742 1.5908318758010866 75.950000762939467 0.23341377824544909 0.031680878251791007
decision_type=2 2 2 2 2 2 2 2 2 2 2 2 2 2 2 2 2 2 2 2 2 2 2 2 2 2 2 2 2 2
left_child=6 4 3 22 5 11 8 28 9 -1 13 -2 -7 -10 16 -16 17 19 -18 -15 -13 -6 -3 24 -9 -24 -27 -28 -5 -30
right_child=1 2 -4 7 21 12 -8 23 10 -11 -12 20 -14 14 15 -17 18 -19 -20 -21 -22 -23 25 -25 -26 26 27 -29 29 -31
leaf_value=-1.0290865244863436 -1.0553658319975445 -1.0097150914306101 -1.0526847951000609 -1.036373359797315 -1.0345607221031121 -1.0418392713561806 -1.0578208513445859 -1.0380433976803749 -1.0539455038827656 -0.98816895827029549 -0.9941316444966285 -1.0116175519752206 -1.0153243027531118 -1.0281704033456869 -0.98352473182756905 -1.0356443963276047 -1.0244315006689784 -1.0492501188578176 -1.059049871308652 -0.97921378245294211 -1.0395763398489961 -1.0516933368826187 -1.012884393354184 -0.99362019170933968 -1.0036816176792269 -1.0597432812776244 -1.0473318666409357 -1.0052906515282332 -1.011298933362031 -1.0461009817785891
leaf_weight=11.989616245031359 35.96884873509407 6.3815699368715277 31.714468777179718 48.538607701659203 33.261516034603119 16.050615295767784 7.9286171942949286 12.763139873743059 10.442568987607954 17.210900738835335 7.5418553799390784 9.8624262660741788 41.190133228898048 7.348474472761156 8.5087599158287031 5.9948081225156775 14.890329852700235 6.1881890296936026 15.663853481411932 7.1550935655832291 196.28162078559399 135.36663502454758 5.8014272153377524 19.144709810614586 11.989616245031355 27.460088819265366 11.989616245031359 6.768331751227378 45.057751372456551 15.470472574234007
leaf_count=62 186 33 164 251 172 83 41 66 54 89 39 51 213 38 44 31 77 32 81 37 1015 700 30 99 62 142 62 35 233 80
internal_value=-1.03531 -1.0375 -1.03022 -1.02678 -1.04129 -1.03729 -1.02249 -1.02175 -1.01982 -1.00416 -1.0256 -1.04076 -1.02277 -1.02923 -1.02506 -1.0038 -1.03159 -1.01609 -1.04232 -1.00186 -1.03812 -1.04832 -1.03992 -1.00829 -1.02088 -1.04407 -1.0484 -1.03149 -1.02738 -1.02025
internal_weight=831.925 711.062 243.08 211.365 467.982 299.354 120.863 152.964 112.934 29.2005 83.7339 242.113 57.2407 76.1921 65.7495 14.5036 51.2459 20.6918 30.5542 14.5036 206.144 168.628 58.401 43.8975 24.7528 52.0195 46.218 18.7579 109.067 60.5282
internal_count=4302 3677 1257 1093 2420 1548 625 791 584 151 433 1252 296 394 340 75 265 107 158 75 1066 872 302 227 128 269 239 97 564 313
is_linear=0
shrinkage=1


Tree=1
num_leaves=31
num_cat=0
split_feature=36 4 5 51 4 30 29 47 5 33 3 4 17 50 5 41 47 17 48 6 21 6 6 4 13 34 25 3 47 48
split_gain=28.9384 17.9128 22.6941 13.5633 10.8804 10.3962 10.2361 11.724 11.129 11.0665 10.0264 11.3757 9.90717 9.01231 8.91744 11.4426 8.68253 9.47872 8.46776 11.1959 8.95315 12.0575 8.45904 10.0086 9.95436 12.076 9.16138 8.3911 7.98055 7.41901
threshold=0.19837555289268496 1.4779909253120425 0.36105354130268102 38.500000000000007 1.3920112252235415 0.2757855504751206 0.22864741832017901 0.15399074554443362 0.33132557570934301 0.43407383561134344 0.34081025421619421 1.447101414203644 63.250000000000007 0.028066259808838371 0.34418962895870214 0.069047622382640853 0.1636634171009064 52.45000076293946 1.2322004437446596 0.32439258694648748 0.073560625314712538 0.34380254149436956 0.34178365767002111 1.5451526045799258 91.500000000000014 0.028464544564485553 0.093152478337287917 0.3608845472335816 0.26359122991561895 1.5066225528717043
decision_type=2 2 2 2 2 2 2 2 2 2 2 2 2 2 2 2 2 2 2 2 2 2 2 2 2 2 2 2 2 2
left_child=3 10 16 5 -5 6 7 9 13 -1 11 29 -13 -9 15 -6 -3 -18 -8 -20 -21 -22 24 28 -19 -26 27 -25 -24 -2
right_child=1 2 -4 4 14 -7 18 8 -10 -11 -12 12 -14 -15 -16 -17 17 22 19 20 21 -23 23 26 25 -27 -28 -29 -30 -31
leaf_value=0.029964036601613411 -0.0085511378794908069 0.032957766780150777 -0.021588856013342501 0.0032857135779967767 0.047824749525818534 -0.019125108350786364 -0.0069704265698843212 0.035346389914598972 -0.018690674256314595 -0.0044013153712229285 -0.018487971982936953 -0.012103365825127832 0.025070862406009115 -0.0030370320584240996 0.0029920262443282057 0.017653560983248762 -0.012241648764271104 -0.0073978679302513159 -0.0037032240968912153 0.052559044798407797 0.040597013242352244 -0.0091246091678649135 -0.014001810527472085 0.027774234492184441 0.010298565193848662 0.04620301709473288 0.032015010417974603 -0.0046941998813922331 0.01496595351414612 0.0085221836546455331
leaf_weight=17.349570497870445 264.36132399737835 10.512694418430327 26.651583075523376 34.67659829556942 19.424030482769012 16.263268783688545 10.05077078938484 6.2168420106172588 35.128352075815201 15.066757664084433 62.035085618495941 8.8877754658460635 18.325280129909515 22.442777872085571 14.322871610522268 30.489487215876579 21.538937196135521 9.2850614339113218 9.8748807907104474 11.305511906743051 7.9637642651796323 7.9394182860851288 33.150177851319313 8.7593706250190717 19.766682460904121 14.971568658947943 14.378606542944906 25.986145511269569 10.476663216948507 24.189013689756393
leaf_count=89 1371 54 139 179 100 84 52 32 182 78 322 46 95 116 74 157 111 48 51 58 41 41 171 45 102 77 74 134 54 125
internal_value=2.72242e-05 -0.00372809 0.00362682 0.00834297 0.0170173 0.00288526 0.00550816 -0.000126106 -0.00758428 0.0142928 -0.0075371 -0.00532937 0.0128779 0.00614953 0.0242429 0.030133 0.00771999 0.00583832 0.0168029 0.0232995 0.0329366 0.0166142 0.0087646 0.0035234 0.0194502 0.0266745 0.012703 0.00399716 -0.00683233 -0.00709022
internal_weight=831.791 573.276 195.477 258.515 98.913 159.602 143.339 96.2043 63.788 32.4163 377.798 315.763 27.2131 28.6596 64.2364 49.9135 168.826 158.313 47.1343 37.0836 27.2087 15.9032 136.774 92.751 44.0233 34.7383 49.1241 34.7455 43.6268 288.55
internal_count=4302 2968 1009 1334 510 824 740 497 330 167 1959 1637 141 148 331 257 870 816 243 191 140 82 705 478 227 179 253 179 225 1496
is_linear=0
shrinkage=0.03


Tree=2
num_leaves=31
num_cat=0
split_feature=28 4 5 19 28 32 47 19 5 13 28 32 22 42 4 4 2 18 4 2 28 38 27 21 4 11 49 47 4 19
split_gain=25.5282 15.2726 20.8856 12.7346 11.881 11.7601 11.2438 11.0654 9.92966 9.54683 9.50967 9.88451 10.784 8.14811 8.06539 8.05148 17.2034 10.5277 7.88264 10.5637 10.4332 11.568 8.65341 7.75356 7.62633 7.51778 7.94647 7.94142 7.28324 9.77495
threshold=0.22376025468111041 1.4025147557258608 0.35867254436016088 94.358028411865249 0.22508277744054797 1.5000000000000002 0.18614289909601214 92.110385894775405 0.33114743232727056 105.50000000000001 0.15801713615655902 44.500000000000007 0.081789292395114913 0.093073595315217986 1.6666343212127688 1.4790303707122805 0.22734320908784869 8.3499999046325701 1.4900028109550478 0.24403586238622668 0.21443030983209613 0.34947520494461065 0.16631206125020984 0.063164688646793379 1.5830539464950564 82.500000000000014 0.31622894108295446 0.17976105958223346 1.3588901758193972 93.092990875244155
decision_type=2 2 2 2 2 2 2 2 2 2 2 2 2 2 2 2 2 2 2 2 2 2 2 2 2 2 2 2 2 2
left_child=1 3 7 8 5 23 25 10 -1 -10 13 12 -12 -3 -4 -8 17 -17 20 -20 21 -9 -21 -2 -24 26 -6 28 -28 -30
right_child=4 2 14 -5 6 -7 15 18 9 -11 11 -13 -14 -15 -16 16 -18 -19 19 22 -22 -23 24 -25 -26 -27 27 -29 29 -31
leaf_value=0.0097968929175576581 0.031210467214575505 0.010321808897523549 -0.032374486094984306 -0.017383746349033512 -0.015427350750967119 -0.019022220411674319 -0.0075603562264006325 -0.0081792478567032836 -0.027435132938533512 0.015194049209566187 -0.013440583407723581 0.041520163381232975 0.025327902920469377 0.049524986090973611 0.0038408178170550988 0.0020725085451100919 -0.0020668360991653945 0.053868845610713721 0.03198894025635473 -0.013768398989642621 0.030319306165542268 0.021631674108580322 0 -0.0048322927870154729 0.030660341766581486 -0.018758477555387374 0.039683237009025207 0.042169163097161261 0.016013672101128893 -0.018065404202961283
leaf_weight=63.93379183113575 5.8046574890613583 7.3952985256910351 11.667954728007318 34.370175540447235 6.5947876870632163 78.940426766872406 207.86033450067043 52.014348015189171 13.655432403087618 6.1581218838691703 13.753247708082204 7.4716757833957663 10.488446831703184 17.661609351634979 9.3698112070560438 6.2183860987424833 103.31590662896633 7.6409988254308701 25.045451432466507 11.66653899848461 9.688630059361456 14.034335464239119 13.987908706068994 24.496716201305389 14.232988983392714 6.3920266777276984 5.8276195526123038 8.8909308165311796 22.933651298284531 10.104643315076826
leaf_count=330 30 38 61 178 34 410 1082 269 71 32 71 38 54 90 49 32 533 39 128 60 50 72 72 127 73 33 30 46 118 52
internal_value=3.34575e-05 0.00639876 0.0110818 -0.00227112 -0.00429586 -0.0129849 -0.00180429 0.0141227 0.0040454 -0.0140203 0.0252431 0.0135856 0.00361252 0.0388523 -0.0167345 -0.00402631 0.00224105 0.0324334 0.00947773 0.017071 0.00281053 -0.00159436 0.00711402 0.0028008 0.0159739 0.00993397 0.0136134 0.0178886 0.0113781 0.00532212
internal_weight=831.617 336.596 218.478 118.118 495.021 109.242 385.779 197.44 83.7473 19.8136 56.7703 31.7134 24.2417 25.0569 21.0378 325.036 117.175 13.8594 140.67 64.9329 75.7373 66.0487 39.8874 30.3014 28.2209 60.7437 54.3516 47.7568 38.8659 33.0383
internal_count=4302 1736 1125 611 2566 567 1999 1015 433 103 291 163 125 128 110 1686 604 71 724 333 391 341 205 157 145 313 280 246 200 170
is_linear=0
shrinkage=0.03


Tree=3
num_leaves=31
num_cat=0
split_feature=36 5 51 2 19 19 50 43 50 24 5 31 15 39 18 10 31 34 29 18 36 50 25 31 34 10 46 45 11 26
split_gain=26.291 14.9882 12.5189 11.9321 9.48565 11.4401 10.036 8.76337 10.6655 8.73512 8.41994 8.29201 9.6042 8.64628 8.55297 17.1208 8.05726 7.93724 7.33295 7.24135 7.13277 6.77752 6.69178 8.55144 7.56184 6.52627 8.83797 6.49095 6.22086 6.21995
threshold=0.19837555289268496 0.36105354130268102 38.500000000000007 0.26061019301414495 92.089763641357436 90.936309814453139 0.034674167633056648 0.41666667163372045 0.02410268317908049 0.1611290127038956 0.35683873295784002 0.52098003029823314 2.4500000476837163 0.27218338847160345 7.8500001430511483 92.500000000000014 0.36435787379741674 0.024842232465744022 0.15815528482198718 11.449999809265138 0.15757147222757342 0.043194126337766654 0.077052142471075072 0.73508772253990184 0.026028962805867199 205.00000000000003 0.030544953420758251 0.080978788435459151 62.500000000000007 0.02364534325897694
decision_type=2 2 2 2 2 2 2 2 2 2 2 2 2 2 2 2 2 2 2 2 2 2 2 2 2 2 2 2 2 2
left_child=2 3 10 9 5 -4 19 8 -5 18 11 14 13 -13 -1 -16 28 29 -2 -6 -14 -11 23 -15 -24 -23 -27 -26 -10 -8
right_child=1 -3 4 7 6 -7 17 -9 16 21 -12 12 20 22 15 -17 -18 -19 -20 -21 -22 25 24 -25 27 26 -28 -29 -30 -31
leaf_value=-0.015743908011655108 -0.0080384016562587476 -0.022959476456678257 0.01157863198078873 -0.013843461142935306 -0.013853158547915051 0.049584585822125181 0.012956632835886417 -0.008232979662395605 0.029960411514422025 -0.0035021934052693569 -0.018340284768363156 -0.014146457231665334 0.014665704125388404 0.058605740449852173 0.035172854641184199 -0.0054396346998666122 0.045492481363943731 0.010195007207314784 0.032481778183553536 0.018870445749131409 -0.024645582116710602 -0.030788390479743386 -0.0058404468663758244 0.016627009991268506 -0.00077146621928892713 -0.024615557425966831 0.019362652038767116 0.03427773087802425 -0.0060638129661715482 0.058130087890142887
leaf_weight=26.033032312989235 5.8063628375530234 32.747506767511368 15.715050682425501 6.1749483644962302 19.475839912891391 13.645853832364081 5.8595162481069547 13.20866985619068 7.604605898261072 446.091657102108 14.508382782340048 6.2179976403713217 6.1451499909162512 7.512834548950198 11.736236020922659 34.167138755321503 11.948047310113905 31.467813074588776 9.7590509653091413 7.6694018244743338 9.1008250117301923 15.724059686064722 12.235083490610121 11.689622670412062 6.803427621722224 7.3009455353021604 7.1502020061016083 13.883252814412115 7.984293207526207 6.0613282024860382
leaf_count=135 30 173 80 32 100 69 30 68 39 2317 76 32 31 38 60 176 61 161 50 39 47 82 63 60 35 38 37 71 41 31
internal_value=3.95459e-05 -0.00355588 0.00793385 -0.00233333 0.0162154 0.0303432 0.00997152 0.0119584 0.019922 -0.00372129 0.0026865 0.00490391 0.0119184 0.0174097 -0.00231616 0.00544041 0.027766 0.0187742 0.0177032 -0.00421242 -0.00878076 -0.00446025 0.0213977 0.0352131 0.0124948 -0.0180089 -0.00291389 0.0231775 0.0121659 0.0387631
internal_weight=831.428 571.5 259.928 538.753 99.8948 29.3609 70.5339 46.9206 33.7119 491.832 160.033 145.525 73.5882 58.3422 71.9364 45.9034 27.5369 43.3887 15.5654 27.1452 15.246 476.267 52.1242 19.2025 32.9218 30.1752 14.4511 20.6867 15.5889 11.9208
internal_count=4302 2968 1334 2795 510 149 361 241 173 2554 824 748 377 299 371 236 141 222 80 139 78 2474 267 98 169 157 75 106 80 61
is_linear=0
shrinkage=0.03


Tree=4
num_leaves=31
num_cat=0
split_feature=40 29 29 5 5 33 16 30 37 38 47 48 25 21 6 26 2 36 5 39 41 40 44 28 18 15 9 2 5 5
split_gain=25.1395 13.7233 16.2875 13.1059 12.9088 12.6305 12.6969 11.1412 10.927 10.5999 10.0698 9.32957 8.71801 8.35327 8.24065 7.65993 10.0245 12.3801 14.845 13.8265 11.2715 9.25232 8.65699 10.8118 9.06928 7.89021 7.60158 7.52261 7.34967 8.17589
threshold=0.20632745325565341 0.22505410760641101 0.22399096935987475 0.36105354130268102 0.36042664945125585 0.42570912837982183 78.149997711181655 0.27501399815082556 0.2000851780176163 0.30618433654308325 0.1636634171009064 1.2322004437446596 0.13915283977985385 0.071446545422077193 0.30733716487884527 0.022284295409917835 0.2120558097958565 0.20254787802696231 0.32393945753574377 0.26669386029243475 0.21240601688623431 0.21673069894313815 18.500000000000004 0.25172446668148046 13.250000000000002 0.15000000223517421 7.5000000000000009 0.24610050767660144 0.31655934453010565 0.35267655551433569
decision_type=2 2 2 2 2 2 2 2 2 2 2 2 2 2 2 2 2 2 2 2 2 2 2 2 2 2 2 2 2 2
left_child=1 2 4 10 5 6 9 11 12 -1 -2 -3 27 -10 -12 -16 20 21 25 -20 22 -18 23 -17 26 -19 -25 -7 -13 -30
right_child=3 7 -4 -5 -6 8 -8 -9 13 -11 14 28 -14 -15 15 16 17 18 19 -21 -22 -23 -24 24 -26 -27 -28 -29 29 -31
leaf_value=0.025292721776148826 0.015728541764851601 0 -0.020575081793132079 -0.022115822280120111 -0.023941902751973155 -0.013819335092592228 0.029016962783019382 -0.0063160527672649113 0.047025653380531461 -0.0037683287700581189 -0.01711493165156391 0.0023948718162787323 0.025126223122575536 0.0013160585496289259 -0.0072167859188904315 -0.020064093816901659 0.0025089851672521154 0.036008827841528493 0.023083062317115419 -0.0056836749591732804 0.025596103915717764 0.044353304253944591 0.010108464633831023 -0.015248328881867102 0.03044671008394835 -0.003872132972660319 0.013967684940110059 0.015839825383587844 0.038906953829060238 0.00034625462777931648
leaf_weight=15.883563458919523 25.025006711483002 12.53211624920368 21.916225656867027 31.503456011414528 10.894341453909872 49.712897762656212 38.045505344867706 13.33180710673332 5.9153728038072568 33.31341926753521 35.656521275639534 8.2169492542743665 6.4205143004655829 7.7712521702051163 176.7045274078846 56.928875774145126 8.1999010294675845 15.141488179564478 16.522822305560112 104.88318483531475 8.6603545695543271 11.041658744215963 18.762250602245331 24.495020747184753 6.3203557282686225 5.8325772285461417 10.737299442291258 8.1673772633075696 36.897628799080849 5.8031528443098059
leaf_count=81 127 65 113 168 58 257 193 69 30 171 187 42 33 40 919 297 42 78 85 543 45 56 98 128 33 30 56 42 186 30
internal_value=4.45991e-05 0.00745414 0.00323309 -0.00361921 0.0063036 0.00843887 0.0162134 0.0181405 -0.000334433 0.00590129 -0.00246631 0.0233208 -0.00560727 0.0230307 -0.00340974 -0.00231933 0.000699883 0.00563347 0.00248259 -0.0015998 -0.00561597 0.0276001 -0.00813114 -0.0116878 0 0.0251787 -0.00616338 -0.00941077 0.0289287 0.0338286
internal_weight=831.237 274.822 198.04 556.415 176.124 165.23 87.2425 76.7817 77.9874 49.197 524.912 63.4498 64.3008 13.6866 499.887 464.23 287.526 161.622 142.38 121.406 125.904 19.2416 117.244 98.4816 41.5527 20.9741 35.2323 57.8803 50.9177 42.7008
internal_count=4302 1410 1018 2892 905 847 445 392 402 252 2724 323 332 70 2597 2410 1491 834 736 628 657 98 612 514 217 108 184 299 258 216
is_linear=0
shrinkage=0.03


Tree=5
num_leaves=31
num_cat=0
split_feature=24 4 2 15 19 6 25 22 4 2 4 33 4 51 6 24 51 6 4 14 32 4 27 19 6 30 49 2 6 45
split_gain=24.916 17.7933 18.3909 13.4367 12.607 12.8109 12.0855 15.2826 10.8547 13.8665 10.8869 10.2024 9.90247 11.0653 11.867 9.45127 9.05431 9.00482 10.2708 10.7053 9.39583 8.37033 8.31961 11.6593 8.31202 9.75355 8.30249 8.50754 8.02971 9.15144
threshold=0.21842504292726519 1.4991478323936465 0.24490880966186526 14.050000190734865 92.110385894775405 0.36436195671558386 0.13915283977985385 0.09651824459433557 1.4752594828605654 0.19792176038026812 1.3661475181579592 0.4681274294853211 1.5908318758010866 24.500000000000004 0.38452897965908056 0.20113337039947513 10.500000000000002 0.34333395957946783 1.4331095814704897 101.50000000000001 2.5000000000000004 1.2690456509590151 0.15700280666351321 93.120124816894545 0.36715050041675573 0.24914151430130008 0.34123966097831732 0.23348840326070788 0.33909857273101812 0.090835422277450575
decision_type=2 2 2 2 2 2 2 2 2 2 2 2 2 2 2 2 2 2 2 2 2 2 2 2 2 2 2 2 2 2
left_child=3 17 -3 4 6 8 7 -1 9 10 16 -7 -4 24 -15 -12 -6 18 20 26 -2 -22 -10 -24 25 -14 27 -20 29 -11
right_child=1 2 12 -5 5 11 -8 -9 22 28 15 -13 13 14 -16 -17 -18 -19 19 -21 21 -23 23 -25 -26 -27 -28 -29 -30 -31
leaf_value=0.01307829187023127 0.0059330326005896271 0.02150688468334927 -0.012784970066791034 -0.019272611612010659 0.030037486897302037 -0.025345100171664973 -0.017833600856560345 0.046960807821212355 -0.0052479886858516206 -0.0078051350304186376 0.01212985387476858 0.016587470301410577 0.032842967726602813 0.038857603951282432 -0.010979895629489497 0.058926420206884385 -0.0037352987690377382 -0.017396250188831348 0.030356670396174432 -0.011241708870595186 0.013107090201526748 -0.013698902513036655 0.039183285015881184 0.0096997055066909976 -0.024352318557166637 -0.013000283230244854 -0.016383181780761678 -0.0027501687975413128 -0.020156204834753673 0.019037980474491865
leaf_weight=96.789492443203926 30.867839083075523 38.993412360548973 44.71473141014576 17.67441500723362 8.0102898329496366 21.73330789804459 8.6148983836173993 13.057617276906965 13.655195981264113 41.278725117444992 10.506360173225405 5.9728955626487723 6.8504799455404308 13.040565252304079 5.6074655055999747 6.0140499621629706 33.517769038677216 78.031303346157074 22.373245388269424 21.927165731787682 10.416051566600798 153.56439998745918 18.537402331829071 34.623575910925865 11.015978902578352 8.029286712408064 5.7353990226984015 9.6274722814559919 27.408555030822754 14.66253452003002
leaf_count=494 161 199 232 91 41 114 44 66 70 213 54 31 35 67 30 31 174 410 116 114 55 805 94 176 58 41 30 50 142 75
internal_value=-0.000207729 -0.00486742 0.00459211 0.00555688 0.00685019 0.00280824 0.0147964 0.0175068 0.0053813 0.000633286 0.0117885 -0.0159901 -0.00293707 0.00697936 0.023999 0.0316421 0.00329694 -0.00852301 -0.00573923 0.00507257 -0.0090665 -0.011918 0.0152496 0.0205421 -0.00565767 0.00875011 0.0146365 0.0205694 -0.0071656 -0.00053227
internal_weight=832.852 460.795 128.252 372.057 354.383 235.921 118.462 109.847 208.214 141.398 58.0485 27.7062 89.2585 44.5438 18.648 16.5204 41.5281 332.543 254.512 59.6633 194.848 163.98 66.8162 53.161 25.8957 14.8798 37.7361 32.0007 83.3498 55.9413
internal_count=4313 2403 662 1910 1819 1215 604 560 1070 730 300 145 463 231 97 85 215 1741 1331 310 1021 860 340 270 134 76 196 166 430 288
is_linear=0
shrinkage=0.03


Tree=6
num_leaves=31
num_cat=0
split_feature=47 11 10 43 19 17 22 27 36 33 45 16 47 50 47 33 25 19 45 11 11 27 32 25 43 18 28 46 10 18
split_gain=22.0896 11.2879 10.1013 14.8334 10.4099 8.90314 8.53168 11.6354 8.58101 9.14182 11.5141 8.25435 8.51829 10.0118 8.12541 7.98192 8.22333 11.2266 12.0308 9.21647 8.3196 11.5615 8.73909 9.51209 7.9739 7.86509 7.20651 7.03429 8.60707 9.14674
threshold=0.19904063642024997 81.500000000000014 6.0000000000000009 1.0000000180025095e-35 90.936309814453139 55.049999237060554 0.064124595373868956 0.43050193786621099 0.16516205668449405 0.45099695026874548 0.12008583545684816 91.649997711181655 0.27893580496311193 0.029997127130627636 0.29375733435153967 0.27892883121967321 0.1568287014961243 92.110385894775405 0.093471180647611632 46.500000000000007 67.500000000000014 0.16631206125020984 34.500000000000007 0.069848757237195983 1.5000000000000002 11.150000095367433 0.19059891998767856 0.0556415542960167 570.00000000000011 9.4499998092651385
decision_type=2 2 2 2 2 2 2 2 2 2 2 2 2 2 2 2 2 2 2 2 2 2 2 2 2 2 2 2 2 2
left_child=1 15 3 -2 26 -5 7 -6 -8 10 11 12 13 -10 -14 -1 17 18 19 -17 22 -22 23 -21 27 -18 -4 28 29 -19
right_child=2 -3 4 5 6 -7 8 -9 9 -11 -12 -13 14 -15 -16 16 25 24 -20 20 21 -23 -24 -25 -26 -27 -28 -29 -30 -31
leaf_value=-0.019210304888278497 0.03835201760500416 -0.0077449466968636362 0.039658821759714663 0.012065007667491261 -0.014065300271739507 -0.0228735364971599 0.018810749522747479 0.024494918889554542 -0.020322348577458831 -0.012283761435181825 -0.023151504004407571 0.02621249965214709 0.026035352947814585 -0.00053293210663159923 0.00090465356435565178 0.042306998175566421 0.01080988748789094 -0.0046164947290157033 0.036163383197751107 -0.012772639448928076 -0.014977123254945874 0.028877280190388478 -0.024670555823036597 0.02383312108762151 0.026057179457326027 0.055141558742213381 0.0018358159917177589 0.021950337129886293 -0.012358341099560849 0.016840766143106763
leaf_weight=7.8370977938175193 11.251448288559912 41.987010210752487 6.5336802154779461 15.662169963121416 130.41959162056446 9.8260989636182767 14.229546427726744 6.522982880473136 26.512969672679901 90.949078589677811 18.75662536919117 9.8882305324077588 17.626721769571304 141.96896366775036 31.150657162070274 6.2578852176666251 9.0215933322906476 40.789092481136322 20.764498993754387 11.148212149739267 6.430836662650111 20.959191337227821 10.777022644877432 12.556059718132017 11.202140390872954 5.945034831762313 11.871090978384016 11.544361561536787 41.864894405007362 30.2989182472229
leaf_count=40 58 216 33 81 683 51 73 34 139 475 98 51 92 741 163 31 46 210 104 57 33 106 55 64 57 30 61 59 217 155
internal_value=-0.000198067 0.0064817 -0.00376497 0.0112154 -0.00487466 -0.00170271 -0.00572353 -0.0120534 -0.00322302 -0.00421115 -0.00118171 0.000719382 -0.000548808 -0.00375746 0.0103569 0.00892368 0.00992634 0.00839381 0.0166234 0.0102093 0.0063177 0.0183631 -0.00345611 0.00673643 0.00290964 0.0308639 0.0166921 0.000623859 -0.00171615 0.0046149
internal_weight=832.554 289.384 543.17 36.7397 506.43 25.4883 488.025 136.943 351.083 336.853 245.904 227.148 217.259 168.482 48.7774 247.397 239.56 224.593 88.8937 68.1292 61.8713 27.39 34.4813 23.7043 135.699 14.9666 18.4048 124.497 112.953 71.088
internal_count=4313 1480 2833 190 2643 132 2549 717 1832 1759 1284 1186 1135 880 255 1264 1224 1148 450 346 315 139 176 121 698 76 94 641 582 365
is_linear=0
shrinkage=0.03


Tree=7
num_leaves=31
num_cat=0
split_feature=24 15 19 19 6 51 39 1 33 10 37 11 43 43 30 21 37 29 48 21 10 29 51 33 48 33 19 21 46 37
split_gain=22.5097 12.5393 11.1943 11.0118 12.1872 10.9902 14.1929 11.3764 9.71008 9.08216 8.76406 9.95514 7.92594 7.75762 7.64946 7.59754 9.39102 7.63425 8.73107 9.95574 9.11584 6.67495 6.64828 6.58702 8.70359 6.81793 6.54054 6.52377 7.2061 7.24513
threshold=0.21842504292726519 14.050000190734865 90.864582061767592 92.110385894775405 0.36436195671558386 5.5000000000000009 0.29509450495243078 0.4057664573192597 0.4681274294853211 6.0000000000000009 0.19837177544832232 52.500000000000007 1.0000000180025095e-35 1.0000000180025095e-35 0.12919639050960544 0.058041602373123176 0.22428673505783084 0.43577049672603613 1.2057077288627627 0.025327146984636787 50.000000000000007 0.11147660762071611 36.500000000000007 0.45163977146148687 1.5157072544097903 0.41513483226299291 94.98752593994142 0.064535059034824385 0.035738850012421615 0.25528690218925482
decision_type=2 2 2 2 2 2 2 2 2 2 2 2 2 2 2 2 2 2 2 2 2 2 2 2 2 2 2 2 2 2
left_child=1 3 -2 5 14 -1 12 23 -6 13 11 -9 -7 -4 21 17 -17 18 19 -11 -20 -5 -12 24 25 -8 -22 28 29 -18
right_child=2 -3 9 4 8 6 7 10 -10 15 22 -13 -14 -15 -16 16 27 -19 20 -21 26 -23 -24 -25 -26 -27 -28 -29 -30 -31
leaf_value=-0.011691167745225842 0.021824258817190755 -0.018837754850085445 0.034605795908649858 0.0043376407275308466 -0.024938456764513683 0.065892731033141319 -0.024514582605750367 0.032615106787199678 0.015893571589817825 0.011757657314033138 0.052700298673976229 -0.0026864990718502113 0.024114913253738917 0 0.0070373418171666337 -0.015440952943784293 -0.01636160218258666 0.016035866474173578 -0.029670006591745277 -0.023750054772092674 -0.0028315282339745436 -0.030156334526207085 0.012511292274993636 -0.014626899786750662 0.030885541983105835 0.015063600361646846 0.029163644050643787 -0.0034893528185296883 0.032510109812376564 0.012873794663925988
leaf_weight=12.72776187956333 12.973947316408156 17.489620357751846 7.8521450161933926 9.796521723270418 21.471797764301304 6.0595627725124386 7.0493363589048403 10.445723116397859 6.0335052311420432 7.2316285967826834 9.9447664171457308 18.786648228764534 15.600548073649405 16.984039574861526 190.0110011100769 50.154398962855339 10.799202859401705 7.112044855952262 8.6873045563697797 70.562765404582024 31.195213541388512 8.8340750336647016 6.9681649506092063 16.497560352087021 9.0582884401082975 6.6612043082714081 6.0001924633979788 200.12067550420761 8.5386210680007917 20.575294226408005
leaf_count=65 66 91 40 50 114 30 36 52 31 38 50 95 78 88 974 264 57 37 46 372 163 46 35 84 45 34 31 1049 44 108
internal_value=-0.000184575 0.00527456 -0.00463318 0.00651299 0.00272345 0.0138861 0.0170204 0.0112361 -0.0156857 -0.00545362 0.0211714 0.0105399 0.0382608 0.0118355 0.00522073 -0.0065028 -0.00376681 -0.0124873 -0.014255 -0.020323 -0.00372062 -0.012645 0.0378489 -0.000638254 0.00962331 -0.00546688 0.00291892 -0.00126736 0.00964981 0.00256999
internal_weight=832.224 373.436 458.787 355.946 236.147 119.8 107.072 85.4117 27.5053 445.814 46.1453 29.2324 21.6601 24.8362 208.642 420.977 290.188 130.789 123.677 77.7944 45.8827 18.6306 16.9129 39.2664 22.7688 13.7105 37.1954 240.034 39.9131 31.3745
internal_count=4313 1910 2403 1819 1215 604 539 431 145 2337 232 147 108 128 1070 2209 1522 687 650 410 240 96 85 199 115 70 194 1258 209 165
is_linear=0
shrinkage=0.03


Tree=8
num_leaves=31
num_cat=0
split_feature=47 4 5 38 51 35 4 5 3 4 11 5 4 51 28 5 25 4 28 47 21 29 22 21 33 5 36 30 31 0
split_gain=20.0115 13.6599 19.6018 16.1207 13.9773 14.3048 12.6038 18.0666 10.0976 9.62716 9.38499 10.5726 10.4485 14.9228 12.1777 11.794 8.92202 7.61756 11.5491 8.52659 9.35752 7.50703 7.28271 11.1397 10.6325 6.96192 6.84862 11.527 6.84774 6.82285
threshold=0.19645475596189502 1.4804882407188418 0.357481598854065 0.34287993609905248 12.500000000000002 0.038303494453430183 1.5908318758010866 0.3329304456710816 0.34823967516422277 1.5217577219009402 81.500000000000014 0.36742210388183599 1.4957824349403384 15.500000000000002 0.19363282620906833 0.33150982856750494 0.12993506342172625 1.2748638987541201 0.25332021713256841 0.3281074464321137 0.076616451144218459 0.33269721269607549 0.080678351223468794 0.07696936279535295 0.41730362176895147 0.32862502336502081 0.19663183391094211 0.23578050732612613 0.41588050127029424 0.76009714603424083
decision_type=2 2 2 2 2 2 2 2 2 2 2 2 2 2 2 2 2 2 2 2 2 2 2 2 2 2 2 2 2 2
left_child=10 3 4 16 8 6 7 -6 -3 -7 11 12 15 25 -15 22 17 18 -2 -19 -21 -9 26 -24 -25 -14 -1 -28 -8 -10
right_child=1 2 -4 -5 5 9 28 21 29 -11 -12 -13 13 14 -16 -17 -18 19 -20 20 -22 -23 23 24 -26 -27 27 -29 -30 -31
leaf_value=0.013026725445260661 -0.0082364173703601724 0.021064946798575606 -0.016927968996773301 0.0088335392198521344 0.02352631073945181 0.010896487350508311 0.0088408541327442206 -0.014873887531372081 -0.020301362512059131 0.04920448045413265 -0.0068920753701972974 -0.02440052780568246 0.02543145372074521 0.04611560421865224 0.012905684056529601 -0.0049379887248817908 -0.024607549668170539 -0.010143469176644255 0.039457688380528606 0.038982330172541962 -0.0080628758515921689 0.017420383288381476 0.036729915943077805 0.027878662154026974 -0.010979693913472574 -0.0081221726521950813 -0.023023982053051818 0.017503798640634897 0.046969233175073226 0.0090016325194210191
leaf_weight=35.63395382463932 10.614069759845735 8.8172243535518628 34.775798514485359 50.061169698834419 20.936526358127594 11.271179392933847 8.8203893303871173 37.765017420053482 27.699316829442978 13.689476624131201 40.098787277936935 7.4621987193822852 6.7749913483858135 21.22225259244442 20.203409552574158 59.334884107112885 30.379137948155403 254.73689357936382 6.6374790370464316 5.914320155978201 7.7615512907505035 6.86395239830017 20.203850641846657 10.383392900228502 13.366450920701025 18.557932868599892 15.036913946270944 9.4689932912588102 8.6052510440349561 8.7948890924453718
leaf_count=180 56 45 187 259 106 57 45 195 144 69 207 40 34 104 102 304 160 1346 35 31 41 35 101 52 68 95 78 49 43 45
internal_value=-0.000173596 -0.00346828 0.00308765 -0.00683887 0.00771927 0.0135561 0.00735154 0.00114913 -0.00614677 0.03305 0.00638321 0.00864894 0.00982773 0.0197586 0.0306403 0.00566648 -0.00934614 -0.00763774 0.011188 -0.00889032 0.0134502 -0.00960121 0.0117149 0.0208755 0.00638851 0.00141938 0.00476341 -0.00723309 0.0292783 -0.0131478
internal_weight=831.892 554.144 188.039 366.105 153.263 107.952 82.9911 65.5655 45.3114 24.9607 277.748 237.649 230.187 66.7586 41.4257 163.428 316.043 285.664 17.2515 268.413 13.6759 44.629 104.094 43.9537 23.7498 25.3329 60.1399 24.5059 17.4256 36.4942
internal_count=4313 2899 971 1928 784 550 424 336 234 126 1414 1207 1167 335 206 832 1669 1509 91 1418 72 230 528 221 120 129 307 127 88 189
is_linear=0
shrinkage=0.03


Tree=9
num_leaves=31
num_cat=0
split_feature=5 4 51 5 34 30 40 34 1 30 6 45 17 4 27 4 5 6 19 4 6 30 41 4 19 50 30 50 45 36
split_gain=18.1641 28.3535 19.6638 17.4025 15.83 13.4718 11.6656 11.6204 11.4442 8.83009 13.2796 10.471 10.1708 18.2979 10.7417 8.68589 10.2918 8.346 9.40962 9.93629 10.9782 11.333 8.33243 8.25139 8.19295 7.76161 7.41231 7.21997 7.09972 7.01315
threshold=0.36105354130268102 1.5003131628036501 16.500000000000004 0.33150982856750494 0.055829957127571113 0.21907998621463778 0.23196277022361758 0.037995604798197753 0.42853631079196935 0.18534500151872638 0.3214042484760285 0.095185421407222762 52.549999237060554 1.34441214799881 0.17782169580459598 1.6897014379501345 0.32166336476802831 0.33311706781387335 91.450649261474624 1.5908318758010866 0.35003466904163366 0.25146564841270452 0.087954547256231322 1.7204543352127077 92.01239395141603 0.038013357669115073 0.23515953123569491 0.031351495534181602 0.099722139537334456 0.17735201865434649
decision_type=2 2 2 2 2 2 2 2 2 2 2 2 2 2 2 2 2 2 2 2 2 2 2 2 2 2 2 2 2 2
left_child=1 3 8 4 6 -4 7 9 -3 10 -1 12 13 -11 -14 16 -10 -7 -19 20 21 -20 -12 -2 25 29 -8 -9 -26 -5
right_child=23 2 5 24 -6 17 26 27 15 11 22 -13 14 -15 -16 -17 -18 18 19 -21 -22 -23 -24 -25 28 -27 -28 -29 -30 -31
leaf_value=-0.020482709566612956 -0.025116280040586653 0.034294953147236532 0.030925761341180084 -0.017017212403560956 0.03132357266224154 0.041513267465628466 -0.018902480850445477 0.016191249160444236 0.018764565752168467 -0.011996129854077916 0.025103802461807712 0.032868989477001502 0.031456056756968054 0.051725329985738332 -0.0017444684706970702 0.019260984774593821 -0.013442857155015107 0.039589396112370834 -0.016058212130838908 0.022326365309890083 -0.015699969664914156 0.030394988722412683 -0.0072796008994567771 0.0052915649697192063 -0.0090841301905893925 -0.01790089105566757 -0.0025250780136028125 -0.013615260528895924 -0.024678519527762986 0.014656068749694898
leaf_weight=18.709504142403603 35.210214525461197 6.6366014033555976 45.641037359833717 6.9348060935735694 14.42829257249832 5.9887772649526587 30.290402099490166 8.1237370520830137 9.6662689298391324 5.7435954362154034 15.854691863059999 20.568117693066597 9.4058382362127286 10.413842394948004 54.871675938367844 11.057216435670851 55.519026637077332 6.1092816293239585 6.6899822652339962 16.555263116955757 28.07061693072319 11.692037627100943 11.696671128273008 9.8259684890508634 138.18733423948288 12.623175173997877 124.91901543736458 37.014042526483536 32.547998085618019 30.456046551465988
leaf_count=96 193 33 225 35 73 30 159 42 49 30 80 104 47 53 285 56 287 30 34 83 144 59 59 53 731 65 659 191 172 156
internal_value=-0.00016072 0.000908528 0.0105183 -0.00245881 0.00158731 0.0181919 0.000262437 0.0051908 -0.00072722 0.00926561 -0.00154491 0.0141983 0.00906058 0.0296074 0.0034983 -0.0041997 -0.00843283 0.0101293 0.00683537 0.00306719 -0.00409083 0.0134551 0.0115298 -0.0184785 -0.00907865 0.00155108 -0.00583141 -0.00798362 -0.0121921 0.00845237
internal_weight=831.451 786.415 203.626 582.789 362.039 120.747 347.611 192.402 82.8791 147.264 46.2609 101.003 80.435 16.1574 64.2775 76.2425 65.1853 75.106 69.1172 63.0079 46.4526 18.382 27.5514 45.0362 220.749 50.014 155.209 45.1378 170.735 37.3909
internal_count=4313 4067 1030 3037 1878 605 1805 987 425 754 235 519 415 83 332 392 336 380 350 320 237 93 139 246 1159 256 818 233 903 191
is_linear=0
shrinkage=0.03


Tree=10
num_leaves=31
num_cat=0
split_feature=40 4 37 21 25 51 19 14 39 4 42 2 49 30 14 4 33 31 43 49 21 30 46 23 49 21 25 11 19 31
split_gain=32.9743 15.6202 14.9867 14.3287 15.0669 10.9287 14.9802 20.4854 10.483 10.4735 9.27849 8.60151 9.77693 8.54788 9.05434 8.44762 8.439 8.25308 12.3758 9.61378 9.55088 8.44791 8.01925 11.652 7.82408 8.41213 7.19028 7.18073 6.89778 10.2542
threshold=0.20587477833032611 1.4804882407188418 0.24442284554243091 0.065467201173305525 0.028653530403971676 40.500000000000007 91.974166870117202 104.50000000000001 0.30712947249412542 1.4947201609611513 0.32291667163372045 0.24727088212966922 0.32420793175697332 0.229654535651207 100.50000000000001 1.6897014379501345 0.35306634008884435 0.38956639170646673 1.1666666865348818 0.32267294824123388 0.070313926786184325 0.21191300451755526 0.028063144534826282 0.018785644322633747 0.3165766596794129 0.076054889708757414 0.089323710650205626 68.500000000000014 91.040985107421889 0.52704679965972911
decision_type=2 2 2 2 2 2 2 2 2 2 2 2 2 2 2 2 2 2 2 2 2 2 2 2 2 2 2 2 2 2
left_child=5 28 -3 4 -4 9 7 8 -7 16 22 12 -5 -6 -15 -13 27 21 19 -19 -21 -8 23 -11 25 -18 -22 -1 29 -2
right_child=1 2 3 11 13 6 17 -9 -10 10 -12 15 -14 14 -16 -17 24 18 -20 20 26 -23 -24 -25 -26 -27 -28 -29 -30 -31
leaf_value=-0.0024950729920449719 0.028389467724717173 -0.0061480485571042617 -0.021110440333131447 0.039384487509312061 0.052258614644918835 0.040083502829684939 0.045896378892465207 0.076002598887554521 0.0033989890834684902 -0.0057815114560997921 0.041037125742136964 -0.018758321958752443 -3.6633690737121892e-05 0.004132050960776467 0.034316087345669676 0.018048321419628005 -0.0061229258750350292 0.022430600713448955 0.029164688936993255 -0.027151953062744868 0.02591153787707997 0.0015637561721894731 -0.0021330604547656648 0.039432734131436421 -0.0086736149390533208 0.035144031451675259 -0.011462538776258586 0.032795964060937294 -0.0087137266651764883 -0.014089935966973157
leaf_weight=9.4246595203876513 10.376274585723879 91.295703262090683 5.7655102014541617 7.3073591738939312 9.3439251184463483 11.505830615758898 8.0712390244007093 6.6720161736011496 16.652081772685051 7.8447363674640682 8.8899472206830961 24.228420779109005 17.539335697889328 17.869540646672249 17.83185663819313 6.3168774992227545 8.8063561916351336 8.0993021130561811 11.009947016835211 17.471952617168427 6.7308758199214962 6.9981072545051566 26.792799204587936 12.432403489947317 81.221870198845863 7.4035457372665396 10.569770857691763 10.013285189867018 344.5823020786047 8.4008199125528318
leaf_count=48 53 473 30 37 47 56 41 32 84 40 44 126 89 92 91 33 45 41 55 90 34 36 135 62 417 38 54 50 1826 43
internal_value=0.000120667 -0.00405704 0.00271952 0.0103426 0.0216835 0.00858092 0.0162361 0.0320227 0.019301 0.00390856 0.0144595 -0.000233784 0.0125742 0.027533 0.0197732 -0.0107682 -0.00121056 0.00789641 0.00219598 -0.00520257 -0.012128 0.0267804 0.0086594 0.0224203 -0.00485483 0.0135847 0.00361735 0.0163265 -0.00774181 0.00955699
internal_weight=837.469 560.858 197.499 106.203 50.8108 276.611 103.781 34.8299 28.1579 172.83 55.9599 55.392 24.8467 45.0453 35.7014 30.5453 116.87 68.9512 53.8818 42.8719 34.7726 15.0693 47.0699 20.2771 97.4318 16.2099 17.3006 19.4379 363.359 18.7771
internal_count=4342 2940 1018 545 260 1402 523 172 140 879 281 285 126 230 183 159 598 351 274 219 178 77 237 102 500 83 88 98 1922 96
is_linear=0
shrinkage=0.03


Tree=11
num_leaves=31
num_cat=0
split_feature=24 4 1 4 42 37 48 23 37 25 20 30 35 20 2 47 28 30 16 4 25 38 23 17 16 48 35 48 29 17
split_gain=32.0915 17.8059 12.9075 10.0631 9.98024 12.2873 8.90327 8.67256 9.6769 8.62294 10.0272 12.4033 8.90754 8.55902 8.31583 7.57808 10.499 11.25 7.43923 7.38255 9.25435 9.86842 7.3611 8.61918 8.20598 7.73574 7.21543 8.02808 10.7432 9.10759
threshold=0.20864725857973102 1.4804882407188418 0.44977028667926794 1.468406677246094 0.18465909361839297 0.16007812321186068 1.4318754673004153 0.039919137954711921 0.23803876340389254 0.072787474840879454 0.076221644878387465 0.19022621959447863 0.024888534098863605 0.12679491192102435 0.23174964636564258 0.27280023694038397 0.25722640752792364 0.40060241520404821 90.950000762939467 1.5553857088088991 0.084461312741041197 0.29270687699317938 0.015333686023950579 61.549999237060554 74.350002288818374 1.240017354488373 0.018416509963572029 1.2778410315513613 0.22243923693895343 46.850000381469734
decision_type=2 2 2 2 2 2 2 2 2 2 2 2 2 2 2 2 2 2 2 2 2 2 2 2 2 2 2 2 2 2
left_child=4 3 7 15 9 -6 13 8 -3 22 -11 -12 -13 19 -9 26 -17 -18 -7 -4 -21 -22 -1 24 -24 -25 -2 29 -29 -28
right_child=1 2 6 -5 5 18 -8 14 -10 10 11 12 -14 -15 -16 16 17 -19 -20 20 21 -23 23 25 -26 -27 27 28 -30 -31
leaf_value=-0.0065717208222312636 0.0045167238666250957 -0.0079499260415275743 -0.01753824434523454 -0.029955051514701327 0.023385876073356408 -0.0027132107278710063 -0.026369706441542511 0.053101438919401257 0.016351781864453713 -0.0089685926079901002 0.00093304311101432582 -0.0011046530199209559 0.034295045760734819 0.031089341151351008 0.0088496769224615628 -0.009708522052942611 0.018266983969608491 -0.024642749364388147 0.026098652572393556 -0.0056456746409076202 0.041161825459842136 -0.0012592592564246859 0.018525564023367354 0.038858658749160016 0.051445481996728118 0.0027558288933089634 0.009576671595582632 -0.021434584308536241 0.0011873302898361335 -0.01951950274986762
leaf_weight=7.2124821096658698 26.742660805583 23.18021234869957 21.951638698577881 17.871813222765923 20.380951032042503 134.47715276479721 12.712995082139967 7.3142387568950644 37.109882906079292 25.50785705447197 38.972623124718666 8.2799410223960859 25.161020427942276 6.1656163781881324 8.1477974504232389 41.863634496927261 33.609796434640884 5.6130347698926917 7.5732716917991629 39.760991305112839 8.5999099761247653 9.9032678753137571 15.671051427721979 6.2027896344661739 14.530513748526571 21.779482573270798 9.9591963142156583 25.157944992184639 67.307305634021759 108.3491718173027
leaf_count=37 142 120 116 95 102 686 67 36 187 130 197 42 125 31 41 223 179 30 38 208 44 51 79 31 72 111 52 133 356 581
internal_value=0.000130725 -0.00455308 0.00319494 -0.00858127 0.00747882 0.00217942 -0.00391199 0.0124412 0.00700657 0.012695 0.00692469 0.0125895 0.025709 -0.000325706 0.031828 -0.00728765 0.000610462 0.011629 -0.000994944 -0.00311189 0.0025023 0.0194799 0.0210782 0.0245841 0.0355532 0.0118751 -0.00998156 -0.0118408 -0.00511507 -0.0169979
internal_weight=837.07 511.321 174.847 336.475 325.749 162.431 99.0944 75.7521 60.2901 163.318 97.9214 72.4136 33.441 86.3814 15.462 318.603 81.0865 39.2228 142.05 80.2158 58.2642 18.5032 65.3963 58.1838 30.2016 27.9823 237.516 210.774 92.4653 118.308
internal_count=4342 2692 901 1791 1650 826 517 384 307 824 494 364 167 450 77 1696 432 209 724 419 303 95 330 293 151 142 1264 1122 489 633
is_linear=0
shrinkage=0.03


Tree=12
num_leaves=31
num_cat=0
split_feature=24 4 5 5 4 34 16 4 42 51 51 42 25 28 17 48 33 51 37 51 25 11 47 28 19 4 35 48 29 17
split_gain=30.2466 16.8967 15.1474 14.7209 11.6421 11.2495 10.3656 9.7187 9.65208 9.45386 9.41399 10.1918 9.45319 9.20049 9.03563 9.00436 8.40253 10.7374 8.09055 11.249 7.50007 7.3047 7.18511 9.86448 11.1332 6.90559 6.85754 7.68268 10.258 8.70577
threshold=0.20864725857973102 1.4804882407188418 0.35340751707553869 0.33982203900814062 1.5123943686485293 0.015836359933018688 90.950000762939467 1.468406677246094 0.18465909361839297 23.500000000000004 32.500000000000007 0.16228070110082629 0.075049407780170455 0.19614048302173617 62.049999237060554 1.2920250296592715 0.37439891695976263 24.500000000000004 0.24492089450359347 12.500000000000002 0.087405167520046248 81.500000000000014 0.27280023694038397 0.25722640752792364 95.871051788330092 1.7204543352127077 0.018416509963572029 1.2778410315513613 0.22243923693895343 46.850000381469734
decision_type=2 2 2 2 2 2 2 2 2 2 2 2 2 2 2 2 2 2 2 2 2 2 2 2 2 2 2 2 2 2
left_child=2 7 4 18 5 -1 8 22 10 -6 11 -7 14 -11 -12 -10 17 -5 -3 -20 -14 -17 26 -24 -25 -4 -2 29 -29 -28
right_child=1 3 25 16 9 6 -8 -9 15 13 12 -13 20 -15 -16 21 -18 -19 19 -21 -22 -23 23 24 -26 -27 27 28 -30 -31
leaf_value=-0.0096761246237398665 0.0043765241638173595 0.001552790894175528 -0.017600290737417309 -0.010043329835298662 0.011343165500760337 -0.0045165161416261127 0.03407809865373583 -0.029527634579945696 -0.015858930078397726 0.052469246432894912 0.058400194447473387 0.028252053766436264 -0.013940533034817994 0.012782382222597923 0.016118749985614644 0.0096599449803928764 -0.0094542689476103253 0.029011758773096485 -0.0038882848601496057 0.03015692765178379 0.019680311753812317 -0.016340137008199855 -0.0094694898403910755 0.021640572669002489 -0.011884509581457325 0.015753338338490436 0.0092761788183522136 -0.021033247531068684 0.001151558522082424 -0.01912866775640755
leaf_weight=32.883125081658363 26.802474364638329 33.045120939612389 28.15913662314415 11.221046209335329 37.677707940340042 33.681304484605789 12.946208924055098 17.605123698711395 22.511657357215881 12.570159196853639 9.5003628581762332 10.33748723566532 7.1368706971406963 10.137885689735411 10.122506886720656 59.769189268350601 74.846120253205299 12.38285183906555 11.488527849316595 32.02519565820694 22.639446467161179 10.607155397534369 41.661116093397141 27.265065759420395 12.193406760692595 6.0389030128717414 10.00504410266876 24.891988784074783 67.346627458930016 107.28280489146709
leaf_count=168 142 169 147 59 188 171 64 95 117 59 46 52 36 50 51 302 393 63 59 158 113 55 223 144 65 31 52 133 356 581
internal_value=0.000131842 -0.00442843 0.00724755 0.00310891 0.00946263 0.00634769 0.00903474 -0.00836741 0.00711385 0.0211142 0.0138689 0.00360224 0.0227346 0.036101 0.0385011 0.000228941 -0.00454047 0.0107308 0.0128966 0.0212492 0.0113821 0.00554616 -0.00710016 0.000583247 0.0112059 -0.0113877 -0.00973514 -0.0115596 -0.00498063 -0.016635
internal_weight=836.782 510.063 326.719 175.009 292.521 232.135 199.252 335.054 186.306 60.3858 93.418 44.0188 49.3992 22.708 19.6229 92.888 98.45 23.6039 76.5588 43.5137 29.7763 70.3763 317.449 81.1196 39.4585 34.198 236.329 209.526 92.2386 117.288
internal_count=4342 2692 1650 901 1472 1175 1007 1791 943 297 469 223 246 109 97 474 515 122 386 217 149 357 1696 432 209 178 1264 1122 489 633
is_linear=0
shrinkage=0.03


Tree=13
num_leaves=31
num_cat=0
split_feature=40 4 5 23 5 4 34 47 5 49 0 49 34 28 6 1 37 1 34 49 50 21 34 34 47 27 26 38 23 7
split_gain=28.6639 13.3153 16.6596 12.5925 11.8452 15.6361 14.5847 14.8076 10.1451 9.8917 9.29718 12.0128 9.29152 7.93773 7.89269 7.8926 11.0082 8.43412 7.81519 7.74971 9.92622 7.9503 7.51079 13.459 7.77115 7.40168 7.33309 8.79075 8.22855 7.09741
threshold=0.20587477833032611 1.4804882407188418 0.36105354130268102 0.0404903031885624 0.35267655551433569 1.4900028109550478 0.028724198229610923 0.15399074554443362 0.33150982856750494 0.32118737697601324 0.69402870535850536 0.33210256695747381 0.020421194843947891 0.19363282620906833 0.33622914552688604 0.47818191349506384 0.23697473108768466 0.44752989709377294 0.031923834234476096 0.31986016035079962 0.036958180367946632 0.065714664757251753 0.053804798051714904 0.039745088666677482 0.15496478974819186 0.22587393224239352 0.0355442762374878 0.32440575957298284 0.030316546559333805 4.5000000000000009
decision_type=2 2 2 2 2 2 2 2 2 2 2 2 2 2 2 2 2 2 2 2 2 2 2 2 2 2 2 2 2 2
left_child=4 8 3 15 5 6 26 14 22 -9 11 -11 -6 -7 -8 16 -3 19 -12 -18 21 -21 23 24 -2 -19 28 -28 -1 -5
right_child=1 2 -4 29 12 13 7 9 -10 10 18 -13 -14 -15 -16 -17 17 25 -20 20 -22 -23 -24 -25 -26 -27 27 -29 -30 -31
leaf_value=-0.0023903732693086772 0.028608109471016982 -0.012801715053263472 -0.019255792362774481 0.030792236121012975 0.019108675590677186 0.031837593261198921 0.042899090606381751 0.026268096558560525 -0.013735174896309913 -0.007311068941401079 0.013761548617864683 0.029411107510452509 -0.019228157052669601 0.0088267038259507088 0.005365891900635556 0.016901503443340071 -0.013813821093324234 0.017215235127268476 -0.015851685860730512 0.053089393285594581 -0.0010018448390955986 0.013790956351999829 0.025609382162433275 -0.024100717853120977 -0.0027136343641871534 -0.014407462574598578 -0.009648704760812199 0.02583325876714946 -0.02767410946887806 0.0010828167554921507
leaf_weight=38.051776647567749 6.4088228195905677 45.787407591938972 26.486073210835457 23.531147584319115 6.6302604973316219 36.897590845823288 17.743785068392757 17.293795600533485 134.0502742677927 13.554105401039125 9.9936154335737211 17.367288023233414 22.099612295627594 22.843001663684845 7.4619778096675864 24.386242881417274 5.9770258814096442 8.3643979281187075 29.30301570892334 9.1872777491807991 11.173065051436422 10.511410191655157 6.8127802014350882 26.162858560681343 186.24130690097809 22.234576001763344 10.911433085799219 12.516413256525992 15.894441083073614 10.522503688931463
leaf_count=194 32 238 147 117 34 177 86 87 724 69 50 88 116 113 37 123 30 42 150 45 56 52 35 140 991 115 56 63 82 53
internal_value=0.000131714 -0.00379 0.00244104 0.00588925 0.00797602 0.0100791 0.00579894 0.0126434 -0.00722436 0.00661239 0.00144951 0.0135425 -0.0099852 0.0233538 0.0324737 0.0017752 -0.0015887 0.00607725 -0.00812884 0.0155755 0.0215675 0.0338712 -0.00330596 -0.00432548 -0.00152157 -0.00544451 -0.00418689 0.00952778 -0.0102352 0.0219477
internal_weight=836.399 557.837 198.161 171.675 278.562 249.832 190.092 112.718 359.676 87.5118 70.218 30.9214 28.7299 59.7406 25.2058 137.621 113.235 67.4478 39.2966 36.8488 30.8718 19.6987 225.626 218.813 192.65 30.599 77.3741 23.4278 53.9462 34.0537
internal_count=4342 2940 1018 871 1402 1252 962 567 1922 444 357 157 150 290 123 701 578 340 200 183 153 97 1198 1163 1023 157 395 119 276 170
is_linear=0
shrinkage=0.03


Tree=14
num_leaves=31
num_cat=0
split_feature=28 4 0 6 6 17 42 27 6 35 25 33 16 34 20 16 4 25 17 16 4 0 0 14 35 7 20 10 35 32
split_gain=21.2376 11.4187 14.495 13.746 13.2747 13.2141 11.0736 10.4093 10.128 9.35151 8.50065 11.0059 8.31207 7.90533 11.9798 11.1152 8.40674 12.856 9.74979 7.83108 9.55485 11.8764 9.50991 9.30812 7.94022 7.81886 7.61884 7.33846 7.54203 7.0137
threshold=0.16447026282548907 1.4957824349403384 0.72822117805480968 0.34058152139186865 0.35617016255855566 53.750000000000007 0.22788461297750476 0.20468236505985263 0.30817034840583807 0.032489622011780746 0.04507891274988652 0.35430322587490087 92.350002288818374 0.053804798051714904 0.10232908278703691 73.549999237060561 1.5053569078445437 0.086347285658121123 61.850000381469734 83.549999237060561 1.4337298274040224 0.70395594835281383 0.71115759015083324 100.50000000000001 0.025337232276797298 2.5000000000000004 0.087950997054576888 472.50000000000006 0.029633169993758205 21.500000000000004
decision_type=2 2 2 2 2 2 2 2 2 2 2 2 2 2 2 2 2 2 2 2 2 2 2 2 2 2 2 2 2 2
left_child=8 3 4 5 25 6 7 -2 -1 -9 27 -12 19 14 15 -10 17 18 -17 20 22 -22 24 26 -7 -3 -23 28 -5 -19
right_child=1 2 -4 10 -6 12 -8 9 13 -11 11 -13 -14 -15 -16 16 -18 29 -20 -21 21 23 -24 -25 -26 -27 -28 -29 -30 -31
leaf_value=-0.016399690120860139 0.0031216473447657524 0.043146858296598881 -0.00057410840040828187 -0.007532338619686189 -0.010140986778682795 -0.014899227832970652 -0.0020411337469744715 0.050161004769692916 0.0035326613144760037 0.007703291969261475 0.0061332185137503471 -0.019432718640013408 0.019619421476721442 0.037535666398050033 -0.0053076175430347133 0.05670687234254175 0.041230018701825723 -0.019403629070822857 0.010382445347548992 -0.015210791604702891 0.039342499522295502 -0.00058834927613925106 -0.030148048529228803 -0.015700654362104247 0.00038793645262953419 0.014402705354515892 0.0349822271062947 -0.015503963420717724 0.035244908567281706 0.016290062276880665
leaf_weight=10.601298838853834 16.672988370060921 14.514241546392439 156.16104598343372 5.8039912730455416 11.009294897317885 41.284525707364082 35.161089181900024 12.612112358212473 37.926540032029152 7.8812949508428565 17.237883195281029 100.28368888795376 11.500763952732084 10.02364309132099 30.975110545754433 7.5844233632087734 18.034645959734917 9.3255690187215823 9.056703254580496 56.710174396634102 8.483297333121298 12.818262144923212 12.571652874350546 15.232273474335669 109.64240646362305 23.053013429045677 8.2475459128618223 9.2046196907758695 7.8237031847238541 8.5203808248043043
leaf_count=55 84 70 806 31 56 221 184 65 192 41 91 538 59 49 157 37 87 48 46 299 44 67 68 80 578 113 43 49 41 43
internal_value=0.000133123 -0.00203213 0.00389966 -0.00452077 0.0180334 -0.00131389 0.0100109 0.0212066 0.0106612 0.0350206 -0.0124145 -0.01565 -0.00430715 0.0129623 0.0106315 0.0161048 0.0249196 0.0154265 0.0335981 -0.00542107 -0.00268843 0.00943853 -0.00605624 0.00154197 -0.00385438 0.0263778 0.0142243 0.00413424 0.0176542 -0.0023223
internal_weight=835.958 693.91 204.738 489.172 48.5765 348.818 72.3275 37.1664 142.048 20.4934 140.354 117.522 276.491 131.447 121.423 90.4483 52.5217 34.4871 16.6411 264.99 208.28 44.7814 163.499 36.2981 150.927 37.5673 21.0658 22.8323 13.6277 17.8459
internal_count=4342 3628 1045 2583 239 1833 374 190 714 106 750 629 1459 659 610 453 261 174 83 1400 1101 234 867 190 799 183 110 121 72 91
is_linear=0
shrinkage=0.03


Tree=15
num_leaves=31
num_cat=0
split_feature=28 4 5 5 38 23 13 13 4 43 38 1 23 11 5 4 25 26 38 46 13 28 40 24 17 23 46 4 5 23
split_gain=22.274 16.3535 13.3512 13.2991 13.1134 12.3339 15.5551 10.3486 9.58462 8.78739 8.7122 7.94261 7.72666 8.81848 7.71623 11.4786 8.38074 8.16608 7.99965 7.43297 7.58683 7.99735 11.3899 10.4456 7.26349 7.22284 10.5581 7.48306 9.61415 7.12802
threshold=0.19363282620906833 1.4900028109550478 0.36105354130268102 0.3557617068290711 0.29812492430210119 0.04764815419912339 94.500000000000014 105.50000000000001 1.6992251276969912 0.58333334326744091 0.29975190758705145 0.43934071063995367 0.041704477742314346 70.500000000000014 0.33200104534626013 1.447101414203644 0.041753835976123817 0.038302518427371986 0.34703688323497778 0.044344905763864524 94.500000000000014 0.25933673977851873 0.25117611885070806 0.23543423414230349 67.149997711181655 0.0404903031885624 0.021687331609427932 1.4244266748428347 0.32166336476802831 0.024152765981853012
decision_type=2 2 2 2 2 2 2 2 2 2 2 2 2 2 2 2 2 2 2 2 2 2 2 2 2 2 2 2 2 2
left_child=1 5 4 8 -3 7 -7 12 14 10 -9 -6 13 -1 15 18 -17 -18 19 20 21 -2 23 -23 -13 26 -22 28 -28 -16
right_child=3 2 -4 -5 11 6 -8 9 -10 -11 -12 24 -14 -15 29 16 17 -19 -20 -21 25 22 -24 -25 -26 -27 27 -29 -30 -31
leaf_value=-0.012708686264886001 -0.019318372183586598 0.047269341766493389 -0.011033990086412919 -0.016722806368672967 0.035081562990567194 0.059474241968448499 0.0036830464589135224 0.024812638165361015 0.032391880237714568 0.027444569469973874 -0.013712189122555479 0.014320128792644257 -0.029131781128890408 0.0064804614890620555 -0.014289482683290496 -0.008763858282894825 0.0073401390577896505 0.030258773337586371 0.014152093800286368 -0.017141163505855504 -0.0085349870894037994 -0.0028459197969778385 -0.020104827168225699 0.046626583212125344 -0.019122768766967529 -0.01917442070795539 0.0060376927306684987 -0.012507696416214804 0.030173216892606988 -0.0027098167041293571
leaf_weight=42.027216240763664 34.367026045918465 15.725680261850355 10.874829232692717 55.685234859585762 13.646862074732779 6.2169767618179348 12.489947006106375 6.9240706712007549 6.4277805238962165 16.880615845322609 14.840512007474898 33.348499566316605 10.79412044584751 42.19200873374939 65.522054597735405 14.176415070891379 37.503645911812782 22.469780758023262 23.500682592391968 31.550545647740364 32.621180444955826 8.133981406688692 10.213572978973387 6.0163312405347815 6.1074922084808341 10.950640738010405 39.402711987495422 9.120531037449835 23.71920345723629 174.47046053409576
leaf_count=217 184 75 59 304 64 31 63 36 32 84 76 161 57 217 349 72 191 112 119 165 174 43 55 32 30 58 209 48 124 914
internal_value=0.000142657 0.00802735 0.0189506 -0.00288332 0.0237998 0.00221721 0.0243776 -0.00103123 -0.00145203 0.0118586 -0.000838627 0.0160767 -0.00635848 -0.0031145 -0.0019136 0.00125891 0.0114409 0.0163069 -0.0020583 -0.00397339 -0.00150057 -0.0101962 0.00286652 0.0197787 0.00876162 0.00294578 0.00542921 0.0117857 0.0154596 -0.00592366
internal_weight=837.921 232.069 79.7034 605.852 68.8285 152.365 18.7069 133.659 550.167 38.6452 21.7646 53.1029 95.0133 84.2192 543.739 303.746 74.1498 59.9734 229.596 206.096 174.545 58.7309 24.3639 14.1503 39.456 115.814 104.864 72.2424 63.1219 239.993
internal_count=4355 1170 389 3185 330 781 94 687 2881 196 112 255 491 434 2849 1586 375 303 1211 1092 927 314 130 75 191 613 555 381 333 1263
is_linear=0
shrinkage=0.03


Tree=16
num_leaves=31
num_cat=0
split_feature=28 4 23 13 13 2 38 19 37 32 47 38 47 43 38 48 4 28 29 17 22 33 31 29 30 22 29 29 47 19
split_gain=20.9817 15.2472 11.621 14.2801 10.1972 10.1252 9.70151 8.79443 9.60059 8.06876 8.22621 7.95856 8.17307 7.91105 8.03023 7.29198 7.21092 6.51502 7.46339 11.8771 10.151 8.88563 10.1945 8.7505 10.1287 9.28484 8.75196 8.31392 8.19632 11.338
threshold=0.19363282620906833 1.488995432853699 0.04764815419912339 94.500000000000014 105.50000000000001 0.22973840683698657 0.29679244756698614 89.093738555908217 0.16947730630636218 27.500000000000004 0.1686070114374161 0.35122959315776831 0.19039938598871234 0.58333334326744091 0.29975190758705145 1.1614052653312685 1.7070873975753786 0.22508277744054797 0.24959547072649005 50.049999237060554 0.084620811045169844 0.43729040026664739 0.54446640610694896 0.28862519562244421 0.25530508160591131 0.097837399691343321 0.27872478961944586 0.2654083520174027 0.29948709905147558 95.664070129394545
decision_type=2 2 2 2 2 2 2 2 2 2 2 2 2 2 2 2 2 2 2 2 2 2 2 2 2 2 2 2 2 2
left_child=1 2 4 -4 9 -3 -7 8 -2 11 -11 15 -13 14 -6 -1 -8 -9 19 20 -19 22 -21 24 -20 26 27 -26 -25 -30
right_child=7 5 3 -5 13 6 16 17 -10 10 -12 12 -14 -15 -16 -17 -18 18 23 21 -22 -23 -24 28 25 -27 -28 -29 29 -31
leaf_value=-0.00029061671193327887 -0.0044354479568101826 0.043412878104778077 0.056658391643977783 0.0035752163684269591 0.023912931913297002 0.033212057024789833 0.002462703737611047 -0.007550243718187204 0.044503324556779057 0.025211029381538595 -0.0052472702049104715 0.02471655808590285 -0.016794583750229457 0.02636820244772255 -0.01306423120663174 -0.026534145729540225 0.034029740233701825 -0.001613817459621297 -0.0069916385254517096 -0.010895732921549574 0.036859085278642775 -0.016865764263650978 0.00946315362069307 -0.0070660678219453162 0.024801883705020809 -0.0064763513743352503 0.039705898251754031 -0.0021297442478701049 0.034747903220258267 -0.0062509808801208639
leaf_weight=13.563658639788626 6.696000933647154 11.472652256488798 6.377334892749789 12.51049183309078 7.0054028183221844 16.105767220258713 46.621596664190292 212.38271820545197 6.3149848580360413 11.187358781695364 22.229583591222763 8.1989046186208707 6.9931557029485694 17.080298602581024 14.550861045718191 32.172668471932411 6.6367580443620673 15.385473221540453 23.633448928594589 51.301467105746269 9.1436278820037824 65.24646407365799 37.368179574608803 85.726227626204491 22.160859704017639 13.410019889473913 15.161937743425367 18.165762856602669 10.247351348400118 12.532986581325529
leaf_count=72 34 53 31 63 36 78 228 1123 30 55 116 41 36 84 75 169 33 80 125 271 47 348 194 452 117 70 79 96 53 66
internal_value=0.000141884 0.00777942 0.00212832 0.0235215 -0.0010519 0.0182222 0.0134766 -0.00280192 0.0206913 -0.00637109 0.00534225 -0.0128022 0.00565855 0.011732 -0.000453417 -0.0189562 0.00697874 -0.00335493 -0.000989356 -0.00544252 0.0135509 -0.00854705 -0.00228928 0.0029633 0.00969493 0.0154583 0.0208067 0.0128758 -0.0027997 0.0128143
internal_weight=837.584 232.706 151.87 18.8878 132.982 80.8368 69.3641 604.878 13.011 94.3453 33.4169 60.9284 15.1921 38.6366 21.5563 45.7363 53.2584 591.867 379.484 178.445 24.5291 153.916 88.6696 201.039 92.532 68.8986 55.4886 40.3266 108.507 22.7803
internal_count=4355 1170 778 94 684 392 339 3185 64 489 171 318 77 195 111 241 261 3121 1998 940 127 813 465 1058 487 362 292 213 571 119
is_linear=0
shrinkage=0.03


Tree=17
num_leaves=31
num_cat=0
split_feature=5 40 1 33 51 35 5 3 34 51 34 36 18 11 27 19 10 19 35 34 23 34 20 6 9 33 31 7 33 1
split_gain=18.7365 15.8507 12.6934 13.0393 9.65016 8.21312 11.0604 11.052 11.3851 9.72614 8.18944 6.98373 6.94554 9.47592 9.1586 7.22238 6.93677 6.80484 6.78591 6.59534 8.49863 6.97531 6.96508 6.6317 6.67375 6.30438 8.53893 10.0826 8.07967 5.80759
threshold=0.36105354130268102 0.20405119657516482 0.47618925571441656 0.46640478074550634 55.500000000000007 0.039112975820899017 0.33200104534626013 0.34269113838672643 0.032692071050405509 35.500000000000007 0.053804798051714904 0.24290858954191211 7.6499998569488534 82.500000000000014 0.19157801568508151 94.45465469360353 42.500000000000007 90.766284942626967 0.038303494453430183 0.01908852439373732 0.0199746722355485 0.043235454708337791 0.099959712475538268 0.35457129776477819 6.5000000000000009 0.38639511168003088 0.69905659556388866 3.5000000000000004 0.41769866645336157 0.40661434829235082
decision_type=2 2 2 2 2 2 2 2 2 2 2 2 2 2 2 2 2 2 2 2 2 2 2 2 2 2 2 2 2 2
left_child=1 4 5 -4 11 6 10 -7 9 -9 17 12 14 -14 16 -16 -1 -3 -15 20 -8 22 -21 24 -22 -6 27 28 -27 -19
right_child=-2 2 3 -5 25 7 19 8 -10 -11 -12 -13 13 18 15 -17 -18 29 -20 21 23 -23 -24 -25 -26 26 -28 -29 -30 -31
leaf_value=0.033053008180556176 -0.018346154124780009 0.025416725390485815 0.026601474620665415 -0.014790612579266487 0.042493465354442067 -0.0022498328891316431 -0.014064772493351108 -0.0075773790751236707 0.045848949207998174 0.031369221021797275 0.031187528172515192 -0.025231312622762375 0.012806494064325805 0.0034047646075421778 -0.0046459651287480783 -0.035805937778408729 0.0012632103142947049 -0.0064069752089286154 -0.031688005126866044 -0.019648066373160786 0.015467477230927531 0.004838744875707345 -0.0011645921442659461 0.033869276367680695 -0.021639775987710733 0.0097140869398155572 -0.0094695338645452831 0.0013592789470472635 0.056457658147275963 0.0035814638997032711
leaf_weight=7.4602639973163631 45.559185042977333 7.202633559703826 24.988980814814568 8.5169735103845579 8.2797163277864438 63.972595155239105 20.260525077581406 14.701538428664213 9.0279005318880063 8.1687614172697049 6.1607254147529593 5.8278370499610892 116.28424791991711 13.411035105586054 29.723565742373466 7.8555158972740164 23.619574695825577 129.87777033448219 6.6622162610292426 95.370899707078934 9.9325248599052482 15.687107875943182 23.041666775941849 7.1999342739582053 6.2550305724143973 6.1219906508922604 9.7075039446353895 11.79030668735504 8.203643321990965 86.318715631961823
leaf_count=36 255 36 124 43 40 339 109 76 45 41 31 31 572 69 152 41 118 697 34 512 53 82 122 38 34 30 49 59 40 447
internal_value=0.000147594 0.00123562 -0.00168897 0.0159127 0.00738052 -0.00289325 -0.00475364 0.00496261 0.0191016 0.00700202 -0.000388153 0.00465156 0.00562665 0.00952453 -0.00211866 -0.0119578 0.00973312 -0.00140071 -0.00912219 -0.0103495 -0.000172399 -0.0136252 -0.0161038 0.0118843 0.000616803 0.0200012 0.0137491 0.022466 0.0385172 -0.00241395
internal_weight=837.191 791.632 536.684 33.506 254.947 503.178 407.308 95.8708 31.8982 22.8703 229.56 210.844 205.016 136.357 68.6589 37.5791 31.0798 223.399 20.0733 177.748 43.648 134.1 118.413 23.3875 16.1876 44.1032 35.8234 26.1159 14.3256 216.196
internal_count=4355 4100 2829 167 1271 2662 2161 501 162 117 1211 1053 1022 675 347 193 154 1180 103 950 234 716 634 125 87 218 178 129 70 1144
is_linear=0
shrinkage=0.03


Tree=18
num_leaves=31
num_cat=0
split_feature=5 4 5 34 1 4 19 51 0 37 47 19 23 36 4 29 5 4 45 11 1 36 27 19 2 51 27 23 44 19
split_gain=17.8242 23.5587 16.024 19.6086 14.8864 14.5621 13.4797 12.7268 13.9622 12.8063 10.8559 10.0007 9.57092 8.50244 8.49404 8.37256 7.73391 7.6725 11.4475 8.92458 8.47577 7.09271 8.51193 7.38515 6.92193 6.85335 6.76976 10.1101 6.57008 6.36347
threshold=0.36105354130268102 1.4930253028869631 0.33114743232727056 0.053804798051714904 0.42154377698898321 1.6992251276969912 90.239707946777358 24.500000000000004 0.72733509540557872 0.17707707732915881 0.15496478974819186 95.595932006835952 0.04002503119409085 0.17652704566717151 1.7204543352127077 0.23185112327337268 0.30960261821746832 1.447101414203644 0.085236586630344405 66.500000000000014 0.36657670140266424 0.22570596635341647 0.17970800399780276 94.676383972167983 0.19999572634696963 40.500000000000007 0.18874521553516391 0.0420953817665577 5.5000000000000009 95.689949035644545
decision_type=2 2 2 2 2 2 2 2 2 2 2 2 2 2 2 2 2 2 2 2 2 2 2 2 2 2 2 2 2 2
left_child=1 2 3 6 -3 7 -1 8 28 -9 15 13 -11 -10 -2 25 24 20 -19 -20 -18 22 -15 -23 -12 -8 -22 -28 -6 -4
right_child=14 4 29 -5 5 -7 10 9 11 12 16 -13 -14 21 -16 -17 17 18 19 -21 26 23 -24 -25 -26 -27 27 -29 -30 -31
leaf_value=0.022610229292771608 -0.024598448195865548 0.038231603689313443 -0.0064834219011368072 0.032606718619102922 -0.0046511957246319529 0.032506581301447061 -0.0062711155677681422 0.041431315670397956 -0.022015516773362775 0.0029568028434251103 -0.0071535262138533989 -0.028948974802560139 0.029183203687722176 -0.013173366440944963 0.0064629844108428118 0.040616079737453653 0.014817896050731645 -0.0015031629857773332 0.00672261772526901 0.053978853129690536 0.0076388971151554958 -0.017938633291972643 0.024180481365801684 0.01653323867371826 -0.032088303806135754 0.02832497411769869 -0.0047284128861656317 -0.028349453587098967 0.030585466055051566 -0.022258577821969674
leaf_weight=21.692337483167648 35.547843754291534 14.192461431026457 189.1387822329998 16.768131703138351 6.6285369992256191 17.866616576910019 14.608827337622648 11.418387293815611 14.735639020800589 62.163562163710594 50.518637344241142 15.516112148761747 14.831911548972128 6.8113462179899242 9.5664732754230482 7.7501336336135855 20.400752231478691 22.956207081675529 7.3066122829914075 6.9590995609760284 29.399223238229752 18.032218247652057 18.750313758850098 6.9861481487750998 11.905896976590155 6.7154869884252539 120.36840622127056 18.048695370554924 13.537385553121565 25.687156021595001
leaf_count=105 203 67 1011 82 33 86 73 53 73 310 271 81 70 34 52 37 108 119 37 35 151 94 94 36 64 32 640 97 66 141
internal_value=0.000147438 0.00120381 -0.0020212 0.00188612 0.0094858 0.00733625 0.000268965 0.00479588 -0.00246679 0.0130438 -0.00132174 -0.00807458 0.00833751 -0.00273137 -0.017982 0.0158291 -0.00310798 -0.000495119 0.0117591 0.0318993 -0.00297579 0.00317556 0.0140492 -0.00798955 -0.0123638 0.00533751 -0.00522274 -0.00800045 0.0192598 -0.00847103
internal_weight=836.809 791.695 570.224 355.398 221.471 207.278 338.63 189.412 100.998 88.4139 316.938 80.8318 76.9955 65.3157 45.1143 29.0744 287.864 225.439 37.2219 14.2657 188.217 50.58 25.5617 25.0184 62.4245 21.3243 167.816 138.417 20.1659 214.826
internal_count=4355 4100 3003 1851 1097 1030 1769 944 511 433 1664 412 380 331 255 142 1522 1187 191 72 996 258 128 130 335 105 888 737 99 1152
is_linear=0
shrinkage=0.03


Tree=19
num_leaves=31
num_cat=0
split_feature=5 40 2 51 47 34 41 46 5 6 16 15 5 32 38 21 8 19 40 38 6 50 35 16 16 34 37 37 13 38
split_gain=16.9619 14.2949 10.1568 8.89868 8.33259 8.41743 8.17192 7.70993 7.29047 12.4533 8.98585 9.8125 11.258 8.57948 7.94477 8.00841 9.31525 10.112 8.36556 7.79048 9.92752 7.96246 7.76942 7.62827 9.29821 7.33986 7.14839 11.463 11.6708 10.534
threshold=0.36105354130268102 0.20405119657516482 0.27112762629985815 55.500000000000007 0.20172291994094851 0.034642750397324569 0.084166668355464949 0.028063144534826282 0.32984755933284765 0.30682037770748144 90.350002288818374 1.0000000180025095e-35 0.31499570608139044 12.500000000000002 0.33791659772396093 0.089465208351612105 1.0000000180025095e-35 93.64737701416017 0.22936211526393893 0.26550126075744634 0.34613862633705145 0.034935979172587402 0.032489622011780746 83.350002288818374 80.149997711181655 0.027791569940745834 0.25717668235301977 0.24333967268466952 91.500000000000014 0.29546596109867101
decision_type=2 2 2 2 2 2 2 2 2 2 2 2 2 2 2 2 2 2 2 2 2 2 2 2 2 2 2 2 2 2
left_child=1 3 8 -1 5 7 -4 -5 9 -3 11 14 13 -13 15 16 -11 18 -18 20 21 -10 -22 24 26 -26 27 28 -21 -29
right_child=-2 2 6 4 -6 -7 -8 -9 19 10 -12 12 -14 -15 -16 -17 17 -19 -20 23 22 -23 -24 -25 25 -27 -28 29 -30 -31
leaf_value=0.0043683125237527392 -0.017627753796444472 -0.01522310433070645 0.025214403761451617 0.020026742744495649 0.040076646680014469 0.026378063434849736 -0.0044503882544569542 -0.018261724447028779 0.008662493324017877 0.0011713938175173192 0.029166348366323053 0.039530173070559685 -0.013457327868182089 -0.0043186135654794773 0.025460241051404545 -0.013288105304339765 0.0084481987083217785 0.0046934767412745299 0.056269867373158915 0.012085490601956943 0.0016609919987929094 -0.027495468415392785 0.037488553863849416 -0.021627892078767065 -0.0040401495945513299 0.034865684672130796 -0.016301623102942031 -0.015099751780606989 -0.015936296710892823 0.027510262378795454
leaf_weight=211.47624725103378 44.668363377451897 36.197720482945442 20.949458628892899 6.8067964464426067 11.534537330269812 15.182434886693953 12.948637440800665 11.025578647851942 10.255250394344332 72.723750337958336 10.676706776022909 6.2009148597717276 54.005552127957344 8.5665755569934827 16.695414334535599 19.509580552577972 5.8494261205196407 17.738748505711555 8.3137138485908491 16.870649412274361 11.334426552057268 9.8548024743795377 9.8372320234775525 33.85112139582634 8.5132438093423826 7.455861195921897 60.984687894582748 6.6870056986808804 53.315375164151192 16.228775769472122
leaf_count=1053 255 197 103 33 57 73 64 55 55 383 55 32 285 46 85 104 30 93 42 89 60 54 51 182 46 39 326 36 288 84
internal_value=0.000148541 0.0011745 -0.00161156 0.00699192 0.019044 0.0106894 0.014037 -0.00327962 -0.00269775 0.000833724 0.00353592 0.00209096 -0.0071215 0.0153378 0.00661883 0.00388957 0.00720238 0.0204516 0.038478 -0.00638631 0.00537585 -0.00944855 0.0193156 -0.00878955 -0.00611369 0.0150205 -0.00839638 -0.00308404 -0.00910446 0.0149021
internal_weight=836.259 791.59 535.565 256.026 44.5493 33.0148 33.8981 17.8324 501.667 256.478 220.28 209.604 68.773 14.7675 140.831 124.135 104.626 31.9019 14.1631 245.188 41.2817 20.1101 21.1717 203.907 170.056 15.9691 154.086 93.1018 70.186 22.9158
internal_count=4355 4100 2829 1271 218 161 167 88 2662 1352 1155 1100 363 78 737 652 548 165 72 1310 220 109 111 1090 908 85 823 497 377 120
is_linear=0
shrinkage=0.03


Tree=20
num_leaves=31
num_cat=0
split_feature=28 47 42 21 21 37 40 30 30 28 37 44 49 35 28 20 45 34 13 1 1 38 18 40 37 23 13 35 40 38
split_gain=17.3452 8.27759 8.25913 8.20229 7.42085 8.54037 7.52038 12.2478 8.44355 8.03772 8.11169 7.11157 7.29535 6.85216 6.79274 7.21646 6.78452 7.31599 6.74894 6.6813 7.42446 10.8968 6.50849 10.9143 9.02112 8.92095 8.83558 8.19334 7.71788 7.29211
threshold=0.22376025468111041 0.19358791410923007 0.080128207802772536 0.058041602373123176 0.060089981183409698 0.26416164636611944 0.22832099348306659 0.21640110760927203 0.27438272535800939 0.22810352593660357 0.22841932624578479 11.500000000000002 0.3234464973211289 0.015879652462899688 0.23892974108457568 0.08442415297031404 0.050601936876773841 0.066352203488349928 96.500000000000014 0.40620981156826025 0.37948974967002874 0.33735458552837377 9.9499998092651385 0.18753597885370257 0.17186500877141955 0.028999523259699348 93.500000000000014 0.0389060527086258 0.17651522904634478 0.32397283613681799
decision_type=2 2 2 2 2 2 2 2 2 2 2 2 2 2 2 2 2 2 2 2 2 2 2 2 2 2 2 2 2 2
left_child=16 -2 -3 13 5 -5 7 -6 14 -8 -11 12 18 -4 15 -9 -1 19 -12 20 21 -18 23 24 27 -25 -27 -21 -24 -28
right_child=1 2 3 4 6 -7 9 8 -10 10 11 -13 -14 -15 -16 -17 17 -19 -20 22 -22 -23 28 25 -26 26 29 -29 -30 -31
leaf_value=-0.0037667612204079215 0.004957171443478136 -0.024190982902713171 0.013361457387978068 -0.00030646144927670759 -0.018752411812259246 0.041166467021483966 -0.017114940295217488 -0.015302266491515084 -0.010634693887956535 -0.019853866374714303 0.013414098996809174 -0.01822049326458821 0.0090711549636752591 -0.011936777764057764 0.03587038089622769 0.018843068265319417 0.0015052856902860515 0.034957979871640045 -0.01891150596046871 0.028503433245293981 -0.0040228451909728987 0.033761908592789353 0.034460789001976765 -0.0013104518116706973 -0.020608424276514485 0.051635363916260446 0.024325087518595814 -0.014870047742997288 0.011867357375688881 -0.0046268781569093675
leaf_weight=49.838743567466736 108.90380398929119 17.094043046236038 9.6731491386890394 9.7868003845214862 12.226560682058333 7.0937188863754264 37.174873724579811 6.7012546509504345 9.6438895761966688 17.527601763606071 7.479332938790324 13.348429858684538 74.546260133385658 110.25162883102894 14.046600639820097 19.901854321360588 31.204700112342834 7.9572499990463248 18.030191481113434 8.0010797530412656 74.641865134239197 12.635035291314123 17.688647329807281 24.29032638669014 19.723243072628975 6.4222895056009284 21.418851941823959 6.0527256429195395 59.808692157268524 11.482010155916212
leaf_count=256 556 93 50 52 66 36 206 36 52 95 39 72 396 592 74 105 163 38 97 39 384 63 85 126 100 31 109 30 298 58
internal_value=0.00131712 -0.00230645 -0.00437503 -0.00338591 -0.000249894 0.0183655 -0.00169231 0.00710816 0.0136672 -0.00499682 -0.00144116 0.00154024 0.00434557 -0.00979019 0.0195856 0.00994484 0.00640504 0.00809929 -0.00922864 0.0072494 0.00171178 0.011381 0.0109614 0.00568462 -0.00791862 0.0129416 0.0215965 0.0099767 0.0174167 0.0143385
internal_weight=844.595 493.43 384.526 367.432 247.507 16.8805 230.627 62.5202 50.2936 168.107 130.932 113.404 100.056 119.925 40.6497 26.6031 351.165 301.327 25.5095 293.369 118.482 43.8397 174.888 97.3905 33.777 63.6135 39.3232 14.0538 77.4973 32.9009
internal_count=4397 2617 2061 1968 1326 88 1238 333 267 905 699 604 532 642 215 141 1780 1524 136 1486 610 226 876 493 169 324 198 69 383 167
is_linear=0
shrinkage=0.03


Tree=21
num_leaves=31
num_cat=0
split_feature=5 4 0 5 38 51 4 17 4 5 35 33 26 49 31 50 16 4 23 37 16 22 11 44 20 26 51 30 4 38
split_gain=18.3946 23.3834 19.2858 15.2109 14.6781 11.128 10.3944 8.62079 8.18224 12.0624 9.55941 9.23617 8.99298 7.9426 9.10031 9.00616 7.89239 7.53693 7.51686 8.01224 11.0824 7.44411 8.862 9.53823 8.91724 8.88683 7.8368 7.27789 7.01356 9.98835
threshold=0.36240115761756903 1.4957824349403384 0.72733509540557872 0.33183296024799352 0.33952052891254431 16.500000000000004 1.5908318758010866 54.049999237060554 1.5386661291122439 0.33621080219745642 0.036892807111144073 0.41553735733032232 0.015915231779217724 0.31293147802352911 0.66100230813026439 0.03080668114125729 76.549999237060561 1.5830539464950564 0.040618170052766807 0.22498131543397906 65.850002288818374 0.11007731780409814 74.500000000000014 6.5000000000000009 0.11010694131255151 0.033955955877900131 40.500000000000007 0.27670618891716009 1.4009372591972353 0.26604253053665167
decision_type=2 2 2 2 2 2 2 2 2 2 2 2 2 2 2 2 2 2 2 2 2 2 2 2 2 2 2 2 2 2
left_child=1 3 -3 4 7 6 -4 18 9 -7 11 12 -10 14 -9 -15 -8 -13 19 -1 -21 22 23 24 25 -6 -24 28 29 -5
right_child=-2 2 5 27 21 8 16 13 10 -11 -12 17 -14 15 -16 -17 -18 -19 -20 20 -22 -23 26 -25 -26 -27 -28 -29 -30 -31
leaf_value=0.00062965218122072372 -0.018709525693322137 0.025357338472039546 -0.017067433389158164 0.017731149616700612 -0.00038763747681075833 0.024002741289141781 -0.0044155573951732158 0.00053577203350554036 0.020213558750748713 -0.015625971078524946 0.033170628877597641 0.0036876178132373518 -0.02095146836571448 -0.017788425125176328 0.041509541753646295 -0.0017262050872491608 0.024079259569203572 0.032667504102404453 -0.010506685431462342 0.043068423814950733 0.0048213950221627664 0.033572818310197039 -0.024025722158490706 0.037825247144001338 -0.016184034426832888 0.040152578566234401 0.011993553972367208 -0.016787793392800399 0.00067621622886006978 -0.017935163599658663
leaf_weight=20.080847233533859 38.488876834511757 57.228371739387512 30.054479777812958 7.4527214914560309 10.209418192505842 9.5137178301811236 21.990772292017937 14.638910651206972 6.3392997980117824 19.173313140869141 21.397329583764076 15.943510279059408 12.80213415622711 37.07772321999073 6.3949983566999427 182.97019790112972 13.195754662156103 16.284360215067863 12.121126830577849 14.120270758867266 13.111410245299338 14.068109497427939 10.099669978022577 12.935362756252287 9.0819684863090497 8.1430298089981061 9.7208979874849302 54.034721866250038 100.20578902959824 45.887029156088829
leaf_count=103 222 272 157 40 51 46 111 78 31 97 101 82 65 198 33 966 65 79 62 73 69 68 51 63 46 39 48 300 533 248
internal_value=0.00128097 0.0022591 0.0104754 -0.000910156 0.00269466 0.00523658 -0.00437364 -0.0002667 0.0114136 -0.00206722 0.0167044 0.00931455 -0.00691716 -0.002801 0.0143797 -0.00450768 0.00659931 0.0189184 0.00986465 0.0152241 0.0255296 0.0145432 0.00959492 0.01753 0.0069143 0.018668 -0.00656062 -0.00740734 -0.00400926 -0.0126896
internal_weight=844.766 806.277 223.923 582.354 374.774 166.695 65.241 300.515 101.454 28.687 72.7666 51.3693 19.1414 241.082 21.0339 220.048 35.1865 32.2279 59.4337 47.3125 27.2317 74.2585 60.1903 40.3698 27.4344 18.3524 19.8206 207.58 153.546 53.3398
internal_count=4397 4175 1106 3069 1948 834 333 1582 501 143 358 257 96 1275 111 1164 176 161 307 245 142 366 298 199 136 90 99 1121 821 288
is_linear=0
shrinkage=0.03


Tree=22
num_leaves=31
num_cat=0
split_feature=5 4 0 5 51 47 51 4 45 50 21 30 46 4 49 48 4 40 49 17 41 48 22 46 4 36 34 25 34 17
split_gain=17.4934 21.9368 17.8539 14.3935 10.9658 10.9509 10.4549 9.87632 9.79095 9.96917 8.26776 7.98484 8.3876 7.6913 17.668 12.2166 8.03726 7.67471 7.51617 7.3401 7.10708 7.04929 7.18599 7.03758 6.98511 6.93083 6.81767 8.01957 7.92961 6.7347
threshold=0.36240115761756903 1.4957824349403384 0.72733509540557872 0.33183296024799352 43.500000000000007 0.1591632887721062 16.500000000000004 1.5908318758010866 0.095185421407222762 0.035232469439506538 0.08556829392910005 0.2143271937966347 0.018720794469118122 1.3751847147941592 0.31887084245681768 1.2989258766174319 1.3538585901260378 0.25590080022811895 0.30723194777965551 60.049999237060554 0.080128207802772536 1.2676278948783877 0.039927536621689803 0.024415080435574058 1.5908318758010866 0.25370255112648016 0.032903065904974944 0.049772908911108978 0.023990407586097721 66.950000762939467
decision_type=2 2 2 2 2 2 2 2 2 2 2 2 2 2 2 2 2 2 2 2 2 2 2 2 2 2 2 2 2 2
left_child=1 3 -3 4 17 -6 7 -4 10 23 13 12 -8 15 -15 25 -17 18 -1 -16 -14 22 -5 -10 -13 -7 27 -9 -29 -21
right_child=-2 2 6 21 5 8 11 26 9 -11 -12 24 20 14 19 16 -18 -19 -20 29 -22 -23 -24 -25 -26 -27 -28 28 -30 -31
leaf_value=0.027814738417952914 -0.018349599120920143 0.024372990561363279 -0.016706221418721134 0.012596400534286102 0.030251166446188485 -0.030040028429178172 -0.0019765907767642318 -0.024268939660380889 -0.021019122786407395 0.036705500004280286 -0.022063556588219683 -0.00238892686761337 0.013489546329203805 0.057005393878603462 0.021465902584856752 0.028253569443519623 -0.010776684997810791 -0.011447929205612316 2.4992869750352576e-06 -0.025553509918235091 0.045125122169923516 -0.002434102598258272 -0.016361329960610835 0.017801068954931557 0.0181660501582648 0.0041754567561010768 0.02455982913362758 0.029537773918476645 -0.011366917720078374 0.0051316567659319611
leaf_weight=8.2497260123491269 38.092199608683586 57.785126909613609 29.80855792760849 7.7411263585090628 17.908628687262535 15.769621551036836 9.5533219724893552 8.7174545377492922 5.8422574847936657 15.277036949992178 11.153573378920553 43.463054195046425 13.911813855171205 5.8314825296401969 14.860699534416197 10.7893313318491 7.1739243119955054 53.080757543444633 162.30223119258881 8.0161404162645358 13.522695183753966 119.61843521893024 79.426064595580101 9.8939190208911878 21.399604454636574 7.3797367215156546 11.319512918591498 7.8711341768503171 7.3691037148237228 21.53808219730854
leaf_count=42 222 272 157 42 85 86 46 45 31 78 59 223 66 30 75 55 36 286 838 43 62 635 444 51 104 40 56 38 37 113
internal_value=0.0012484 0.00219739 0.0101365 -0.00087841 0.00262157 0.00882878 0.00508387 -0.00425295 0.00574092 0.020228 0.00119058 0.0110483 0.0219974 0.00425396 0.0120332 -0.00527794 0.0128408 -0.00159561 0.00151084 0.00497035 0.0301743 -0.00721594 -0.0136589 0.0029042 0.00454269 -0.0193492 0.00639893 -0.00276186 0.0101847 -0.00370608
internal_weight=844.666 806.574 224.721 581.853 375.067 151.434 166.936 65.0858 133.526 31.0132 102.513 101.85 36.9878 91.359 50.2464 41.1126 17.9633 223.633 170.552 44.4149 27.4345 206.786 87.1672 15.7362 64.8627 23.1494 35.2772 23.9577 15.2402 29.5542
internal_count=4397 4175 1106 3069 1948 782 834 333 697 160 537 501 174 478 261 217 91 1166 880 231 128 1121 486 82 327 126 176 120 75 156
is_linear=0
shrinkage=0.03


Tree=23
num_leaves=31
num_cat=0
split_feature=28 4 1 45 19 16 6 4 51 48 30 33 30 33 51 28 1 47 39 0 38 42 2 42 4 2 25 4 4 20
split_gain=15.5169 14.7146 13.4977 9.42393 9.48904 9.24183 9.11662 9.97348 13.5908 10.5609 9.89737 13.3527 10.6156 11.3185 8.81242 8.25503 9.96587 11.431 10.1074 8.24583 10.3263 8.21378 9.74621 8.03354 8.03299 12.6355 8.0071 11.2224 7.65272 6.94653
threshold=0.22376025468111041 1.3977628350257876 0.40159702301025396 0.045497672632336623 92.110385894775405 77.649997711181655 0.37227033078670507 1.5529108643531802 7.5000000000000009 1.2736133933067324 0.22223611176013949 0.42973247170448309 0.27143372595310217 0.48970165848732 40.500000000000007 0.22508277744054797 0.41599763929843908 0.31671029329299932 0.31309312582015997 0.68163651227951061 0.33735458552837377 0.34313726425170904 0.21677567809820178 0.32291667163372045 1.4765876531600954 0.23756175488233569 0.10773836821317674 1.502706050872803 1.3718914985656741 0.06003003008663655
decision_type=2 2 2 2 2 2 2 2 2 2 2 2 2 2 2 2 2 2 2 2 2 2 2 2 2 2 2 2 2 2
left_child=1 19 5 -4 14 -3 7 9 -9 15 11 -11 13 29 26 -2 17 18 -17 20 -1 -14 28 -10 -6 -26 27 -5 -23 -12
right_child=6 2 3 4 24 -7 -8 8 23 10 12 -13 21 -15 -16 16 -18 -19 -20 -21 -22 22 -24 -25 25 -27 -28 -29 -30 -31
leaf_value=-0.0023229817393207843 -0.020473141807495411 0.047791233598608249 -0.0098341277955950289 -0.0028296987864813803 -0.0030290189004292425 0.0079929637955104514 -0.018197995814769274 -0.012640993455901164 0.029002432391660934 0.0043623501766423094 -0.0074756373594160172 -0.02805833524263196 -0.010566961381627084 -0.012797854548658651 0.036290616976336218 -0.0063877574039535355 -0.013898611751370632 0.029657177747997001 0.021981366712376927 -0.009941506169972367 0.026804969280968861 0.017822315976162548 0.037880295107742518 0.00018574868919436874 0.03033710249175952 0.0042680065968468267 -0.013048939994958191 0.03609354950549061 -0.02369911008520972 0.019272998403297784
leaf_weight=37.641822308301926 36.187262579798698 12.814829945564272 23.206577911973 11.540541350841524 55.048386052250862 9.3982727825641614 29.198406368494034 15.320134177803991 26.659318536520004 24.572665795683861 9.3149300813674909 19.914425224065781 46.742661491036415 13.4893801510334 19.629340246319771 78.638191998004913 64.202778890728951 10.256150558590887 12.16994087398052 63.455465480685234 14.32867059111595 6.9139279574155825 7.0614813119173041 12.879281267523764 22.512826576828957 60.140172451734543 8.5808472037315351 14.15594109892845 7.0688974261283875 71.473801851272583
leaf_count=197 202 64 119 57 288 47 164 79 133 124 49 107 248 71 92 430 344 54 65 330 70 37 36 65 105 302 42 67 38 371
internal_value=0.00121572 0.00601292 0.010278 0.00787765 0.0100705 0.0320871 -0.00222258 -0.00117453 0.0107139 -0.00279894 0.00195937 -0.0104154 0.00540851 0.0118731 0.0206474 -0.00767066 -0.00475211 0.00112291 -0.00237143 -0.00274564 0.00603393 -0.0036025 0.0115762 0.0198888 0.00580013 0.0116643 0.0108717 0.0191054 -0.00324913 0.0161169
internal_weight=844.517 352.454 237.028 214.815 191.608 22.2131 492.064 462.865 54.8587 408.006 206.552 44.4871 162.065 94.2781 53.9067 201.454 165.267 101.064 90.8081 115.426 51.9705 67.787 21.0443 39.5386 137.701 82.653 34.2773 25.6965 13.9828 80.7887
internal_count=4397 1780 1183 1072 953 111 2617 2453 277 2176 1081 231 850 491 258 1095 893 549 495 597 267 359 111 198 695 407 166 124 75 420
is_linear=0
shrinkage=0.03


Tree=24
num_leaves=31
num_cat=0
split_feature=28 4 1 45 6 4 51 17 4 6 39 44 36 0 45 0 2 50 16 6 0 38 38 27 2 29 29 0 20 28
split_gain=14.6242 13.8046 12.5045 8.86721 8.69341 9.37045 12.7305 8.70016 8.48586 9.81342 11.7965 11.3139 9.88582 9.45404 12.2155 8.45967 12.2402 8.77121 8.41818 8.38597 7.80097 9.637 7.64544 7.52939 7.71123 7.49904 8.08244 12.2508 9.81545 7.52189
threshold=0.22376025468111041 1.3977628350257876 0.40159702301025396 0.045497672632336623 0.37227033078670507 1.5529108643531802 7.5000000000000009 59.549999237060554 1.5003131628036501 0.34020701050758367 0.29663635790348059 5.5000000000000009 0.19989959895610812 0.73050707578659069 0.072751775383949294 0.69402870535850536 0.19142761081457141 0.038055118173360832 77.649997711181655 0.32612098753452307 0.68163651227951061 0.33735458552837377 0.32287698984146124 0.27593103051185613 0.17578674852848056 0.24959547072649005 0.2654083520174027 0.69537761807441723 0.084983661770820632 0.22508277744054797
decision_type=2 2 2 2 2 2 2 2 2 2 2 2 2 2 2 2 2 2 2 2 2 2 2 2 2 2 2 2 2 2
left_child=1 20 18 -4 5 7 -7 15 9 10 19 -11 -12 14 -10 16 23 -17 -3 -5 21 -1 -15 24 -2 -9 27 -27 -29 -28
right_child=4 2 3 8 -6 6 -8 25 13 11 12 -13 -14 22 -16 17 -18 -19 -20 -21 -22 -23 -24 -25 -26 26 29 28 -30 -31
leaf_value=-0.002257574106394909 0.027459082380437812 0.045583304242956507 -0.009593195788645285 0.00041427751887935426 -0.017837842353680265 -0.012354572900219553 0.019152680778385257 -0.011232876339213374 0.057447889775762345 -0.033901234062183039 0.01092304825175569 0.0021519695725148668 -0.02016663489227587 0.018816070202029207 0.013356375885030849 -0.0081550253398732526 0.03045446951464929 0.01333273949427892 0.0077517446943613389 0.039752534448577244 -0.009693399090537522 0.025781345593930183 -0.00075402188671005164 -0.018411721280799483 -0.0031714710321805017 -0.011459072102369428 -0.022970639451902652 0.0024009150840800806 0.046202864455057661 -0.0013447420259424174
leaf_weight=37.600043788552284 11.838862329721453 13.076779186725618 23.102441936731339 7.1757901757955578 28.918764427304268 15.229618698358534 39.874294757843018 126.33272808790207 9.2639794647693652 10.34161154925823 26.649613320827484 24.763566166162491 12.795621186494825 40.107513725757599 14.728915452957152 67.117256179451942 19.691296875476837 21.823758646845818 9.4306244850158674 14.908982083201407 63.157426312565804 14.487864613533018 31.529586166143417 10.794749438762663 16.850123897194862 11.123888388276102 16.438263341784477 8.3635178357362765 9.7916511148214322 87.180719688534737
leaf_count=197 61 64 119 37 164 79 198 681 41 55 130 127 67 198 68 356 102 114 47 75 330 70 155 59 88 61 93 45 51 465
internal_value=0.00118259 0.00583219 0.00994891 0.00763064 -0.00216083 -0.00114088 0.010353 -0.00272093 0.00974693 0.00340107 0.0105728 -0.00907217 0.000551531 0.0160424 0.0320581 0.00305949 0.0117559 -0.00277621 0.0307997 0.0276074 -0.00266461 0.00585172 0.0102902 0.00187163 0.00991722 -0.00602851 -0.0010231 0.0126212 0.0272817 -0.00497661
internal_weight=844.49 353.12 237.875 215.368 491.369 462.451 55.1039 407.347 192.265 96.6352 61.53 35.1052 39.4452 95.63 23.9929 148.116 59.175 88.941 22.5074 22.0848 115.245 52.0879 71.6371 39.4837 28.689 259.231 132.898 29.2791 18.1552 103.619
internal_count=4397 1780 1183 1072 2617 2453 277 2176 953 491 309 182 197 462 109 780 310 470 111 112 597 267 353 208 149 1396 715 157 96 558
is_linear=0
shrinkage=0.03


Tree=25
num_leaves=31
num_cat=0
split_feature=28 5 5 48 21 3 23 36 26 33 4 20 27 5 2 20 29 1 47 5 17 45 27 29 4 16 48 31 49 41
split_gain=17.1368 12.0489 11.0749 10.7267 10.6874 8.48554 9.44132 10.6885 9.68266 8.47208 8.35731 8.81311 9.26288 7.59747 10.1966 7.09566 11.4463 7.78254 7.03305 7.21075 9.25605 17.9535 12.6651 8.98067 8.7912 8.98691 8.86423 6.99686 6.85446 6.42259
threshold=0.14971264451742175 0.33339820802211767 0.36742210388183599 1.2804673314094546 0.095388032495975508 0.34762050211429601 0.01795007195323706 0.19777750223875049 0.030631792731583122 0.31148692965507513 1.5186151266098025 0.10425231605768205 0.15700280666351321 0.29739946126937872 0.17578674852848056 0.083304177969694151 0.26637428998947149 0.42089432477951055 0.24328829348087314 0.32285134494304663 66.850002288818374 0.086988586932420744 0.24333214759826663 0.16018867492675784 1.6582124233245852 78.250000000000014 1.3125907778739931 0.44529914855957037 0.33015100657939916 0.10263158008456232
decision_type=2 2 2 2 2 2 2 2 2 2 2 2 2 2 2 2 2 2 2 2 2 2 2 2 2 2 2 2 2 2
left_child=1 5 3 9 13 6 -1 8 -8 -2 -3 12 -12 -5 -15 -6 17 -17 19 23 24 -22 -23 -16 25 26 28 -20 -21 -25
right_child=2 10 -4 4 15 -7 7 -9 -10 -11 11 -13 -14 14 18 16 -18 -19 27 20 21 22 -24 29 -26 -27 -28 -29 -30 -31
leaf_value=0.043168716002230004 0.017772082325085582 -0.012135566698939461 -0.025040302389871379 -0.019719454896174469 -0.022670215106024474 0.041737436374518919 -0.0035642019271336085 -0.020157680245920174 0.027115035912893423 -0.005391085591951666 -0.0055733561348578322 -0.016256455988173338 0.037191927532517911 0.026535418196870175 -0.015795195996989444 -0.002727737646498616 -0.024721977427043712 0.030318965081756202 0.0077647244903640287 0.041952860047957188 -0.017709356072242093 0.033622676419819919 -0.011387810298522308 0.026552429089062433 0.039705234062173911 0.017416799392378453 -0.0060325630254281148 -0.01395053663899278 0.00081458801122967755 0.0034559350635458693
leaf_weight=7.5463847070932379 13.88248637318611 24.336274862289429 15.910344988107679 9.6884352415800077 20.184568345546722 12.037764623761175 14.630710676312445 8.5719194710254651 22.928766265511513 319.73177273571491 6.5997463315725389 6.4467258453369132 11.908143147826193 19.451314806938171 6.4180800020694724 15.806255310773851 11.285340368747709 9.5478019416332227 21.552680358290672 5.9220636188983899 39.098503485321999 12.920133441686632 8.7125533670186979 36.970270320773125 6.7317591309547415 40.137341275811195 53.058016315102577 31.882662713527679 7.9472325295209885 15.848078250885008
leaf_count=37 71 126 96 51 108 56 71 46 109 1718 32 32 55 99 32 82 60 48 114 30 207 63 46 186 32 198 267 167 42 80
internal_value=0.000669282 0.0113741 -0.00104554 -0.000468654 0.0030198 0.0196846 0.0140387 0.00842688 0.015343 -0.0043725 9.3361e-05 0.0120851 0.0223613 0.00517717 0.00603018 -0.00884618 -0.000790728 0.0103383 0.00454895 0.00679244 0.00366815 -0.00571334 0.0157263 0.0157589 0.00869411 0.00638101 -0.000374219 -0.00518258 0.0201212 0.0198432
internal_weight=837.694 115.006 722.688 706.777 373.163 65.7155 53.6778 46.1314 37.5595 333.614 49.2909 24.9546 18.5079 316.339 306.651 56.824 36.6394 25.3541 287.199 233.764 174.528 60.7312 21.6327 59.2364 113.796 107.065 66.9273 53.4353 13.8693 52.8183
internal_count=4361 564 3797 3701 1912 319 263 226 180 1789 245 119 87 1614 1563 298 190 130 1464 1183 885 316 109 298 569 537 339 281 72 266
is_linear=0
shrinkage=0.03


Tree=26
num_leaves=31
num_cat=0
split_feature=28 34 48 21 34 34 34 36 4 34 51 51 46 32 48 24 1 10 19 16 28 37 18 45 31 45 0 26 11 28
split_gain=16.1183 10.6018 9.76695 10.2614 9.27434 7.47587 7.85739 6.84778 6.79429 6.65407 7.91949 12.9802 7.58937 8.22166 8.74818 10.1074 8.46214 7.75373 7.59725 8.72713 7.65085 7.42054 7.15564 6.80355 6.53999 6.23022 5.94019 5.88797 6.62387 5.61246
threshold=0.14971264451742175 0.051758484914898879 1.2804673314094546 0.095388032495975508 0.054595131427049644 0.032555362209677703 0.038222094997763641 0.20939399302005771 1.6737980246543886 0.038840338587760932 6.5000000000000009 40.500000000000007 0.021469470113515857 59.500000000000007 1.3205931186676028 0.22484903037548068 0.36437343060970312 530.00000000000011 91.895195007324233 78.350002288818374 0.25332021713256841 0.24019906669855121 10.650000095367433 0.090980447828769698 0.46720430254936224 0.09187770634889604 0.66119202971458446 0.010230245999991896 70.500000000000014 0.13136324286460879
decision_type=2 2 2 2 2 2 2 2 2 2 2 2 2 2 2 2 2 2 2 2 2 2 2 2 2 2 2 2 2 2
left_child=1 8 4 9 -2 7 -7 -5 29 12 -11 -12 24 14 15 -14 26 21 19 20 23 -17 -13 -18 25 -4 -16 -26 -29 -1
right_child=2 -3 3 5 -6 6 -8 -9 -10 10 11 22 13 -15 16 17 18 -19 -20 -21 -22 -23 -24 -25 27 -27 -28 28 -30 -31
leaf_value=0 -0.0054142884709375881 0.0351736715918523 -0.0032358712712681854 0.0019940794358482249 0.028792829379279326 0.023324475730655936 -0.012692479433869322 -0.025155873287540889 0.03090124213058586 0.024805184398782116 -0.019131587106510067 0.018533153322272875 0.043735782679883733 -0.017631571168674896 0.00820220684319054 0.036143835868815768 -0.020777674187328999 -0.0064664003978620755 -0.00078331968557362108 0.02876206639706352 0.028804874605061391 -0.0023131637198288732 -0.011528972342301881 0.013170590514574204 -0.030687699147272686 0.026675696689325255 0.048899237765078631 -0.015293079600010957 0.016131325400377958 0.015949485223069194
leaf_weight=65.174370184540749 334.71106342971325 13.439790323376654 15.455261722207071 11.717024847865103 6.2952762246131888 9.8918097317218798 9.9527965039014799 26.261263757944107 9.1355464160442335 6.8426872789859763 35.135128334164619 18.434522807598118 13.039705842733381 8.6965564489364606 7.059066563844679 12.699630558490759 11.670894861221319 11.789149090647696 83.271364331245422 19.866982936859131 6.3809000849723807 6.4595979899168006 10.346893683075903 8.210987910628317 9.1713602840900403 9.2542515248060209 6.0430096834897995 14.474214479327204 8.8993856310844404 27.645357713103294
leaf_count=324 1808 62 82 60 31 52 51 143 43 35 182 92 64 46 36 65 61 63 430 95 32 35 52 39 48 47 30 74 44 135
internal_value=0.000653588 0.011015 -0.00101325 0.00228251 -0.00469607 -0.00924631 0.00544638 -0.0169049 0.00750515 0.00437188 -0.0037057 -0.00711617 0.00664761 0.00945568 0.0108141 0.0224001 0.00709611 0.0122761 0.00463811 0.0142654 0.00259138 0.023632 0.00765125 -0.00672629 -0.00289766 0.00851016 0.0292156 -0.0115992 -0.0030959 0.00488164
internal_weight=837.426 115.395 722.031 381.024 341.006 57.8229 19.8446 37.9783 101.955 323.202 70.7592 63.9165 252.442 195.188 186.491 43.9881 142.503 30.9484 129.401 46.1298 26.2628 19.1592 28.7814 19.8819 57.2545 24.7095 13.1021 32.545 23.3736 92.8197
internal_count=4361 564 3797 1958 1839 306 103 203 502 1652 361 326 1291 996 950 227 723 163 657 227 132 100 144 100 295 129 66 166 118 459
is_linear=0
shrinkage=0.03


Tree=27
num_leaves=31
num_cat=0
split_feature=28 34 30 35 29 20 28 36 30 30 29 37 36 28 49 51 22 33 20 49 50 30 33 33 39 17 25 40 15 35
split_gain=15.1494 9.84534 8.80272 11.8362 9.21638 7.75953 7.3579 7.13879 11.6395 9.85138 10.0974 8.54725 7.41419 7.17663 6.77222 12.9175 14.4858 9.61913 10.1514 8.28967 7.4022 7.29738 6.43341 6.61371 6.23739 5.99247 5.72729 5.53778 5.25735 7.34711
threshold=0.14971264451742175 0.051758484914898879 0.16668386012315753 0.020227757282555107 0.27949082851409918 0.081626661121845259 0.49712643027305609 0.22629658132791522 0.18534500151872638 0.27921316027641302 0.31026500463485723 0.16139049828052524 0.18741541355848315 0.2725138813257218 0.33015100657939916 11.500000000000002 0.075486235320568099 0.44723598659038549 0.1038804203271866 0.31390357017517095 0.023625112138688568 0.21779379993677142 0.31148692965507513 0.3430334627628327 0.3176777064800263 56.350000381469734 0.088935971260070815 0.1675817668437958 1.0000000180025095e-35 0.015506738331168892
decision_type=2 2 2 2 2 2 2 2 2 2 2 2 2 2 2 2 2 2 2 2 2 2 2 2 2 2 2 2 2 2
left_child=1 2 3 27 -4 24 7 8 11 13 -11 -2 -12 14 15 20 19 18 -18 -17 -10 -20 -9 -24 -5 -6 -27 -1 29 -25
right_child=6 -3 4 5 25 -7 -8 22 9 10 12 -13 -14 -15 -16 16 17 -19 21 -21 -22 -23 23 28 -26 26 -28 -29 -30 -31
leaf_value=0.037260886356290199 0.0095110917800117576 0.033806213181066094 0.029595257292624862 -0.015642799389966894 -0.016779474247019643 -0.020444457468921862 0.022264625810745869 0.014570042257628552 0.010217671215617894 -0.026888277840068409 -0.016884947085773983 -0.014959754826699603 0.013067804158184497 0.026788332663691562 0.00017996170297542813 0.030238944335344846 0.045987720125736674 0.0025067500038859396 -0.010759154879613162 -0.0023979060683352064 -0.022460726406733602 0.031787745094704563 -0.021077012263470467 0.028611872898511755 0.020153456059801317 0.027264596485366596 -0.0057432208948105358 0.00015244537945481077 -0.010110937835793744 -0.0025861354015024691
leaf_weight=7.6325291693210584 15.857250764966009 13.601833179593084 23.290591195225716 6.3481993228197124 7.9019658714532879 23.119175568223 11.049743145704268 14.1978722512722 9.7652243971824664 16.211555182933807 10.875158697366716 54.774775072932243 18.88661228120327 13.68167571723461 124.31432348489761 7.461429387331008 22.821138262748718 11.519123896956442 6.2677206695079786 39.696817740797997 14.127138704061506 6.4454590231180191 21.677857652306557 6.0256283581256858 9.9308721870183927 9.8778749108314532 7.7432223260402671 6.3872533142566681 93.019014775753021 202.68138490617275
leaf_count=36 78 62 111 32 40 115 58 73 51 89 57 280 102 70 640 38 112 59 32 207 73 32 117 31 47 49 40 32 508 1090
internal_value=0.000642039 0.0106651 0.00727402 -0.00113884 0.0163486 -0.00959831 -0.000977897 -0.00137237 0.00148573 0.00405602 -0.00858841 -0.0093889 0.001881 0.00635627 0.00509165 0.0102041 0.015178 0.0267794 0.0343228 0.00325547 -0.00917032 0.0114474 -0.00452715 -0.00541249 0.00601007 0.00354395 0.01315 0.0215903 -0.00421619 -0.00154612
internal_weight=837.19 115.834 102.232 53.418 48.8137 39.3982 721.357 710.307 372.705 302.073 45.9733 70.632 29.7618 256.1 242.418 118.104 94.2117 47.0534 35.5343 47.1582 23.8924 12.7132 337.602 323.404 16.2791 25.5231 17.6211 14.0198 301.726 208.707
internal_count=4361 564 502 262 240 194 3797 3739 1920 1562 248 358 159 1314 1244 604 480 235 176 245 124 64 1819 1746 79 129 89 68 1629 1121
is_linear=0
shrinkage=0.03


Tree=28
num_leaves=31
num_cat=0
split_feature=28 5 5 6 4 6 33 16 17 30 4 21 13 41 45 31 31 4 42 31 5 4 17 39 17 5 31 30 47 51
split_gain=14.2524 11.1424 10.5742 10.036 9.82289 10.397 10.3696 10.29 10.1839 9.56588 9.19006 9.30899 9.42561 9.10013 8.8621 8.62874 8.5702 7.60974 6.94504 7.91072 9.32674 8.79925 10.1054 6.83539 6.69758 6.82969 6.69477 11.7186 6.22862 11.3227
threshold=0.14971264451742175 0.33339820802211767 0.36742210388183599 0.3221419900655747 1.5908318758010866 0.34699949622154241 0.34633864462375646 94.649997711181655 62.149999618530281 0.16448628902435306 1.449570417404175 0.090473901480436339 95.500000000000014 0.069047622382640853 0.060421122238039977 0.38397435843944555 0.8019607961177827 1.5186151266098025 0.11437908560037614 0.24764151126146319 0.29739946126937872 1.2690456509590151 60.850000381469734 0.30279392004013067 66.649997711181655 0.3548682183027268 0.35339367389678961 0.24738635122776034 0.21139575541019442 55.500000000000007
decision_type=2 2 2 2 2 2 2 2 2 2 2 2 2 2 2 2 2 2 2 2 2 2 2 2 2 2 2 2 2 2
left_child=1 3 4 9 5 7 8 10 -7 -1 13 12 14 -2 -12 23 24 -3 -15 -20 -21 -22 -23 -6 -17 -26 27 -24 29 -8
right_child=2 17 -4 -5 15 6 28 -9 -10 -11 11 -13 -14 18 -16 16 -18 -19 19 20 21 22 26 -25 25 -27 -28 -29 -30 -31
